tree
version=v4
num_class=1
num_tree_per_iteration=1
label_index=0
max_feature_idx=18
objective=binary sigmoid:1
feature_names=dilep_pt dilep_dr dilep_deltaPhi dilep_deltaEta dijet_m dijet_pt dijet_dr dijet_deltaPhi dijet_deltaEta dijet_CvsL_max dijet_CvsL_min dijet_CvsB_max dijet_CvsB_min dijet_pt_max dijet_pt_min ZH_pt_ratio ZH_deltaPhi deltaPhi_l2_j1 deltaPhi_l2_j2
feature_infos=[150.00030517578125:1708.637451171875] [0.10723894089460373:2.6330568790435791] [0:2.5808842182159424] [0:1.7138748168945312] [75.003868103027344:199.97868347167969] [1.7957793474197388:1218.052001953125] [0.40042829513549805:4.950167179107666] [0:3.1414794921875] [0:3.961669921875] [0.2000732421875:0.99951171875] [0.01363372802734375:0.9990234375] [0.400146484375:0.982421875] [1.7523765563964844e-05:0.9794921875] [20.015625:1168] [20.015625:991] [0.0080218295480237595:4.1728439693361414] [4.7206878662109375e-05:3.1415876150131226] [0.00011444091796875:3.1415839195251465] [0.0009765625:3.1415837446795862]
tree_sizes=3440 3439 3442 3440 3451 3447 3458 3454 3458 3434 3451 3450 3450 3472 3452 3461 3458 3451 3451 3451 3460 3453 3471 3469 3458 3468 3462 3447 3466 3451 3447 3452 3465 3463 3454 3474 3459 3450 3466 3461 3472 3447 3460 3475 3457 3469 3459 3457 3473 3487 3437 3447 3451 3459 3471 3449 3467 3452 3466 3442 3459 3460 3467 3473 3449 3453 3452 3458 3422 3419 3411 3464 3447 3432 3439 3462 3457 3426 3423 3431 3418 3453 3392 3430 3452 3402 3425 3405 3433 3418 3423 3429 3425 3413 3418 3426 3439 3448 3416 3414

Tree=0
num_leaves=31
num_cat=0
split_feature=9 6 4 10 4 4 9 4 16 15 9 10 10 16 13 16 11 17 1 18 2 18 8 17 16 15 4 15 16 14
split_gain=19638.1 4466.92 2080.26 1665.52 1065.08 1037.49 832.471 624.208 571.765 515.609 490.985 480.213 404.153 365.787 328.834 290.79 270.065 246.835 241.085 232.542 215.789 207.771 188.471 152.819 150.299 146.443 138.609 195.556 130.956 129.066
threshold=0.80681144902157664 1.563405417572584 150.30072850587007 0.18850916087660566 107.01003781153348 146.58958848859729 0.95459039173526938 139.99630532963383 3.0746600629263057 0.92957568934789037 0.9863440825541846 0.2005652642701852 0.1573547072490902 3.0817988640865193 40.813342860353707 3.00398479227955 0.89354969670381112 3.0081698020272936 1.0836703563958052 2.7921877441623626 0.15506028741320266 2.9880256652832036 0.57882370112195214 2.9495877797671906 2.9902341394672534 0.66883625075433983 104.01634121423034 0.90866081263973453 3.0756919533128024 78.125402856808435
decision_type=2 2 2 2 2 2 2 2 2 2 2 2 2 2 2 2 2 2 2 2 2 2 2 2 2 2 2 2 2 2
left_child=1 3 6 4 9 8 12 11 16 17 -4 13 18 20 -10 -5 21 19 24 -1 -3 22 -6 -22 -2 -14 27 -17 -21 -16
right_child=2 7 10 15 5 -7 -8 -9 14 -11 -12 -13 25 -15 29 26 -18 -19 -20 28 23 -23 -24 -25 -26 -27 -28 -29 -30 -31
leaf_value=-0.086898149082412529 0.032213357441394405 0.017837524598860847 -0.067780826213273859 0.026278291078832103 0.0093712245998041066 -0.13837187745984458 0.1691102649184566 -0.15656771538859313 -0.088780302554037321 -0.13877855844932532 0.090302612211845379 -0.01977924245538791 0.066982556622733669 -0.023577095731223647 0.051242812195687874 0.13455299903260196 0.097508926148473174 0.10213229649547545 -0.0018392964398099886 -0.023171606151080066 -0.13661338649719346 0.10189238149852126 -0.083657783508427064 -0.039831509723367707 0.12145494398150836 0.15261534970245128 0.14342580167424188 -0.05248819344308181 0.12933778380281821 0.12896659218481035
leaf_weight=773.24281007051468 295.747250020504 100.74906319379807 632.49411880970001 563.49476039409637 336.49687111377716 443.99587154388428 4211.9608354568481 3685.4657310247421 100.24906784296036 1142.2393789887428 284.99734997749329 633.24411183595657 246.99770331382751 392.4963504076004 328.74694317579269 126.74882143735886 175.24837046861649 104.99902367591858 452.24579483270645 200.74813336133957 2799.2239716649055 98.249086439609528 617.24426060914993 173.24838906526566 521.49515092372894 1042.9903018474579 620.49423038959503 99.999070167541504 78.249272406101227 610.24432569742203
leaf_count=3093 1183 403 2530 2254 1346 1776 16848 14742 401 4569 1140 2533 988 1570 1315 507 701 420 1809 803 11197 393 2469 693 2086 4172 2482 400 313 2441
internal_value=-0.00609751 -0.0757758 0.122632 -0.0140305 -0.0410569 0.00141141 0.141778 -0.126704 0.0287945 -0.0911159 -0.0186759 -0.0998531 0.0967988 -0.114484 0.0833752 0.0819488 -0.0174251 -0.044071 0.056742 -0.05866 -0.126094 -0.0365717 -0.0508355 -0.130973 0.0891598 0.136219 0.118975 0.0520652 0.0196021 0.101755
internal_weight=0 14205.1 7688.93 6420.69 5009.95 2710.47 6771.44 7784.43 2266.48 2299.48 917.491 4098.96 2559.48 3465.72 1039.24 1410.74 1227.24 1157.24 1269.49 1052.24 3073.22 1051.99 953.741 2972.47 817.242 1289.99 847.242 226.748 278.997 938.991
internal_count=87577 56821 30756 25683 20040 10842 27086 31138 9066 9198 3670 16396 10238 13863 4157 5643 4909 4629 5078 4209 12293 4208 3815 11890 3269 5160 3389 907 1116 3756
is_linear=0
shrinkage=1


Tree=1
num_leaves=31
num_cat=0
split_feature=9 6 4 10 9 4 4 16 6 9 4 4 11 10 15 16 1 16 10 11 13 14 14 2 13 17 16 12 16 4
split_gain=16071.1 3429.73 1933.82 1325.28 868.157 832.47 818.791 581.278 462.959 441.818 435.592 406.038 398.897 348.253 322.307 250.865 243.437 240.637 205.083 203.115 179.178 255.231 165.315 160.509 144.685 137.231 134.454 134.185 128.46 127.978
threshold=0.77470152813314919 1.5844390567466262 150.30072850587007 0.19543874845066206 0.97219274846432147 101.79574502453791 148.38779031125776 3.1018699741167395 1.5264088353579504 0.98242686135932789 139.99630532963383 100.72561000688971 0.83253095612581018 0.1706110931541579 0.93147624952957442 2.9354466277158306 1.0603596146464611 3.0930963502881088 0.15295863124427495 0.86082190854728291 40.250478583760426 42.053533214696579 84.663383861629356 0.14774316740215462 41.439165080738888 3.0081698020272936 3.0166855067219696 0.91455882573037572 3.0293200259381021 105.46163558959962
decision_type=2 2 2 2 2 2 2 2 2 2 2 2 2 2 2 2 2 2 2 2 2 2 2 2 2 2 2 2 2 2
left_child=1 3 4 5 8 14 7 12 11 -4 13 16 20 17 19 -5 -2 23 -10 25 -7 -22 -14 -3 -9 -1 -15 28 -23 -17
right_child=2 10 9 15 -6 6 -8 24 18 -11 -12 -13 22 26 -16 29 -18 -19 -20 -21 21 27 -24 -25 -26 -27 -28 -29 -30 -31
leaf_value=-0.07985559787972471 0.10166392431047307 0.026714139085026824 -0.062990342723694803 0.010376859755281985 0.16335802510682884 -0.13017778701524488 -0.13001008727929328 -0.038414529179597451 0.0034243835894176965 0.079938165745729151 -0.13787117064635626 0.14386920685400673 0.0014563986336814322 -0.052927753781222442 -0.1297156709883851 0.051890105461883274 -0.030116990544267693 -0.014264361074307294 0.088387673668152242 0.052760852123446812 -0.11856683061855273 -0.047072970877924177 0.10777991710425133 -0.11768910879761058 0.10660608263272381 0.072296522101801791 0.044661237337671411 0.1167903042226372 0.032160856523719278 0.1345594992196518
leaf_weight=754.41033138334751 337.37794272601604 79.243579775094986 693.03092843294144 361.91893704235554 3685.3386624455452 193.74777920544147 438.12440559267998 76.566029071807861 631.20986081659794 314.38535034656525 3528.8298910260201 1715.7679568976164 277.43635948002338 630.89031386375427 915.66346275806427 269.86299695074558 239.82323299348354 267.7127992361784 516.61702609062195 168.16533324122429 238.99084766209126 501.97989057004452 309.22826494276524 2687.6587828546762 677.91302721202374 64.333455502986908 181.87971910834312 85.32673117518425 345.4209781140089 611.78493840992451
leaf_count=3023 1355 317 2777 1448 14847 777 1761 307 2530 1260 14202 6894 1112 2527 3680 1082 962 1071 2074 674 958 2011 1240 10797 2720 258 728 342 1385 2458
internal_value=0 -0.0662344 0.111299 -0.0119902 0.129632 -0.0347728 -0.00318402 0.0173456 0.0935094 -0.0183865 -0.112497 0.119462 -0.0114648 -0.0892239 -0.0869855 0.0804784 0.0469098 -0.104794 0.0416649 -0.04734 -0.0410947 -0.0263644 0.057499 -0.113553 0.0918891 -0.0679001 -0.0310895 -0.00273962 -0.0147754 0.109255
internal_weight=0 13667.1 8133.55 6290.87 7126.13 5047.31 3144.73 2706.61 3440.8 1007.42 7376.22 2292.97 1952.13 3847.39 1902.57 1243.57 577.201 3034.62 1147.83 986.909 1365.47 1171.72 586.665 2766.9 754.479 818.744 812.77 932.728 847.401 881.648
internal_count=87577 54878 32699 25236 28662 20248 12613 10852 13815 4037 29642 9211 7825 15440 7635 4988 2317 12185 4604 3955 5473 4696 2352 11114 3027 3281 3255 3738 3396 3540
is_linear=0
shrinkage=0.1


Tree=2
num_leaves=31
num_cat=0
split_feature=9 6 4 10 4 4 9 10 16 15 10 9 17 16 8 4 4 15 4 1 16 4 16 11 11 16 11 12 16 14
split_gain=13206.4 3172.15 1267.75 1181.96 764.227 739.585 526.66 473.08 359.22 355.754 336.276 274.739 270.081 268.93 244.005 239.633 316.474 346.754 220.464 215.722 212.446 197.572 167.915 155.034 148.221 138.187 134.929 123.888 123.862 117.436
threshold=0.82675808898070835 1.5561785817846807 152.85897063658365 0.18640604285195353 109.49963950796747 145.95648956298831 0.97219274846432147 0.1706110931541579 2.9770252480757446 0.90866081263973453 0.19543874845066206 0.99121320294371718 2.9689355623077303 3.0726324713284612 0.65811157226562511 147.20185041148002 102.9619307440601 0.9664719490395971 143.57329821668222 1.0971961889043096 3.0564384480291094 141.36843486592241 3.0623752847836148 0.8719566750133062 0.88569604198796148 3.1059048222721293 0.91940518655083003 0.861818917732041 3.060113007920771 49.312872362903242
decision_type=2 2 2 2 2 2 2 2 2 2 2 2 2 2 2 2 2 2 2 2 2 2 2 2 2 2 2 2 2 2
left_child=1 3 6 4 9 8 10 12 24 13 19 -4 18 23 -10 16 17 -5 20 28 26 22 27 -1 -6 -16 -3 -9 -2 -21
right_child=2 7 11 15 5 -7 -8 21 14 -11 -12 -13 -14 -15 25 -17 -18 -19 -20 29 -22 -23 -24 -25 -26 -27 -28 -29 -30 -31
leaf_value=-0.072659069319136502 0.055016748683926253 -0.11398802381331197 -0.048064824625587345 0.082576083945401071 -0.054874753293141565 -0.10545163981751736 0.14980693663864825 -0.053676588280915073 0.10230711189858577 -0.10069289208810331 0.1304838655947988 0.085742907288639203 -0.026745977843464996 0.055526683403581467 -0.00721245495277673 -0.087034843013722774 0.11654780387121305 -0.099255800136723721 -0.13661181340989112 -0.043427509927645158 -0.040978344473225958 -0.093575907657518387 0.076219997197183129 0.050037418406734646 0.10511832498687704 0.080431097293453255 0.00048294557024800179 0.064917941486289113 0.12426749213645714 0.053770424365232321
leaf_weight=697.85498045384884 564.88825407624245 2590.7055112719536 555.84544672071934 281.39249242842197 457.82774502038956 443.15187285840511 3653.0512779951096 693.20385178923607 745.77443215250969 1365.2443173527718 1258.4794192016125 211.96053427457809 363.7192255705595 304.47774735093117 525.73420792818069 86.816691786050797 960.04099568724632 167.19082103669643 2701.9260904043913 241.35039882361889 544.830072671175 599.39427070319653 151.6753414273262 120.81059387326241 66.287775382399559 273.47812215983868 107.23292370140553 100.90706266462803 475.84467455744743 256.31722103059292
leaf_count=2807 2280 10523 2233 1131 1839 1802 15016 2783 3008 5539 5122 854 1474 1225 2115 350 3892 670 11038 968 2193 2447 608 484 267 1105 435 405 1933 1031
internal_value=0 -0.0554887 0.110344 -0.0037918 -0.0271181 0.0117887 0.124804 -0.0982497 0.0368987 -0.0663981 0.0921465 -0.0111259 -0.110397 -0.0247108 0.0611671 0.0742097 0.0841476 0.0148058 -0.115515 0.0607848 -0.097936 -0.0486586 -0.0201921 -0.0545527 -0.0346395 0.0227778 -0.109438 -0.0386069 0.0866796 0.00663302
internal_weight=0 14349.7 7217.74 6496.08 5000.64 2512.25 6449.93 7853.59 2069.1 2488.39 2796.88 767.806 6308.41 1123.14 1544.99 1495.44 1408.62 448.583 5944.69 1538.4 3242.77 1545.18 945.786 818.666 524.116 799.212 2697.94 794.111 1040.73 497.668
internal_count=87577 58140 29437 26234 20191 10136 26350 31906 8334 10055 11334 3087 25663 4516 6228 6043 5693 1801 24189 6212 13151 6243 3796 3291 2106 3220 10958 3188 4213 1999
is_linear=0
shrinkage=0.1


Tree=3
num_leaves=31
num_cat=0
split_feature=9 6 4 4 4 9 10 14 9 15 16 4 11 16 10 16 17 2 15 10 11 12 18 17 14 0 13 17 10 13
split_gain=11036.1 2196.55 1554.86 861.275 755.148 731.609 561.44 371.358 367.904 355.572 347.114 296.258 286.574 252.564 216.462 200.09 185.569 181.525 172.419 144.647 139.563 136.942 129.581 130.204 125.139 124.524 119.233 117.724 116.873 116.441
threshold=0.7469846979707836 1.5844390567466262 148.98584414173132 98.837193130896139 148.98584414173132 0.94262707852327166 0.13379695437776964 46.590202545116121 0.9863440825541846 0.92554211938107955 3.1026723757587873 138.65317578020912 0.84765680194903936 3.0577774440222467 0.12597870834631655 3.0247643935859783 2.7460881807281337 0.108990486762587 0.76151008392270347 0.21524148652212891 0.89014556921345978 0.8588555184803609 2.9880256652832036 2.9689355623077303 49.907864455678585 225.69264984130862 37.554296908171075 3.0033098777108873 0.21851649717962193 40.813342860353707
decision_type=2 2 2 2 2 2 2 2 2 2 2 2 2 2 2 2 2 2 2 2 2 2 2 2 2 2 2 2 2 2
left_child=1 3 5 9 6 7 10 16 20 14 12 13 22 17 27 -9 -2 -3 -8 -19 -4 26 23 -5 -14 -16 -20 -1 -7 -12
right_child=2 11 8 4 -6 28 18 15 -10 -11 29 -13 24 -15 25 -17 -18 19 21 -21 -22 -23 -24 -25 -26 -27 -28 -29 -30 -31
leaf_value=-0.073370997352816311 -0.014410757814243003 0.069313379705680342 -0.068390732618471881 -0.07519816358584222 -0.10656121128059892 0.11612910532505918 -0.018226975606935095 0.056651175962557733 0.076310867827054513 -0.11281007502736506 -0.059093895242734708 -0.1166730220921286 -0.051322633917653473 -0.013672515474464523 0.098382054206510208 0.12073030492718302 0.083457591058318209 -0.099075462677846046 -0.056774208684835292 -0.032415687604818395 0.055135033808609207 0.14528146480627871 0.052676195625593836 0.026271400828222061 0.0783460935477681 -0.022754439591081792 0.0807184497538775 0.076929141893750275 0.14943984200725519 0.079963779969317916
leaf_weight=597.72512246668339 626.66604520380497 72.634001091122627 726.45931531488895 950.91964086890221 466.73197378218174 1953.9173935055733 165.17143930494785 857.40093405544758 300.26214884221554 925.13851527869701 68.324674174189568 3403.7963127940893 98.854058772325516 558.01187156140804 170.61880096793175 1128.8810721188784 280.44181028008461 2590.8197582662106 68.16370578110218 372.29941390454769 104.63957077264786 334.05877973139286 108.87894074618816 145.85652215778828 301.17101360857487 168.83099222183228 844.4272106140852 57.090443193912506 2285.0733402520418 507.43051551282406
leaf_count=2415 2540 291 2947 3851 1926 8223 669 3499 1223 3808 275 14209 398 2247 689 4654 1141 10672 278 1494 424 1367 440 589 1218 682 3451 230 9658 2069
internal_value=0 -0.0574995 0.0903494 -0.0129924 0.0131029 0.107625 0.0286462 0.0688594 -0.0185622 -0.0681902 -0.00315371 -0.0955306 -0.0270403 -0.0755058 -0.0266726 0.0930698 0.0158463 -0.0868715 0.077781 -0.0907 -0.0528382 0.0905013 -0.0513747 -0.0617041 0.0463024 0.0381328 0.0704488 -0.060267 0.134086 0.0634619
internal_weight=0 12977 8263.74 5979.39 4059.99 7132.38 3593.26 2893.39 1131.36 1919.4 2181.44 6997.56 1605.68 3593.77 994.265 1986.28 907.108 3035.75 1411.82 2963.12 831.099 1246.65 1205.66 1096.78 400.025 339.45 912.591 654.816 4238.99 575.755
internal_count=87577 53268 34309 24355 16531 29715 14605 11834 4594 7824 8840 28913 6496 14704 4016 8153 3681 12457 5765 12166 3371 5096 4880 4440 1616 1371 3729 2645 17881 2344
is_linear=0
shrinkage=0.1


Tree=4
num_leaves=31
num_cat=0
split_feature=9 6 6 4 9 4 9 10 10 16 4 15 10 13 14 10 17 10 8 16 16 11 11 16 15 12 7 11 11 11
split_gain=9148.5 1707.54 1500.8 668.564 600.859 595.662 532.764 431.536 287.629 282.659 277.276 276.782 252.353 219.01 187.242 174.962 169.145 151.881 151.473 146.799 143.335 131.495 131.199 126.495 123.312 123.102 116.04 113.404 111.218 111.147
threshold=0.71472054084519387 1.5844390567466262 1.8172074603661139 98.837193130896139 0.95167102725322661 146.58958848859729 0.99268254489027019 0.13379695437776964 0.12597870834631655 3.0613187591182158 141.36843486592241 0.92554211938107955 0.1706110931541579 40.813342860353707 51.787567016686914 0.16701475447651595 3.023855955303564 0.15295863124427495 0.41105532821117619 3.0216357923111037 3.0984347874866889 0.90789905965746276 0.83571455848516296 3.1131058957023501 0.85483864781908292 0.88702051954255623 1.2438192152003349 0.89014556921345978 0.91940518655083003 0.87804854655633002
decision_type=2 2 2 2 2 2 2 2 2 2 2 2 2 2 2 2 2 2 2 2 2 2 2 2 2 2 2 2 2 2
left_child=1 3 4 11 8 7 10 9 23 22 17 15 16 -11 -15 21 18 26 -3 -10 25 -1 -5 -2 27 -9 -4 -12 -20 -14
right_child=2 12 6 5 -6 -7 -8 20 19 13 24 -13 29 14 -16 -17 -18 -19 28 -21 -22 -23 -24 -25 -26 -27 -28 -29 -30 -31
leaf_value=-0.061393918639650991 0.018514423728350254 -0.057398602025845583 -0.10403874040420824 -0.061979138203884891 0.13242838723118602 -0.093639873576190413 0.10407378882427443 0.030068398748856064 0.063909357117725912 -0.082978363318516726 -0.040765435515987311 -0.10501287015613919 -0.059411637459754453 -0.031029073162428984 0.078152886705554203 0.056799615949040094 -0.002842095759115999 0.065456385603006331 -0.11205392007004976 0.12366987556848411 0.11943446299293166 0.094810455531905799 0.017695780435150056 0.099387933626326697 -0.097182816084635637 0.1281676139317437 0.010336015524193961 0.11383845658710255 -0.040687541986589026 0.034571279483422417
leaf_weight=687.78602699935436 998.64051076769829 664.82072469592094 116.10963355004787 769.82490037381649 3441.7693494409323 493.65800583362579 457.95921245217323 733.8465318530798 725.96866783499718 139.03056584298611 350.62003280222416 879.37616062164307 1079.5684392601252 206.00789305567741 661.24808202683926 196.99011933803558 177.8366067558527 415.47825972735882 4354.4991482645273 947.57667134702206 397.08769373595715 58.473596543073654 282.52265092730522 239.85265354812145 419.4193668961525 154.92445479333401 375.82951228320599 54.869142919778824 229.89567993581295 142.43703353404999
leaf_count=2798 4092 2801 474 3136 15023 2072 1974 3001 3000 567 1442 3696 4460 836 2711 799 735 1737 18492 4004 1663 235 1145 997 1726 642 1544 224 966 585
internal_value=0 -0.0551472 0.0795349 -0.0147826 0.104142 0.00889955 0.00815173 0.0240347 0.0707101 -0.00435432 -0.0172063 -0.0646533 -0.0895123 0.0335388 0.0522178 -0.0270268 -0.0987567 0.020939 -0.102006 0.0977463 0.069485 -0.0491544 -0.0405889 0.0341768 -0.0591669 0.0471684 -0.0166592 -0.0198451 -0.108475 -0.048457
internal_weight=0 12309.8 8544.09 5660.78 6353.81 3838.15 2190.29 3344.49 2912.04 2058.63 1732.33 1822.63 6649.06 1006.29 867.256 943.25 5427.05 907.417 5249.22 1673.55 1285.86 746.26 1052.35 1238.49 824.909 888.771 491.939 405.489 4584.39 1222.01
internal_count=87577 51340 36237 23301 27116 15773 9121 13701 12093 8395 7147 7528 28039 4114 3547 3832 22994 3755 22259 7004 5306 3033 4281 5089 3392 3643 2018 1666 19458 5045
is_linear=0
shrinkage=0.1


Tree=5
num_leaves=31
num_cat=0
split_feature=9 6 10 6 11 18 17 16 2 9 9 17 4 16 4 4 9 4 8 1 4 17 8 12 13 3 5 10 8 1
split_gain=7702.46 2027.52 951.071 657.714 626.104 481.045 486.435 323.53 282.369 245.475 245.311 225.712 207.22 204.746 186.397 177.944 169.108 148.518 146.982 134.921 134.422 127.171 123.57 122.783 121.437 108.05 107.849 106.396 104.937 102.772
threshold=0.86084784147832372 1.6990923610768454 0.21215919646408699 1.7786369371416597 0.89354969670381112 3.0567461570077623 2.9689355623077303 3.1171022773819304 0.19081745140666598 0.50928070333405306 0.99268254489027019 2.9495877797671906 94.896573643754991 2.775464849668094 143.57329821668222 126.30927111872104 0.61621928946325477 161.71361934802471 0.32845113877982751 1.0537642925698052 155.03478051248064 3.0871505737304692 0.095744300919817935 0.92335374352338917 305.25652640132165 0.13108387732467561 124.70435629367304 0.21851649717962193 0.41767059981260329 1.325190685574291
decision_type=2 2 2 2 2 2 2 2 2 2 2 2 2 2 2 2 2 2 2 2 2 2 2 2 2 2 2 2 2 2
left_child=1 2 4 12 5 6 7 9 -3 18 15 14 19 -4 16 -5 25 27 -1 -2 -9 -8 -11 -20 -15 -10 -21 -14 -18 -6
right_child=3 8 13 10 29 -7 21 20 11 22 -12 -13 17 24 -16 -17 28 -19 23 26 -22 -23 -24 -25 -26 -27 -28 -29 -30 -31
leaf_value=-0.028537768026836441 0.097957085189003701 0.0056744662516986111 -0.013691405609513627 0.06205569464602842 0.070054201333335911 0.096572108736262263 0.015024662619632971 0.034840767186176007 -0.0019770138325159695 0.13221067638148318 0.096558668866337238 -0.0081819904249810314 0.10639596756609476 0.093308472136393095 -0.10968435465981444 -0.02242377242578979 0.060768471626502334 0.0064894656999554563 -0.096037669693861571 0.1266727248723237 -0.13493009285270324 0.12058394284191246 -0.033012141970293292 0.024826583638084446 -0.047016035887404002 -0.090838673437804301 -0.029952853822916493 0.13953185669897492 -0.046720003084517084 -0.045750707332647064
leaf_weight=449.76797619462013 366.53860023617744 357.87680305540562 251.98409885168076 403.65944977104664 752.70521160960197 265.48364241421223 519.81079097092152 492.80653576552868 145.08124580979347 47.055934652686119 472.58750231564045 354.83890709280968 1827.8298028409481 1119.1635094285011 2697.9596599191427 652.1679627597332 108.36885875463486 110.68400946259499 2122.5130832493305 56.03395788371563 51.513624772429466 146.23626084625721 1189.9586561173201 87.516389161348343 65.268023788928986 2407.441596865654 204.08158446848392 2062.3323794454336 561.03843802213669 85.32013612985611
leaf_count=1876 1633 1508 1030 1705 3136 1104 2153 2063 618 194 2101 1483 8066 4738 11859 2695 445 453 8894 245 223 605 4928 366 274 10261 881 9365 2323 352
internal_value=0 -0.0402619 -0.00516916 0.0935525 -0.0221292 -0.0346689 -0.0414912 -0.0534428 -0.0807222 -0.0635303 0.036677 -0.0856498 0.112338 0.0681619 -0.0902932 0.00987406 -0.0740556 0.120713 -0.0806467 0.0588685 0.0187739 0.0382011 -0.0267271 -0.0912515 0.0855759 -0.0857879 0.00378735 0.123963 -0.0293189 0.058264
internal_weight=0 14279.7 7647.1 6155.92 6210.69 5372.66 5107.18 4441.13 6632.61 3896.81 1528.41 6274.73 4627.5 1436.42 5919.89 1055.83 3221.93 4000.85 2659.8 626.654 544.32 666.047 1237.01 2210.03 1184.43 2552.52 260.116 3890.16 669.407 838.025
internal_count=87577 60433 31936 27144 25894 22406 21302 18544 28497 16258 6501 26989 20643 6042 25506 4400 13647 17884 11136 2759 2286 2758 5122 9260 5012 10879 1126 17431 2768 3488
is_linear=0
shrinkage=0.1


Tree=6
num_leaves=31
num_cat=0
split_feature=9 6 4 4 4 15 4 16 9 9 11 14 13 10 10 18 15 10 11 11 1 1 10 16 15 14 2 3 14 15
split_gain=6438.32 1710.28 762.293 631.239 585.915 478.78 395.83 324.484 279.224 269.432 233.196 207.29 235.974 206.034 205.933 201.472 179.375 163.055 157.428 155.14 154.947 153.728 141.055 128.248 121.694 118.9 112.864 113.673 109.499 109.051
threshold=0.86084784147832372 1.5185788273811343 107.01003781153348 145.95648956298831 147.20185041148002 0.90866081263973453 143.57329821668222 3.0930963502881088 0.98388697102203193 0.58938336474965447 0.88699168748484447 51.787567016686914 42.593221401314608 0.21215919646408699 0.18430140004210749 2.8616434022331316 0.73991657315724957 0.21851649717962193 0.86082190854728291 0.87658725521110281 1.0836703563958052 1.0421902537345888 0.11678820203139831 3.050165307519332 0.77341423499807171 46.590202545116121 0.15506028741320266 0.13108387732467561 79.867573987895256 0.78501219810365741
decision_type=2 2 2 2 2 2 2 2 2 2 2 2 2 2 2 2 2 2 2 2 2 2 2 2 2 2 2 2 2 2
left_child=1 2 5 9 8 14 7 10 13 11 15 -4 -13 20 18 17 -14 26 23 21 -2 -6 -9 -1 -8 -12 -3 -28 -18 -11
right_child=4 6 3 -5 19 -7 24 22 -10 29 25 12 16 -15 -16 -17 28 -19 -20 -21 -22 -23 -24 -25 -26 -27 27 -29 -30 -31
leaf_value=-0.061541107628192981 0.074387326609791998 0.027725231031576033 -0.043663116378956257 -0.074094994534315978 0.032478156012631543 -0.077093950805212336 -0.068523085096621306 -0.015384353156557144 0.12239167924102086 -0.010812810899493652 -0.013514327809643643 -0.066494044517565534 -0.074961001111329736 0.10804555175257068 0.083386994487135754 0.010562457955210127 0.015224381905929091 -0.018731043985073241 0.070702591547639235 0.08778735959546842 0.0044356600880674476 -0.066615519530510356 0.095577615305440691 0.021249967651334471 -0.10902659354480299 0.12191103126598951 -0.0011007516070321273 -0.090894287009937236 0.081474324028041306 0.09882597944037913
leaf_weight=536.35248294472694 921.3863709717989 89.983133971691132 341.76692517101765 479.01123186945915 323.21258428692818 1447.6408667862415 1144.6073213666677 287.11848971247673 2633.6503090709448 99.746044367551804 340.12670025229454 178.17376245558262 98.175000265240669 1106.8148932754993 275.88991889357567 311.25986003875732 331.5519617497921 466.32364484667778 179.45561218261719 189.25740572810173 482.46533070504665 303.61326691508293 190.62040458619595 287.34286054968834 2107.8256192952394 80.09818397462368 148.98561403155327 2624.8964067995548 1007.8741642534733 1002.5074335187674
leaf_count=2220 4047 364 1409 2051 1347 6179 5168 1170 12586 415 1428 738 401 5081 1159 1325 1372 1904 730 797 2024 1262 781 1176 9511 333 637 11421 4245 4296
internal_value=0 -0.0368669 0.0020309 0.0326486 0.0871568 -0.0377061 -0.068145 -0.0490667 0.0996445 0.0493593 -0.0582361 0.0270922 0.0420583 0.075783 0.00687383 -0.0663759 0.0555121 -0.073567 -0.0141691 0.00843836 0.0503469 -0.0155195 0.0288901 -0.0326598 -0.0947725 0.0122988 -0.082496 -0.0860715 0.0650753 0.0889045
internal_weight=0 14057.3 6265.49 3538.81 5960.4 2726.68 7791.85 4539.41 5144.32 3059.8 4061.67 1957.54 1615.77 2510.67 1279.04 3641.45 1437.6 3330.19 1003.15 816.083 1403.85 626.826 477.739 823.695 3252.43 420.225 2863.87 2773.88 1339.43 1102.25
internal_count=87577 60433 26391 14927 27144 11464 34042 19363 23738 12876 17412 8165 6756 11152 5285 15651 6018 14326 4126 3406 6071 2609 1951 3396 14679 1761 12422 12058 5617 4711
is_linear=0
shrinkage=0.1


Tree=7
num_leaves=31
num_cat=0
split_feature=9 6 6 9 17 18 10 9 4 4 11 3 16 18 17 8 8 17 16 18 8 12 8 11 11 4 15 10 4 3
split_gain=5475.22 1049.97 993.298 493.956 472.146 451.977 339.861 338.474 219.336 238.639 196.016 190.37 188.964 174.649 171.844 166.395 156.182 145.947 138.352 136.083 131.899 131.381 122.588 122.383 118.963 116.399 115.258 108.633 108.24 101.295
threshold=0.69216131623963917 1.7786369371416597 1.6481795819178049 0.95459039173526938 3.0134266159215466 2.8994926324853876 0.1317715003284799 0.97949450244763359 94.521980762935129 159.9723819323288 0.92500340055156138 0.13108387732467561 3.0526910048873144 3.0184397784746992 2.8908621390634264 0.24118843466859688 0.13987414345631702 2.8296184949483858 3.1204163471805022 3.0633399933322214 0.47138297900785903 0.88471157535548717 0.18564520060344522 0.90472781084484766 0.81055168127478272 109.19124742664897 0.82497702689621444 0.30999108816487397 126.01683044433595 0.077809629006792461
decision_type=2 2 2 2 2 2 2 2 2 2 2 2 2 2 2 2 2 2 2 2 2 2 2 2 2 2 2 2 2 2
left_child=2 3 4 8 5 6 10 15 23 12 18 -8 27 14 20 -3 -13 28 22 25 -4 -18 -1 26 -16 -7 -2 -10 -17 -22
right_child=1 7 13 -5 -6 19 11 -9 9 -11 -12 16 -14 -15 24 17 21 -19 -20 -21 29 -23 -24 -25 -26 -27 -28 -29 -30 -31
leaf_value=0.0028427559559295813 0.036188076705353879 0.08993227376955483 -0.045793726654228629 0.11411242977981928 0.076640185966050337 -0.027101689126608666 0.12612919565413586 0.065089936402550078 0.025665581469060141 -0.063995516231916919 0.054037447008474564 0.11398847741709002 0.1045263280371742 0.041354257841834344 -0.053041307975393193 -0.0014334014489608632 -0.032972927268458484 0.046461236606606518 0.002737338709573539 0.09868523122816647 0.00012269121246784458 0.060629100190738895 -0.079873582306680679 0.13508538937270301 0.050466963962898473 0.052696873074987306 -0.06102739510938724 0.093640238934699915 -0.062319295725323756 -0.092530287019547436
leaf_weight=195.37329511344433 222.47946727275848 129.04912176728249 809.91425822675228 2918.8083879947662 509.5022092461586 351.56910036504269 112.50614842772484 674.17792966961861 756.07226483523846 127.43238873779774 145.35959559679031 94.926437228918076 1173.7881599217653 127.63345102965832 392.0890243947506 446.40924893319607 1023.6036336869001 222.36354666948318 268.60120494663715 259.31715787947178 121.50108714401722 175.69445051252842 2160.2803592979908 59.192319720983505 154.90235580503941 380.76732023060322 269.91110689938068 341.2129782140255 844.0284923017025 4091.1074347645044
leaf_count=827 938 546 3598 14538 2154 1495 482 3135 3197 527 610 405 5309 560 1722 1871 4337 935 1140 1104 547 759 9274 252 670 1629 1130 1536 3606 18744
internal_value=0 0.0624466 -0.0448051 0.0849462 -0.0152031 -0.0242578 -0.0386683 0.00543172 0.0560892 0.0691651 -0.0589988 0.00135905 0.0766369 -0.074305 -0.0769555 -0.0190652 -0.00948714 -0.0283632 -0.0652599 0.036432 -0.0827523 -0.0192604 -0.0730133 -0.000770238 -0.0237288 0.0143884 -0.017102 0.0468031 -0.0412567 -0.089858
internal_weight=0 8184.93 11374.6 5868.9 5677.5 5168 4176.35 2316.03 2950.09 2398.51 2769.61 1406.73 2271.07 5697.15 5569.51 1641.85 1294.22 1512.8 2624.25 991.654 5022.52 1199.3 2355.65 551.583 546.991 732.336 492.391 1097.29 1290.44 4212.61
internal_count=87577 37520 50057 27427 24216 22062 17834 10093 12889 10569 11851 5983 10042 25841 25281 6958 5501 6412 11241 4228 22889 5096 10101 2320 2392 3124 2068 4733 5477 19291
is_linear=0
shrinkage=0.1


Tree=8
num_leaves=31
num_cat=0
split_feature=9 6 10 18 17 6 11 3 2 2 16 10 4 9 16 17 8 13 8 11 1 12 4 4 8 18 5 15 11 8
split_gain=4572.69 1320.84 712.173 431.833 453.73 405.267 315.489 249.058 243.297 226.565 225.63 202.207 172.519 166.748 154.171 136.638 131.296 123.286 111.153 105.276 102.572 98.7352 94.042 93.8795 93.131 92.5164 89.8129 88.9562 85.5524 85.3375
threshold=0.89062529510321242 1.716961024649589 0.19543874845066206 2.9880256652832036 3.023855955303564 1.7080365066295708 0.89354969670381112 0.18166889623548679 0.19081745140666598 0.1833152770996094 2.9090580513053621 0.16370079550597036 95.651855329192514 0.99268254489027019 3.1059048222721293 2.9689355623077303 0.18564520060344522 284.00082049992227 0.12450813599748509 0.90472781084484766 1.0537642925698052 0.92728058226156596 148.98584414173132 156.55920330489332 0.75973699744543222 2.9550555388080046 213.64002143362868 0.87835128605691459 0.88699168748484447 0.17054025032195391
decision_type=2 2 2 2 2 2 2 2 2 2 2 2 2 2 2 2 2 2 2 2 2 2 2 2 2 2 2 2 2 2
left_child=1 2 3 4 6 12 7 -1 24 26 -4 15 20 22 16 19 -11 -12 -13 29 -2 -18 -7 -16 -3 28 -9 -22 -20 -10
right_child=5 8 10 -5 -6 13 -8 9 11 14 17 18 -14 -15 23 -17 21 -19 25 -21 27 -23 -24 -25 -26 -27 -28 -29 -30 -31
leaf_value=0.022429751006428623 0.084282725674509049 0.099293738164521583 -0.0027605932302060959 0.060670541056646647 0.06920639092300522 0.0360482875900116 0.02882280673660095 0.10202680067577352 -0.018279858154521638 0.0021764445031879362 0.086424935041342327 0.1277396716960762 0.10864831944349072 0.084368708419141417 -0.0030177896444093331 -0.0045894068922101268 -0.079699194497820286 -0.034433676444019012 -0.053568228638802388 -0.026116216000719273 0.061724516764964626 0.022705718458642003 -0.029519199451669854 -0.13223545781871779 -0.014949186084629057 0.082005651089882434 -0.013884644476896621 -0.064628880057445312 0.03714782378077533 -0.089867618587644249
leaf_weight=483.66908228397369 310.01651974022388 99.080847501754761 487.61363376677036 628.08150210976601 451.09330128133297 603.12704652547836 662.39512795209885 113.20692835748196 174.07731921970844 232.81092855334282 1148.0318161696196 41.118753150105476 3083.6563911437988 485.2138689905405 573.88817133009434 237.94226580858231 2640.7469993978739 91.100779011845589 1120.7435054928064 308.27815607190132 106.15571686625481 97.63317497074604 343.23694019019604 62.33137072622776 255.01704083383083 59.99560871720314 163.23821260035038 117.27309690415859 114.58861841261387 3834.8620200753212
leaf_count=2069 1560 417 2043 2696 1915 2680 2817 473 782 989 5183 174 15805 2393 2445 1015 11518 392 4943 1398 503 417 1414 289 1114 255 707 527 486 18158
internal_value=0 -0.0291849 -0.00184176 -0.0178696 -0.0268697 0.0817407 -0.035486 -0.0452393 -0.0634895 -0.0536664 0.0548636 -0.0683281 0.0995649 0.0367053 -0.0603525 -0.0783628 -0.0699187 0.0775394 -0.0341256 -0.0824288 0.0470568 -0.0760481 0.0122676 -0.0156774 0.0170174 -0.0392638 0.0335822 -0.00459573 -0.0451535 -0.0867591
internal_weight=0 14081.5 7835.84 6109.09 5481.01 5048.68 5029.92 4367.52 6245.7 3883.86 1726.75 5891.61 3617.1 1431.58 3607.41 4555.16 2971.19 1239.13 1336.45 4317.22 533.445 2738.38 946.364 636.22 354.098 1295.33 276.445 223.429 1235.33 4008.94
internal_count=87577 62695 33953 26335 23639 24882 21724 18907 28742 16838 7618 27211 18395 6487 15658 21353 12924 5575 5858 20338 2590 11935 4094 2734 1531 5684 1180 1030 5429 18940
is_linear=0
shrinkage=0.1


Tree=9
num_leaves=31
num_cat=0
split_feature=9 4 4 9 16 14 11 14 16 17 4 15 11 4 15 13 12 11 2 3 14 13 14 1 11 1 7 17 17 9
split_gain=3949.7 944.345 669.291 647.282 618.896 354.665 325.09 263.948 236.316 234.545 214.285 234.72 194.445 167.562 172.418 159.13 169.566 144.118 136.222 136.386 117.689 112.232 158.598 112.013 105.315 94.4366 90.73 89.4606 88.9649 84.9067
threshold=0.63340710908906839 152.85897063658365 144.76061931153177 0.97219274846432147 3.0703815664564642 45.595182835576487 0.77636794350900196 48.75139689781772 3.0132792488749263 2.6366730475069717 104.75129987985316 0.90866081263973453 0.8794165250725654 105.13082086476081 0.8734142344345398 50.127792026208304 0.90577138827350601 0.47582273003003211 0.25161615014076238 0.15694177442570187 133.66580539020421 30.739835698518611 49.312872362903242 1.1034484532435649 0.88699168748484447 1.037758734906473 1.332296424025831 2.9151861751026771 3.0633709836440968 0.99121320294371718
decision_type=2 2 2 2 2 2 2 2 2 2 2 2 2 2 2 2 2 2 2 2 2 2 2 2 2 2 2 2 2 2
left_child=2 3 4 5 6 9 15 27 18 24 11 -6 23 14 -10 -1 17 -17 -7 -20 -19 -12 -23 29 -2 -16 -9 -8 -4 -3
right_child=1 12 28 -5 10 8 7 26 13 -11 21 -13 -14 -15 25 16 -18 20 19 -21 -22 22 -24 -25 -26 -27 -28 -29 -30 -31
leaf_value=-0.087391175572853849 -0.046519648039833987 -0.038139681363010242 -0.087358220758142202 0.10235953631112978 0.039044282227576541 0.10623181365231332 -0.056996396202604743 0.013980419115181539 0.095816696860363426 0.050094667517079632 -0.045909456683458208 -0.076319384689638656 0.05654342111228701 0.10210539851487453 0.038459211853157538 0.087681529584390669 0.086780531882812165 -0.064358701117358488 0.11291989643107117 0.0035198581231735229 0.036177003606966587 -0.0030363173979776194 0.072416801900182667 -0.092963531212168493 0.043872185487487406 -0.089790492824522672 0.10038705641294277 0.032204737201680038 0.032681125397697346 0.074392101991913817
leaf_weight=1535.9933063387871 751.94186027348042 527.16867977380753 2644.2131001502275 2725.2615602463484 311.65477204322815 193.76363649964333 916.95262664556503 731.47108796238899 213.40092876553535 586.96087953448296 136.09695212543011 406.27706298232079 204.23748780786991 1318.773499712348 109.23191000521183 71.999859899282455 94.346462696790695 1549.7861723154783 128.14834780991077 1028.9305759519339 125.8972806930542 400.25593195855618 916.34822255373001 382.9149978607893 155.55853466689587 121.03414887189865 145.73397558927536 128.14471289515495 63.216725558042526 76.819309756159782
leaf_count=7093 3220 2322 13058 15016 1303 868 4166 3119 977 2564 575 1803 894 6374 499 314 410 6967 570 4524 538 1682 4020 1719 667 515 644 537 271 348
internal_value=0 0.050313 -0.0419585 0.0637277 -0.0265217 0.0408787 -0.0449405 -0.0121105 0.0601007 0.000835239 0.0184541 -0.0262399 -0.0322717 0.084221 0.0310608 -0.0636228 -0.0438034 -0.0508528 0.0286311 0.0156361 -0.0568053 0.0405421 0.0494786 -0.0506518 -0.0310252 -0.0289523 0.0283355 -0.046059 -0.0845554 -0.0238271
internal_weight=0 8524.15 10178.4 7333.01 7470.96 4607.74 5300.33 1922.3 3113.28 1494.46 2170.63 717.932 1191.14 1762.44 443.667 3378.02 1842.03 1747.68 1350.84 1157.08 1675.68 1452.7 1316.6 986.903 907.5 230.266 877.205 1045.1 2707.43 603.988
internal_count=87577 41077 46500 35794 33171 20778 23788 8466 14327 6451 9383 3106 5283 8365 1991 15322 8229 7819 5962 5094 7505 6277 5702 4389 3887 1014 3763 4703 13329 2670
is_linear=0
shrinkage=0.1


Tree=10
num_leaves=31
num_cat=0
split_feature=9 4 4 16 11 9 14 10 10 1 12 2 11 15 16 10 17 18 8 17 16 18 4 13 14 1 15 14 13 3
split_gain=3312.05 730.251 620.645 616.893 457.22 401.957 319.785 257.517 242.959 173.548 170.063 155.342 143.251 130.673 124.299 128.617 112.781 117.897 107.384 105.203 104.941 103.356 99.3014 98.0138 157.977 96.3833 83.0858 82.937 96.6031 77.2366
threshold=0.7469846979707836 146.58958848859729 147.20185041148002 3.1026723757587873 0.83398462273268537 0.97949450244763359 42.053533214696579 0.1558864269423228 0.12506987908721814 1.0836703563958052 0.8554129779484051 0.19081745140666598 0.8794165250725654 0.66883625075433983 3.1345789979131315 0.27789195684073092 2.9832635472587192 2.7978579123788561 0.31503897640533596 3.0410067160897936 3.1066966970735277 3.0567461570077623 94.521980762935129 53.625962176250987 78.125402856808435 1.0288214494959633 0.77341423499807171 51.787567016686914 38.563429865920376 0.077809629006792461
decision_type=2 2 2 2 2 2 2 2 2 2 2 2 2 2 2 2 2 2 2 2 2 2 2 2 2 2 2 2 2 2
left_child=1 3 5 4 8 7 -6 9 11 20 21 -1 25 -9 15 16 17 -5 -13 26 -2 23 -15 -10 -25 -4 -3 -11 -29 -20
right_child=2 19 12 14 6 -7 -8 13 10 27 -12 18 -14 22 -16 -17 -18 -19 29 -21 -22 -23 -24 24 -26 -27 -28 28 -30 -31
leaf_value=0.026298050621915148 0.028103295782217558 -0.054607962935937053 0.0029106394940179537 -0.016458422500113024 -0.033496284260915388 0.10116644184165619 0.051712298834858339 0.021717711065709432 -0.065880448205420314 -0.055421319048015144 0.038219658488629654 -0.019588517822318623 0.059933072106516161 0.018258929015521418 0.10970368137715046 0.12893921475340131 0.10317567331433974 0.059451077340050375 0.022793056287728528 0.02542988797112183 0.10258185423022675 0.093661824267483609 0.10093291640622962 -0.039444678708747002 0.054028456710530352 -0.062928623891097754 -0.092482781875995429 -0.074815383740735222 0.04828604957493466 -0.077614210189024549
leaf_weight=188.03585468232632 847.4277285784483 840.28573058545589 434.14744801819324 682.8909770399332 795.6254076063633 2290.6791993230581 986.61874347925186 355.4907044172287 698.22658322751522 332.47297184169292 421.84624060988426 408.55252450704575 216.24864576756954 166.93642695248127 223.79293665289879 115.85657601058483 137.0184101164341 292.12881436944008 78.947857603430748 96.715301215648651 243.55483427643776 62.59968800842762 1120.1141924709082 751.24021588265896 238.11976398527622 455.76745137572289 1864.0759220868349 86.854534223675728 239.61680099368095 2588.5778612196445
leaf_count=795 3797 4320 1902 2932 3564 13441 4259 1592 3163 1380 1868 1809 959 770 1002 552 618 1298 347 416 1213 269 5828 3315 1019 2014 9529 360 1053 12193
internal_value=0 -0.0326599 0.0554628 -0.0183188 -0.030281 0.0688018 0.0136737 0.0469483 -0.0446915 0.0202556 -0.0187753 -0.0619368 -0.0130692 0.0753862 0.041162 0.0286698 0.0182233 0.00628507 -0.0673305 -0.0770496 0.0447302 -0.0325128 0.0902097 -0.0371932 -0.0169475 -0.0308088 -0.0807145 -0.0202657 0.0155361 -0.0746426
internal_weight=0 11471.2 6789.31 8670.08 7218.39 5683.15 1782.24 3392.47 5436.15 1749.93 2172.03 3264.11 1106.16 1642.54 1451.69 1227.89 1112.04 975.02 3076.08 2801.08 1090.98 1750.19 1287.05 1687.59 989.36 889.915 2704.36 658.944 326.471 2667.53
internal_count=87577 53268 34309 39003 32601 29434 7823 15993 24778 7803 9634 15144 4875 8190 6402 5400 4848 4230 14349 14265 5010 7766 6598 7497 4334 3916 13849 2793 1413 12540
is_linear=0
shrinkage=0.1


Tree=11
num_leaves=31
num_cat=0
split_feature=9 4 9 13 14 18 17 6 3 4 2 4 9 16 17 4 10 15 11 14 8 17 15 0 8 18 10 3 16 10
split_gain=2832.18 883.74 708.938 341.52 457.802 314.131 389.448 305.044 197.313 191.438 157.04 149.127 129.642 129.161 115.098 113.526 110.156 105.343 93.3345 92.4346 92.243 89.0448 87.6855 85.4515 81.7677 79.9092 79.8336 78.8839 77.4329 75.7946
threshold=0.89894859650459147 145.95648956298831 0.50090516325909695 46.719755373413953 51.787567016686914 2.8616434022331316 2.8296184949483858 1.6394708789103845 0.14196991920471194 98.837193130896139 0.17629432678222659 97.672077178955092 0.99414162720825228 3.0115003382214862 3.0579162381414187 105.46163558959962 0.1047977644971699 0.77341423499807171 0.92642637217163137 46.09247396004254 0.48999380377120116 2.585577056150226 0.8708377061583118 397.33285522460943 0.12450813599748509 2.8304271200022435 0.1464297646457636 0.083974875947732161 3.1338025371180938 0.1232457925955868
decision_type=2 2 2 2 2 2 2 2 2 2 2 2 2 2 2 2 2 2 2 2 2 2 2 2 2 2 2 2 2 2
left_child=1 2 3 25 18 6 8 11 -4 22 -10 21 26 -12 17 -15 -11 24 28 -17 -8 -2 -6 -18 -3 -1 -9 -26 -5 -22
right_child=7 14 5 4 9 -7 20 12 10 16 13 -13 -14 15 -16 19 23 -19 -20 -21 29 -23 -24 -25 27 -27 -28 -29 -30 -31
leaf_value=-0.077046788287982282 -0.004056650801509464 0.27509543658410107 0.078712735589589369 -0.053920161915462665 0.014143018776514341 0.077314609590687866 0.10918150559392426 -0.015343460904182694 0.083560470635065456 0.010719991284068378 -0.045239011095800148 0.098847867422999197 0.078574500857643947 -0.04217402040414947 0.041308025263338495 -0.020689839150863552 0.07671788427815214 -0.083975158148804407 0.03223951325429588 0.061732595304384311 0.0073127555633008242 0.079932188724711375 -0.076424718992458396 -0.036849340044049564 0.10838232938643017 -0.021798110800487366 0.041496237422432275 -0.052145913000977151 0.092456451991353772 0.078780612017678789
leaf_weight=1474.1322569400072 245.34269744157791 7.9565118551254264 227.04750999808311 2031.5761429667473 188.1944534778595 839.45629143714905 316.48532892763615 509.03048820793629 140.91746179759502 734.21380490064621 1326.202338680625 2436.2739802449942 419.74598525464535 341.72535899281502 92.872458502650261 218.97497609257698 665.39891621470451 2148.9315483123064 142.92475022375584 359.35761205852032 302.79074503481388 260.00601896643639 247.47487254440784 73.580718472599983 31.663192078471184 318.32001738250256 480.23009684681892 921.6898540109396 36.794046297669411 291.01910480856895
leaf_count=7100 1284 37 1019 9429 805 3883 1462 2255 625 3205 5901 14553 2359 1488 393 956 2965 11172 607 1682 1324 1440 1130 325 158 1435 2306 4769 155 1355
internal_value=0 -0.0225277 -0.00823267 -0.0307975 -0.0149454 0.0223396 0.00924591 0.0702673 -0.0103694 0.0209317 -0.0188421 0.0885933 0.0320075 -0.0252662 -0.0683904 0.00352324 0.0381534 -0.0716661 -0.0459157 0.0305249 0.0655779 0.0391563 -0.0373025 0.0654099 -0.04415 -0.0672352 0.012249 -0.0468144 -0.0513163 0.0423383
internal_weight=0 13479.7 10276.6 5912.61 4120.16 4363.98 3524.52 4350.63 2614.23 1908.86 2387.18 2941.62 1409.01 2246.26 3203.11 920.058 1473.19 3110.24 2211.29 578.333 910.295 505.349 435.669 738.98 961.31 1792.45 989.261 953.353 2068.37 593.81
internal_count=87577 63380 46851 27156 18621 19695 15812 24197 11671 8430 10652 17277 6920 10027 16529 4126 6495 16136 10191 2638 4141 2724 1935 3290 4964 8535 4561 4927 9584 2679
is_linear=0
shrinkage=0.1


Tree=12
num_leaves=31
num_cat=0
split_feature=9 9 4 4 16 10 11 1 15 14 4 15 16 6 11 4 8 11 12 7 10 15 8 0 18 14 14 0 18 5
split_gain=2386.29 657.137 449.318 408.259 392.513 283.814 210.69 191.196 180.34 162.426 156.128 182.365 131.49 125.47 118.577 115.75 108.432 96.7868 95.5501 90.2818 90.0757 89.7036 83.3058 82.9321 77.1307 77.0501 85.286 93.2936 74.495 74.4417
threshold=0.63340710908906839 0.98388697102203193 141.36843486592241 151.52338199942812 3.0714671163028098 0.16528789555113368 0.77636794350900196 1.0836703563958052 0.66883625075433983 44.251387782001068 104.75129987985316 0.92957568934789037 3.1066966970735277 1.9226517929059261 0.47096753979036299 94.896573643754991 0.18564520060344522 0.91940518655083003 0.91894864708260238 1.3150279732827339 0.082231066903140165 0.97799890996532846 0.2141530729391499 152.53429083366308 2.8994926324853876 354.78138350442924 103.06483778734408 190.75082637226862 2.9550555388080046 147.93538929542225
decision_type=2 2 2 2 2 2 2 2 2 2 2 2 2 2 2 2 2 2 2 2 2 2 2 2 2 2 2 2 2 2
left_child=2 3 4 5 6 7 14 12 -7 -8 11 -6 17 -3 -1 21 -16 22 -18 24 -12 -10 -2 -9 -11 26 27 -24 -4 -15
right_child=1 13 28 -5 10 8 9 23 15 19 20 -13 -14 29 16 -17 18 -19 -20 -21 -22 -23 25 -25 -26 -27 -28 -29 -30 -31
leaf_value=0.030852258972420984 0.086240867146700262 0.098710284844391857 -0.072468084378999278 -0.037295526132671945 0.030696748832839273 0.0095025345573235796 -0.03872271646534356 0.084802617393483895 0.057361893245012542 -0.0091346436951057902 0.0037234532719495556 -0.072468822104947581 0.090629771018509303 0.067200551310201306 0.01260656383734114 0.090071286574014447 -0.065306177253820888 0.098883578664693966 0.024483188520394966 0.086681729634565996 0.057355397842340186 -0.077120770400047389 0.041595197094719392 -0.029181141355615711 0.072087584462388415 -0.19304273310172873 0.050028742348527014 -0.037625658761628183 0.0010019248888780755 -0.022793698178114344
leaf_weight=167.01184166967869 128.70112903416157 1794.6184961348772 2498.8577813208103 939.00399027764797 337.91787011921406 487.37867936491966 895.94053240120411 68.540392875671387 147.85043668746948 619.76251013576984 502.99727354943752 347.60070729255676 329.91930291056633 282.49910067021847 214.84604407846928 1355.1808008551598 2588.4879240691662 138.49466501176357 124.20406234264374 170.42763026058674 829.72702948749065 74.638568714261055 211.84181541204453 929.15979987382889 144.10140991210938 20.086387947201729 294.27220167219639 498.35815271735191 146.07644182443619 136.24384523928165
leaf_count=778 608 11751 13653 4360 1437 2199 4212 304 710 2686 2187 1622 1716 1568 955 7470 12533 659 578 748 3762 323 950 4084 626 91 1375 2234 723 675
internal_value=0 0.0410528 -0.0333368 0.0228858 -0.0199756 0.0349493 -0.0351967 0.013094 0.0626712 -0.0083015 0.0171659 -0.0216146 0.0342854 0.0872094 -0.0511035 0.0790962 -0.0557789 0.0198948 -0.0611951 0.020871 0.0371136 0.0122469 0.0104091 -0.0213506 0.00618777 0.00088339 0.00476132 -0.0139953 -0.0684104 0.0379197
internal_weight=0 7836.79 9587.96 5623.43 6943.02 4684.42 4924.78 2619.37 2065.05 1830.23 2018.24 685.519 1621.67 2213.36 3094.55 1577.67 2927.54 1291.75 2712.69 934.292 1332.72 222.489 1153.26 997.7 763.864 1024.56 1004.47 710.2 2644.93 418.743
internal_count=87577 41077 46500 27083 32124 22723 23116 12021 10702 8272 9008 3059 7633 13994 14844 8503 14066 5917 13111 4060 5949 1033 5258 4388 3312 4650 4559 3184 14376 2243
is_linear=0
shrinkage=0.1


Tree=13
num_leaves=31
num_cat=0
split_feature=9 17 18 3 2 6 18 11 17 8 10 7 11 4 11 16 16 9 8 13 13 18 17 10 10 10 4 10 16 10
split_gain=2047.36 666.624 774.414 357.534 287.454 256.684 236.84 216.104 208.841 179.907 149.386 146.077 143.268 140.479 131.769 125.224 101.962 101.779 91.2269 89.9975 109.478 89.3968 87.9621 84.1591 83.5373 79.177 76.2107 89.2226 84.7554 73.3902
threshold=0.89894859650459147 2.871603426065847 2.7921877441623626 0.096439361572265639 0.23817634582519534 1.6394708789103845 3.0567461570077623 0.88699168748484447 3.0810457785897936 0.32845113877982751 0.12506987908721814 0.10012817382812501 0.81397311480836632 99.942996450057407 0.44397000288397126 2.925961299041727 3.1338025371180938 0.99414162720825228 0.10263061523437501 37.554296908171075 249.04548994446611 0.15563964843750003 2.6460392475128178 0.11830721677584628 0.10676939593907329 0.10415805054084652 141.36843486592241 0.22559854326421805 3.0564384480291094 0.21524148652212891
decision_type=2 2 2 2 2 2 2 2 2 2 2 2 2 2 2 2 2 2 2 2 2 2 2 2 2 2 2 2 2 2
left_child=1 2 3 -1 15 13 12 9 10 24 19 -11 18 22 -13 -5 21 -7 -4 -3 -21 -16 -2 -20 -6 -9 27 -23 -29 -15
right_child=5 8 6 4 7 17 -8 25 -10 11 -12 14 -14 29 16 -17 -18 -19 23 20 -22 26 -24 -25 -26 -27 -28 28 -30 -31
leaf_value=0.048439201436222053 -0.0016693722116027905 -0.094334790348406611 0.10577496170419631 -0.016774079087773966 -0.04952552392541195 0.0097946732250844687 0.087894155937041252 -0.038225847820568898 0.097696737071053835 0.054495554954474903 0.049988752609441911 0.057631923640585114 0.047159481864257155 0.072355248841492845 0.13801520849872997 0.083069129218141455 0.045723042796183243 0.070354968920179589 -0.041261760285563963 0.017591470602925902 -0.06350744212874225 -0.071384180712169662 0.079025303646903189 0.0099004626842710206 0.012335839573484003 0.021013550160480399 -0.090788798715702834 -0.046506302403574167 0.056980062548763283 0.10960955719520937
leaf_weight=396.58144564926624 296.0274925082922 105.49512076377869 62.66491611301899 319.09394179284573 430.60146866738796 971.85895976424217 428.56901587545872 444.23108431696892 372.44808480143547 97.285163417458534 785.15363202989101 80.806801587343216 584.33911672234535 998.20500014722347 20.071554720401764 207.17807663977146 73.797452241182327 388.42506939172745 700.12247936427593 887.72116953134537 204.86942456662655 3116.4768067449331 248.46566738188267 594.55010579526424 442.74227860569954 458.4743565171957 1713.1911127120256 386.62241888046265 99.510525941848755 1124.4755308181047
leaf_count=1875 1641 498 291 1481 2023 4561 2025 2099 1717 469 3733 391 2753 6231 103 973 354 2359 3394 4071 973 15244 1511 2821 2050 2122 9758 1680 482 7894
internal_value=0 -0.0191518 -0.0297933 -0.0442103 -0.0488672 0.062438 0.0206106 -0.0539699 0.0289892 -0.0603731 0.0160861 -0.0669701 0.00575974 0.080467 -0.0691223 0.0225313 -0.0710157 0.0270875 -0.012063 -0.00613168 0.00238478 -0.0726303 0.0351536 -0.0177666 -0.0181649 -0.0081388 -0.0734256 -0.0651687 -0.0253228 0.0920905
internal_weight=0 13012.6 10656.9 8286.66 7890.08 4027.46 2370.25 7363.81 2355.69 6461.11 1983.24 5587.76 1941.68 2667.17 5490.48 526.272 5409.67 1360.28 1357.34 1198.09 1092.59 5335.87 544.493 1294.67 873.344 902.705 5315.8 3602.61 486.133 2122.68
internal_count=87577 63380 52388 41104 39229 24197 11284 36775 10992 32554 9275 28481 9259 17277 28012 2454 27621 6920 6506 5542 5044 27267 3152 6215 4073 4221 27164 17406 2162 14125
is_linear=0
shrinkage=0.1


Tree=14
num_leaves=31
num_cat=0
split_feature=9 9 4 17 18 16 8 10 11 18 4 10 3 11 15 6 11 13 8 13 12 18 14 13 4 8 16 17 3 15
split_gain=1758.9 549.782 368.589 338.049 338.87 238.09 222.768 177.662 174.253 139.763 138.588 133.95 129.009 126.892 123.274 118.464 110.644 110.045 104.548 101.211 95.8102 86.9004 77.9844 77.7872 76.5663 74.7676 73.8774 69.5313 66.9754 66.7636
threshold=0.59435642617658835 0.98388697102203193 145.95648956298831 2.9448641052200215 2.7601753068327892 3.1035681128250858 0.18564520060344522 0.16528789555113368 0.91639046913076638 3.0633399933322214 96.895721435546889 0.21851649717962193 0.17638413408991999 0.92969367390759394 0.66883625075433983 1.9226517929059261 0.89014556921345978 249.04548994446611 0.54369544982910167 57.774082380581994 0.93312682491159038 3.0700670798593248 72.899586085292654 34.03200275042601 94.896573643754991 0.14724731445312503 3.1305777058005337 2.6366730475069717 0.051515579223632819 1.1639474606360858
decision_type=2 2 2 2 2 2 2 2 2 2 2 2 2 2 2 2 2 2 2 2 2 2 2 2 2 2 2 2 2 2
left_child=3 2 5 4 7 6 -2 13 11 20 -7 21 -9 18 -13 -3 -4 19 26 -5 23 27 -19 -6 -16 -14 -1 -8 -20 -17
right_child=1 15 16 17 9 10 8 12 -10 -11 -12 14 25 -15 24 29 -18 22 28 -21 -22 -23 -24 -25 -26 -27 -28 -29 -30 -31
leaf_value=-0.039928682956435181 0.092707314442002753 0.091857755385932716 -0.042276114317556589 -0.02741948662250341 -0.058300902035248174 -0.0050009321969908425 -0.029266206815956555 0.089758015478706765 0.07875681079587761 0.068121512386871599 0.093733600659407168 -0.015226483388729076 0.087514458103049433 0.02183872633714587 -0.012149489963879852 0.041502030794930152 0.048612696384052217 -0.072225759163455833 0.03542733013480142 0.055544677196888492 0.12282757415149559 0.10032100985423149 0.12515112999202579 -0.0037827722650419283 0.075349270727453441 -0.031357828251560173 0.10825328893827912 0.0096919244398789156 -0.072071897629249246 -0.12846884547702836
leaf_weight=1132.6509770452976 380.61264260113239 1599.263665124774 1041.3933921158314 187.78745923936367 336.84693558514118 173.38816632330418 1208.7486941218376 107.84653016924858 350.20379278063774 257.67010509967804 789.40177009999752 335.43828566372395 55.868958950042725 191.01928202807903 122.70983392000198 376.20006603002548 153.70746107399464 160.87487515807152 58.979013472795486 677.70883379876614 51.44767053425312 68.223545268177986 22.862538889050484 1173.347256809473 540.56461836397648 999.62468457221985 34.67501625418663 737.73025892674923 3344.1377023756504 24.622011885046959
leaf_count=5620 1962 11751 5088 851 1684 814 5493 506 1801 1183 4560 1520 253 887 570 2129 681 727 281 3069 245 340 109 5559 3126 4753 161 3395 18345 114
internal_value=0 0.0343632 0.0190085 -0.0306452 -0.0378624 0.0316005 0.0201959 -0.0494541 0.0119908 -0.000112634 0.0759526 0.00423159 -0.0144211 -0.0580135 0.0341767 0.0796739 -0.0305865 0.0226223 -0.0613508 0.0375439 -0.0113712 -0.0106126 -0.0476661 -0.015943 0.0591615 -0.0250657 -0.035527 -0.0145008 -0.0702088 0.0310609
internal_weight=0 7902.21 5902.12 8793.35 7744.11 4707.02 3744.23 5924.8 3363.62 1819.31 962.79 3013.42 1163.34 4761.46 998.713 2000.09 1195.1 1049.23 4570.44 865.496 1561.64 2014.7 183.737 1510.19 663.274 1055.49 1167.33 1946.48 3403.12 400.822
internal_count=87577 43344 29350 44233 39477 23581 18207 30806 16245 8671 5374 14444 5512 25294 5216 13994 5769 4756 24407 3920 7488 9228 836 7243 3696 5006 5781 8888 18626 2243
is_linear=0
shrinkage=0.1


Tree=15
num_leaves=31
num_cat=0
split_feature=9 4 16 11 8 10 12 18 17 3 1 4 15 2 11 15 2 13 13 4 7 8 4 9 14 7 17 16 10 14
split_gain=1476.86 547.154 450.767 343.064 258.61 244.451 227.475 184.182 188.142 151.844 135.899 132.605 141.048 127.372 114.324 105.393 100.342 99.6898 98.2176 98.0722 97.5015 90.0235 90.6067 84.4976 80.5346 79.8798 79.0445 78.9775 76.194 71.1329
threshold=0.89894859650459147 146.58958848859729 3.1026723757587873 0.8919319077451543 0.18564520060344522 0.16528789555113368 0.92063037660888136 2.9550555388080046 2.8480612357431139 0.12004852294921876 1.1034484532435649 102.60126755964272 0.97977277253593231 0.10023556779678976 0.47096753979036299 0.76962505226379929 1.1608081697788011 244.50844784256489 55.784709272807973 152.85897063658365 0.10012817382812501 1.6107209741434849 82.283119234852094 0.99317186247552636 38.719922573582728 0.99270629882812511 2.4591417134593292 3.0756919533128024 0.11830721677584628 29.717853979311517
decision_type=2 2 2 2 2 2 2 2 2 2 2 2 2 2 2 2 2 2 2 2 2 2 2 2 2 2 2 2 2 2
left_child=1 2 3 4 -1 10 7 8 9 -6 23 12 -4 -11 -15 27 24 18 -10 -7 -16 22 -12 -2 -5 -22 -24 -3 29 -13
right_child=5 15 11 16 6 19 -8 -9 17 13 21 28 -14 14 20 -17 -18 -19 -20 -21 25 -23 26 -25 -26 -27 -28 -29 -30 -31
leaf_value=0.040387178891456016 0.029039479002823328 -0.03319495291310133 0.036622786889297383 0.011177671564305783 0.026112067856966927 0.086779189898041759 0.052365556173262044 0.020579160037206765 -0.044909498403297235 0.064598125335543363 -0.13296628866104196 -0.036156664860717225 -0.079783013992516638 0.0327265580994162 0.067170330054653032 -0.067852214404419589 -0.058627474532460325 -0.078610017212375635 0.029697556786705472 0.013845926043449756 -0.076811749008265984 -0.094321149417037745 -0.014118762770808202 0.086422550555403099 0.07244891102464418 -0.047822625446999022 0.076070017358095848 0.10010933772171436 0.085074326829114075 0.050184226637781874
leaf_weight=594.42145302891731 815.06033404171467 819.50120738148689 292.85873048007488 341.91097465157509 263.42290210723877 1787.4054232165217 329.8122279047966 583.09437069296837 235.96089701354504 91.419908106327057 41.893276482820511 114.68491788208485 161.49134294688702 144.19976627826691 61.354218602180481 1958.3144490122795 94.447239071130753 143.57543317973614 699.67461587488651 205.57732869684696 1627.022821739316 108.82804450392723 246.15144374966621 374.52698101103306 575.76499208807945 2286.1171731501818 160.56809619069099 46.992787227034569 575.60463880002499 568.02308166027069
leaf_count=2727 4528 4677 1304 1517 1207 13044 1549 2657 1103 400 204 490 746 693 291 11343 417 648 3176 940 8039 505 1327 2729 2700 11694 920 249 3101 2652
internal_value=0 -0.0162346 -0.00504228 -0.0149287 -0.0227342 0.0553197 -0.0285373 -0.032886 -0.0385004 -0.0475414 0.0280135 0.0415548 -0.00475176 -0.0521498 -0.0547412 -0.0550037 0.039519 -0.00102364 0.0108822 0.0792561 -0.0579146 -0.0127298 0.00706326 0.0471058 0.0496203 -0.0598759 0.0214867 -0.0259654 0.0582751 0.0356802
internal_weight=0 12609.7 9784.86 8072.2 7060.08 3740.01 6465.65 6135.84 5552.75 4473.54 1747.03 1712.66 454.35 4210.11 4118.69 2824.81 1012.12 1079.21 935.636 1992.98 3974.49 557.441 448.613 1189.59 917.676 3913.14 406.72 866.494 1258.31 682.708
internal_count=87577 63380 47111 38818 34184 24197 31457 29908 27251 22324 10213 8293 2050 21117 20717 16269 4634 4927 4279 13984 20024 2956 2451 7257 4217 19733 2247 4926 6243 3142
is_linear=0
shrinkage=0.1


Tree=16
num_leaves=31
num_cat=0
split_feature=9 9 4 13 12 17 4 15 10 14 4 15 8 12 14 17 14 10 14 4 11 1 2 5 13 5 1 11 6 13
split_gain=1303.95 436.864 293.998 278.857 302.61 231.073 209.845 251.024 175.2 170.464 158.791 131.231 119.714 118.249 116.916 114.471 110.908 110.207 89.8732 85.9178 85.6348 84.6258 81.8038 113.363 90.6072 81.0291 80.9373 76.9291 75.938 73.3238
threshold=0.59435642617658835 0.99268254489027019 141.36843486592241 43.718864941277914 0.88471157535548717 3.023855955303564 96.895721435546889 0.77738544210796645 0.21215919646408699 79.867573987895256 157.3700800854046 0.8734142344345398 0.33459551477167992 0.65137289939102783 58.465360119936882 2.8251736799823211 354.78138350442924 0.082231066903140165 42.863137528634546 165.39331062672474 0.8919319077451543 1.1034484532435649 0.31961694359779363 141.03838348388675 76.697370412068338 248.5259375756626 1.0881634866044496 0.46599604952766621 2.7853284078116238 284.00082049992227
decision_type=2 2 2 2 2 2 2 2 2 2 2 2 2 2 2 2 2 2 2 2 2 2 2 2 2 2 2 2 2 2
left_child=3 2 6 -1 5 9 11 12 14 13 -11 18 -8 -5 26 20 -16 -6 -2 -3 -4 25 -14 24 -24 -13 -9 -15 -17 -7
right_child=1 19 15 4 17 29 7 8 -10 10 -12 21 22 27 16 28 -18 -19 -20 -21 -22 -23 23 -25 -26 -27 -28 -29 -30 -31
leaf_value=-0.057506707975458975 -0.015358972195076665 0.089671078424303566 -0.044981510183922088 -0.00161898300976316 0.002525851045834672 0.068404274920755292 0.085687945919687536 0.037523284348395913 0.094710668647139479 0.016947738352905934 -0.072058424405648511 0.035708945018036807 0.057756416574189832 0.080573154459076896 0.066278054081630663 0.020721952212466359 -0.11596023072648627 0.076188202210455302 0.055127224025434907 -0.0077801104292966328 0.036417488256937941 -0.097378059109202456 -0.030552185684901659 -0.090044207008708979 0.054459462249122903 -0.091267609298115948 -0.037717746843208846 -0.050875158213624649 0.21077889161072752 -0.048935686335412773
leaf_weight=2184.1453760713339 361.28593049198389 1230.4912506863475 1000.7961763516068 633.50986139476299 390.26118518412113 329.31867860257626 146.78156668692827 323.33413654565811 929.47319293767214 1088.6079958975315 245.67514978349209 146.6193915605545 142.67571035772562 45.172822251915932 1010.3378327265382 271.27287586778402 34.536757312715054 423.51338830590248 362.28783735632896 97.650617882609367 148.41057144105434 200.14713306725025 371.45246947556734 196.98742512613535 189.24938808381557 76.46742670238018 256.29290057718754 3093.159451931715 22.788917258381844 63.527024313807487
leaf_count=11956 1684 10032 5106 3259 1904 1488 760 1645 6468 5133 1476 713 700 219 5546 1302 187 2067 1808 491 697 899 1748 1003 893 376 1185 16453 101 278
internal_value=0 0.0304647 0.0193008 -0.0267082 -0.0160523 -0.0244748 0.0313153 0.0431791 0.0600848 -0.0301607 0.000559461 -0.00593855 0.00194625 -0.0410279 0.0402733 -0.0202234 0.0602544 0.040862 0.0199329 0.0825061 -0.0344695 -0.0501692 -0.0117057 -0.0247857 -0.00185886 -0.00781478 0.00425406 -0.0489831 0.0354508 0.0494292
internal_weight=0 7519.34 6191.2 8496.89 6312.75 5498.97 4747.93 3601.12 2553.97 5106.13 1334.28 1146.81 1047.15 3771.84 1624.5 1443.27 1044.87 813.775 723.574 1328.14 1149.21 423.234 900.365 757.689 560.702 223.087 579.627 3138.33 294.062 392.846
internal_count=87577 43344 32821 44233 32277 28306 25615 20135 15031 26540 6609 5480 5104 19931 8563 7206 5733 3971 3492 10523 5803 1988 4344 3644 2641 1089 2830 16672 1403 1766
is_linear=0
shrinkage=0.1


Tree=17
num_leaves=31
num_cat=0
split_feature=9 9 6 4 16 4 16 10 15 4 3 18 4 15 17 8 4 4 14 12 11 8 17 6 14 8 10 15 1 3
split_gain=1083.11 390.602 259.558 254.826 221.324 205.705 153.027 139.086 133.133 119.938 116.812 108.831 98.0088 171.952 90.8498 86.132 78.6499 78.4463 77.3 76.0466 75.3877 70.4427 77.9093 69.131 76.2973 69.1591 68.1593 67.7261 66.7905 65.7303
threshold=0.59435642617658835 0.99268254489027019 1.5185788273811343 141.36843486592241 3.0703815664564642 100.3457284850325 3.0166855067219696 0.11096438741549676 0.97799890996532846 124.96687316894533 0.83154635508242125 3.0567461570077623 110.15286082398696 0.9356626347434468 2.871603426065847 0.046777506947178589 165.39331062672474 139.99630532963383 354.78138350442924 0.84514523314896406 0.84255201873953589 0.32191189501011658 2.8908621390634264 2.0023955492281655 196.12679162231086 0.67004740385846029 0.12793377189692737 0.85483864781908292 1.0949099063873293 0.14726355114109371
decision_type=2 2 2 2 2 2 2 2 2 2 2 2 2 2 2 2 2 2 2 2 2 2 2 2 2 2 2 2 2 2
left_child=3 2 5 4 7 8 17 21 20 10 29 15 13 -6 -11 -9 -3 26 -8 -17 -2 22 -1 24 25 -14 -7 -18 -10 -4
right_child=1 16 9 -5 12 6 18 11 28 14 -12 -13 23 -15 -16 19 27 -19 -20 -21 -22 -23 -24 -25 -26 -27 -28 -29 -30 -31
leaf_value=-0.020750278180060925 0.0029117500555683826 0.086346036805924009 0.077494822811507269 -0.053671930187814271 0.032869731931815034 -0.003867887798784421 0.078206348676929882 0.14623140235891996 -0.010801211152724866 -0.030793697634800072 0.069684889798511271 0.11473692154149505 0.093984156169238608 -0.060040068446530648 0.035705730856752736 -0.024806635749003384 0.094563866517681644 -0.042572982247152689 -0.056049974388933492 0.023369245152226856 0.082652302329663266 -0.051218638627581706 0.11883465766774542 -0.0351434660512484 -0.01284523467115144 0.031995212697488964 0.060192757836139345 -0.075056899082388162 -0.10788010901096839 -0.0085716954832710298
leaf_weight=306.40033268928528 468.45189419388771 1154.0782323479652 99.740332625806332 2200.0328596681356 419.55620762705803 274.38011732697487 1361.2701036557555 33.824240550398827 141.32352022081614 1435.0741358846426 339.98614093661308 70.121791735291481 321.80325461924076 379.2660575658083 239.76566085964441 1562.4970746785402 39.32168185710907 160.90946415066719 44.280453361570835 414.59982930123806 158.73572967946529 1897.7313688397408 45.987974599003792 122.57951459288597 183.31136094033718 408.37579330801964 420.82759792357683 58.649434939026833 142.16066212207079 804.22958706319332
leaf_count=1450 2311 10032 488 13705 1858 1348 8995 152 692 7185 1659 318 1562 1872 1121 7708 202 790 262 1952 865 10168 203 542 877 1866 2622 289 653 3830
internal_value=0 0.0281734 0.0177168 -0.024454 -0.0140291 0.0375175 0.0536759 -0.0263606 -0.00261223 -0.00380382 0.0197175 -0.00772674 0.0150785 -0.0112421 -0.0212738 -0.0119971 0.0790436 0.0203466 0.0739767 -0.0147041 0.0230934 -0.0435942 -0.00253393 0.0353721 0.0448344 0.0593149 0.0349097 -0.00697792 -0.059484 0.000924531
internal_weight=0 7343.18 6091.14 8366.09 6166.05 3172.34 2261.67 4331.16 910.672 2918.8 1243.96 2081.04 1834.89 798.822 1674.84 2010.92 1252.05 856.117 1405.55 1977.1 627.188 2250.12 352.388 1036.07 913.49 730.179 695.208 97.9711 283.484 903.97
internal_count=87577 43344 32821 44233 30528 18538 14017 21951 4521 14283 5977 10130 8577 3730 8306 9812 10523 4760 9257 9660 3176 11821 1653 4847 4305 3428 3970 491 1345 4318
is_linear=0
shrinkage=0.1


Tree=18
num_leaves=31
num_cat=0
split_feature=10 11 17 18 6 9 3 17 8 16 14 10 18 16 15 7 4 9 14 3 13 3 3 1 1 18 0 8 9 2
split_gain=959.207 507.601 311.819 368.783 240.842 164.723 146.232 132.392 121.439 119.231 115.935 116.836 112.265 108.552 92.3372 80.2463 79.3053 79.3607 78.4425 76.8815 76.638 81.1649 75.4064 73.0176 72.981 79.5967 74.9973 71.4789 68.4824 64.9305
threshold=0.21851649717962193 0.88569604198796148 2.7875368164236338 2.7601753068327892 2.2458156083759069 0.95167102725322661 0.19128617918733679 3.0871505737304692 0.47138297900785903 3.0975858559285014 85.562928169796763 0.10969975680616866 3.0700670798593248 3.1162969516633949 2.0710126902567638 0.054753145439965172 141.90130343521002 0.47050542688309244 354.78138350442924 0.13673591613769534 399.54031041355455 0.14196991920471194 0.94895201208652569 0.68365493991348492 1.0603596146464611 0.15563964843750003 188.23773956298831 0.14724731445312503 0.96297391161326618 0.35157012939453131
decision_type=2 2 2 2 2 2 2 2 2 2 2 2 2 2 2 2 2 2 2 2 2 2 2 2 2 2 2 2 2 2
left_child=1 2 3 6 5 9 -1 13 29 14 11 -3 16 19 20 -10 17 -5 -19 -4 21 -2 24 -6 25 -17 -27 -23 -21 -8
right_child=4 10 7 12 23 -7 8 -9 15 -11 -12 -13 -14 -15 -16 22 -18 18 -20 28 -22 27 -24 -25 -26 26 -28 -29 -30 -31
leaf_value=-0.0025785813051197671 0.10907397523516243 -0.0054452196965656067 0.068815754371602547 -0.016939929156932074 0.136925875018681 0.090624124354832289 0.039776413536745374 0.07790195115226653 0.082469080924864047 0.089443868259127368 0.071263193872237354 0.054974518113318917 0.067595276225871082 0.056955752133782171 -0.1653017913315992 0.30765072667602433 -0.046639517709388185 0.038631010319772868 -0.16191694551559668 -0.018798181281855505 -0.1590141894777746 0.10543616263633736 -0.024864828880449115 -0.019711495178353272 -0.082158203259892315 -0.012356912627900278 -0.064619205580633679 0.019339028697640318 0.051562893392170177 -0.031813588647671913
leaf_weight=689.08362764120102 129.84750999510288 837.65127377957106 122.25656470656395 670.75465239584446 31.405313797295094 1013.8546076640487 147.00406324118376 244.8356848359108 39.056444860994816 395.58360602706671 573.87403224408627 517.95277225971222 250.84567598253489 296.06666436046362 24.38700670003891 6.1192893013358107 347.73119033873081 618.68626077473164 20.138447552919388 1697.7251401394606 20.945917591452599 104.77694319933653 486.42718361318111 568.14689372479916 1620.488647326827 347.32407300919294 1311.0083634778857 1210.0437568053603 150.59997649490833 916.83004247397184
leaf_count=3689 721 4360 627 3230 163 9174 741 1277 205 2576 3444 2735 1341 1662 115 33 2056 3327 102 8451 100 586 2770 2918 9457 2051 7654 6139 1105 4768
internal_value=0 -0.0133649 -0.02244 -0.0326866 0.0461884 0.0581187 -0.0456979 0.00804316 -0.0517938 0.0406409 0.0335889 0.0176401 0.0052486 0.000497255 0.0276842 -0.060134 -0.00418801 0.00708409 0.0323089 -0.00798525 0.0308953 0.0336488 -0.0616108 -0.0115066 -0.0670521 -0.0523449 -0.0536733 0.0262 -0.0130652 -0.021921
internal_weight=0 11912.5 9982.98 7471.5 3498.99 2899.44 5563.34 2511.48 4874.26 1885.58 1929.48 1355.6 1908.16 2266.65 1490 3810.42 1657.31 1309.58 638.825 1970.58 1465.61 1444.67 3771.37 599.552 3284.94 1664.45 1658.33 1314.82 1848.33 1063.83
internal_count=87577 65085 54546 41424 22492 19411 31368 13122 27679 10237 10539 7095 10056 11845 7661 22170 8715 6659 3429 10183 7546 7446 21965 3081 19195 9738 9705 6725 9556 5509
is_linear=0
shrinkage=0.1


Tree=19
num_leaves=31
num_cat=0
split_feature=9 11 4 14 13 14 13 4 12 17 4 9 13 10 15 6 10 2 16 5 8 10 15 8 15 10 0 15 12 18
split_gain=818.557 377.18 308.469 240.414 194.368 198.018 179.563 148.222 134.68 131.53 121.677 99.7837 98.7956 96.9848 95.0792 94.1164 103.565 90.9558 90.5085 90.101 83.1171 79.4976 77.4142 76.3151 67.2813 66.2507 75.9557 65.8849 60.8715 60.368
threshold=0.50090516325909695 0.88569604198796148 157.3700800854046 71.318845113238737 46.719755373413953 51.787567016686914 93.81614954578167 149.67376251026326 0.89306735198694853 2.7601381858163561 98.837193130896139 0.98731490385098419 173.50256128088174 0.11163419061785755 0.7654974988854214 0.77201083622803235 0.35700473788140047 0.11732208728790285 3.1059048222721293 477.82379295514914 0.67578292701329379 0.099096302992588606 1.5939630308950552 0.31503897640533596 0.65758549731787286 0.1047977644971699 407.25868225097662 0.85217390436958473 0.91455882573037572 3.0248781760507311
decision_type=2 2 2 2 2 2 2 2 2 2 2 2 2 2 2 2 2 2 2 2 2 2 2 2 2 2 2 2 2 2
left_child=4 2 3 8 -1 12 11 10 9 15 27 18 17 -3 -4 -2 23 -6 21 -11 -19 -5 -15 -17 -18 -12 -27 -7 -23 -25
right_child=1 13 14 6 5 7 -8 -9 -10 19 25 -13 -14 22 -16 16 24 20 -20 -21 -22 28 -24 29 -26 26 -28 -29 -30 -31
leaf_value=-0.051987720247040341 -0.18718233432435388 0.032679915907634416 0.0059912684045790605 -0.030374903935199916 0.12998886705009169 0.020313222550085077 0.07686368239850995 -0.043829887096382081 0.087488040696567168 0.034022746113156969 0.012107307740766689 0.079577708091994867 -0.055881896730222771 0.085650991205407867 -0.061194396912245569 0.031818011413494454 -0.012582420868805686 0.023941776157460216 0.067151352332459363 -0.17760173710661026 -0.033410781630424706 0.010846897450855325 -0.12865282616673157 -0.04175107123782823 0.079825802867137932 0.065786293360774351 -0.047901296046911762 -0.061994268498252514 0.089552948142165703 0.068792695715544527
leaf_weight=1956.1972808912396 33.527772106230259 635.22560302913189 302.74747875332832 463.31838988512754 41.094838261604309 162.89136679470539 907.11371332406998 461.68693575263023 161.01561462879181 739.25283446907997 722.84079844504595 266.90872751176357 1122.8319479972124 1035.1737929582596 692.30538835376501 181.01026299595833 156.28324919193983 323.62421211600304 265.47475636005402 20.681449741125107 1152.8138438686728 807.76596567779779 17.135258100926876 1264.9304997995496 158.90003225952387 635.25868998467922 64.757723063230515 241.35361959040165 111.8743619248271 51.409069418907166
leaf_count=11445 170 3723 1619 2247 186 735 6431 2934 978 4175 3404 2533 6215 7660 3849 928 811 1629 1656 100 6603 4266 121 6526 1113 3102 304 1200 642 272
internal_value=0 0.0213558 0.0105456 0.019678 -0.0253174 -0.0147329 0.0402126 0.00679469 -0.00126811 -0.00675205 0.0195869 0.0228545 -0.033394 0.0635355 -0.040753 -0.0211662 -0.0180953 -0.0167551 0.0136701 0.0282634 -0.0208395 0.0034037 0.0821614 -0.0290622 0.0340053 0.0333421 0.0552692 -0.0288283 0.0204215 -0.0374338
internal_weight=0 8272.05 6584.52 5589.47 6885.35 4929.15 2822.46 2288.79 2767.01 2606 1827.1 1915.34 2640.36 1687.53 995.053 1846.06 1812.53 1517.53 1648.43 759.934 1476.44 1382.96 1052.31 1497.35 315.183 1422.86 700.016 404.245 919.64 1316.34
internal_count=87577 49820 38316 32848 37757 26312 17775 11679 15073 14095 8745 11344 14633 11504 5468 9820 9650 8418 8811 4275 8232 7155 7781 7726 1924 6810 3406 1935 4908 6798
is_linear=0
shrinkage=0.1


Tree=20
num_leaves=31
num_cat=0
split_feature=9 18 17 3 2 8 7 10 11 11 11 16 12 1 0 8 16 1 0 13 6 4 18 4 16 14 7 1 1 10
split_gain=718.044 341.152 381.249 263.33 264.803 179.976 159.675 153.822 140.817 139.227 137.069 128.074 109.401 98.1576 93.2493 92.2814 91.9595 86.335 131.042 75.4743 81.6859 75.3577 72.0455 71.0343 68.7094 67.7422 86.2453 66.4685 59.6023 57.311
threshold=0.91725707897405306 2.9550555388080046 2.8433748801522936 0.096439361572265639 0.22518920898437503 0.1325824648833869 0.10012817382812501 0.16528789555113368 0.81568794950050527 0.43750507590722509 0.93729711196289001 3.1338025371180938 0.92189197013632584 1.1034484532435649 152.84372810723244 0.31503897640533596 2.925961299041727 1.0537642925698052 193.15868309716348 244.50844784256489 1.3452490959368337 99.164321899414077 3.0831098556518559 95.651855329192514 2.9644324453624429 64.633132303721212 0.99926758884970424 0.88972932100296032 0.9505155526241712 0.11678820203139831
decision_type=2 2 2 2 2 2 2 2 2 2 2 2 2 2 2 2 2 2 2 2 2 2 2 2 2 2 2 2 2 2
left_child=1 2 3 29 24 -6 -7 13 15 -8 11 12 14 -2 -11 21 -9 18 28 20 -17 -4 -3 -18 -5 26 -15 -20 -16 -1
right_child=7 22 8 4 5 6 9 16 -10 10 -12 -13 -14 25 17 19 23 -19 27 -21 -22 -23 -24 -25 -26 -27 -28 -29 -30 -31
leaf_value=0.016377088038501995 0.039630450456712658 0.025761151730082532 -0.022857289044041391 0.0063430370873852164 0.033300496500291481 0.069968023811116012 0.089424393724654466 0.033992343593664952 0.053034658531764527 0.015851949816685348 0.03464882445356527 0.057523652877436708 0.013736315862606489 -0.11392450355231656 0.051463964920543372 0.036564083540941886 0.017003937691521514 -0.064401489637767623 -0.040316152423867511 -0.064016785262255391 -0.020595077594679215 0.092290178693456307 0.082460736525874545 0.096861514342566582 0.076630897866551861 0.034311935754707215 -0.0029004907484155638 -0.076239864485161679 -0.018713601251057588 0.089266752905498056
leaf_weight=237.01399637758732 958.17665327340364 917.28962506353855 83.42369282990694 341.53119470924139 362.58309922367334 132.10441662371159 80.871975459158421 529.40093217045069 812.03671918809414 209.08003136515617 222.48421916365623 119.30390545725822 283.3491170629859 112.82615646719933 148.07265846431255 405.32064579427242 128.89706828445196 2923.253826521337 1493.1466946080327 212.39089617133141 652.5326406955719 178.32708958536386 296.55356132239103 819.9738647416234 234.61703767627478 168.45524873584509 184.19647166877985 786.27914045006037 662.47828482836485 197.975281663239
leaf_count=1166 6736 4683 385 1683 1778 678 413 4093 4121 1158 1099 635 1508 609 830 2098 971 16994 8312 1109 3264 956 1597 8103 1243 1068 1002 4528 3727 1030
internal_value=0 -0.0106462 -0.0163065 -0.0262215 -0.030342 -0.0354109 -0.0389395 0.0447897 0.0193691 -0.0410161 -0.0425567 -0.0451494 -0.0470323 0.021329 -0.0497995 0.00152457 0.0673836 -0.0520823 -0.0404277 -0.00961655 0.00130568 0.055591 0.0396134 0.0860135 0.0349654 -0.0163443 -0.0450738 -0.0527079 -0.00589346 0.0495511
internal_weight=0 11992 10778.2 8434.14 7999.16 7423.01 7060.42 2901.93 2344.03 6928.32 6847.45 6624.96 6505.66 1423.65 6222.31 1531.99 1478.27 6013.23 3089.98 1270.24 1057.85 261.751 1213.84 948.871 576.148 465.478 297.023 2279.43 810.551 434.989
internal_count=87577 64995 58715 46782 44586 41660 39882 22582 11933 39204 38791 37692 37057 9415 35549 7812 13167 34391 17397 6471 5362 1341 6280 9074 2926 2679 1611 12840 4557 2196
is_linear=0
shrinkage=0.1


Tree=21
num_leaves=31
num_cat=0
split_feature=10 11 8 6 18 9 3 15 4 17 9 4 11 4 1 13 15 15 7 8 17 5 4 6 2 4 16 12 1 16
split_gain=645.465 360.318 273.341 177.299 156.802 151.436 136.338 136.05 137.177 125.004 102.052 90.5528 89.1002 83.6444 81.9396 97.683 71.4815 69.8587 69.5401 69.2222 69.1916 73.2325 91.237 101.032 78.3335 68.5602 67.3301 67.2653 64.4958 63.3528
threshold=0.21851649717962193 0.92041326121179201 0.6921766254646563 2.0857778787612919 2.8994926324853876 0.45021642477808516 0.096439361572265639 1.8265543510096298 101.79574502453791 2.6842987179630344 0.88675053181048646 96.895721435546889 0.43750507590722509 151.52338199942812 0.96427181363105785 174.75108382918947 0.80919955379478059 0.97219424405908339 0.054753145439965172 0.24118843466859688 3.0810457785897936 208.13641700159332 108.89030075073244 1.3284355998039248 0.28002733845472777 113.19431304931642 3.1204163471805022 0.8798851502670586 0.68365493991348492 3.1131058957023501
decision_type=2 2 2 2 2 2 2 2 2 2 2 2 2 2 2 2 2 2 2 2 2 2 2 2 2 2 2 2 2 2
left_child=1 2 5 7 6 20 -4 8 17 12 -10 16 -8 19 -3 -16 -7 -2 -14 -13 21 24 -23 -24 -1 -5 -11 28 -27 -21
right_child=3 14 4 25 -6 11 9 -9 10 26 -12 13 18 -15 15 -17 -18 -19 -20 29 -22 22 23 -25 -26 27 -28 -29 -30 -31
leaf_value=0.085608579333892099 0.033393450663109822 0.082743937436393397 0.035617814500728366 0.055601556826906567 0.012252117533789486 0.03320165973006356 0.098674960235569723 -0.13070306550762681 0.046857869878803353 -0.022604119343890103 0.094243835537961285 0.077033265288572475 0.084487854158300776 -0.021674587870686744 0.043848078102327007 -0.063270868272055955 -0.046435182352866908 -0.044478352056987171 -0.052608860335784803 0.017218309612080367 0.098865891682930973 -0.078839270819656193 0.020731900300151245 -0.06932826211422824 -0.0098857596248738567 0.11531008233047242 0.049544304166369763 0.1095096379639329 -0.038219980780806566 0.084593704023504995
leaf_weight=94.423440113663673 512.57624203711748 397.66501714289188 258.5497503131628 149.71828819811344 792.53249775618315 181.7672523483634 40.142149619758129 40.123526081442833 970.2454544082284 1598.0045685619116 854.98214273154736 410.12925398349762 37.394902929663658 238.01467826217413 437.44473381340504 105.70118443667889 296.67201843857765 148.60008217394352 3488.007194519043 845.65878818184137 50.934015296399593 363.35355567932129 325.65536347031593 201.72580377757549 951.58755701780319 28.959296733140945 140.73858830332756 37.138354197144508 496.00383300334215 167.14504363387823
leaf_count=431 3141 2447 1336 774 4259 935 209 229 5545 8738 9013 2463 192 1313 2456 538 1516 793 21505 4680 253 1877 1594 1279 5090 150 801 202 2645 1173
internal_value=0 -0.0110289 -0.0163496 0.0395501 -0.0293624 0.00368917 -0.0352912 0.0519699 0.0549177 -0.0387476 0.0690546 0.022153 -0.0494678 0.0331949 0.0482538 0.0230017 -0.0161798 0.0158917 -0.0511546 0.0423729 -0.0161839 -0.0192096 -0.0402818 -0.0137165 -0.00126548 -0.00453258 -0.0167642 -0.0205496 -0.0297506 0.0283374
internal_weight=0 11423.2 10482.4 3238.35 6355.37 4127.07 5562.84 2526.53 2486.4 5304.29 1825.23 2139.39 3565.54 1660.95 940.811 543.146 478.439 661.176 3525.4 1422.93 1987.68 1936.75 890.735 527.381 1046.01 711.82 1738.74 562.101 524.963 1012.8
internal_count=87577 65085 59644 22492 37040 22604 32781 18721 18492 31445 14558 12080 21906 9629 5441 2994 2451 3934 21697 8316 10524 10271 4750 2873 5521 3771 9539 2997 2795 5853
is_linear=0
shrinkage=0.1


Tree=22
num_leaves=31
num_cat=0
split_feature=9 9 17 18 10 3 2 8 2 11 3 0 14 7 13 12 18 16 18 17 9 15 17 8 10 12 4 14 15 14
split_gain=547.115 283.909 222.739 234.639 153.413 137.583 136.056 113.047 100.732 93.5166 90.7346 87.2654 83.8988 83.3563 80.6915 89.3544 79.8342 81.6607 73.5191 72.1632 67.5499 65.7343 64.7147 62.3853 60.5687 62.7616 57.6381 53.0492 51.659 49.1548
threshold=0.50090516325909695 0.99414162720825228 2.9736790680262835 2.7762074833719175 0.12245613250619188 0.071157455444335951 0.15506028741320266 0.37958607817660067 0.29144500919759758 0.82264108607574327 0.19128617918733679 152.84372810723244 354.78138350442924 0.29185572139716426 40.813342860353707 0.87879689815233086 0.92993122265771944 3.1131058957023501 3.0567461570077623 2.9050947211672606 0.20362557601825082 0.93950106090357 3.0297457297616686 0.32191189501011658 0.091798828945177435 0.8543954664104082 165.39331062672474 21.272798224684433 0.79929318006517835 20.365139874643898
decision_type=2 2 2 2 2 2 2 2 2 2 2 2 2 2 2 2 2 2 2 2 2 2 2 2 2 2 2 2 2 2
left_child=4 2 3 5 8 -2 -7 -8 -1 12 -6 -9 24 -13 -10 20 21 27 19 23 -16 -15 29 -12 -5 -26 -3 -18 -28 -22
right_child=1 26 -4 9 10 6 7 11 14 -11 18 13 -14 16 15 -17 17 -19 -20 -21 22 -23 -24 -25 25 -27 28 -29 -30 -31
leaf_value=0.007634969191950728 0.078893537632402089 0.079120945087283887 0.060188372942134229 -0.0087399019555453039 0.051943275366273578 0.065422388776745055 0.019330980659483372 0.06204841844661349 -0.065321124460571783 0.074069172699263011 0.025132928836535551 0.025089932534092998 -0.11356994781133894 0.049697483796851384 0.13326504764759781 0.010289061708621927 0.053736400262137211 0.018724154350165681 0.087293687311041201 0.032144373440318258 0.20647977029504375 -0.060540025795929056 0.035065565378511729 -0.027638064521117736 0.026388088353341978 0.095070370629300044 0.1035744145918116 -0.043821456015176445 -0.065650748818271945 -0.044708920728114575
leaf_weight=538.20363885909319 179.88595061004162 811.38439371436834 818.03876212984324 321.6345556974411 284.50171269476414 224.90331021696329 800.94448827952147 117.86424306035042 867.86857741326094 493.13879817724228 263.73246944695711 295.47301380336285 44.118076711893082 203.77879502624273 22.715919457376003 452.13718684017658 57.083618059754372 248.01713098585606 77.771733872592449 317.19283232837915 7.8186087533831587 73.639198325574398 109.25624904036522 1487.8358972892165 531.49692200869322 177.47279912233353 27.056077256798744 2365.2683984041214 54.128138244152069 2167.3173394724727
leaf_count=2767 1054 8944 5126 1726 1445 1306 4514 652 5807 3370 1297 1746 252 1074 118 2375 306 1530 411 1553 45 423 495 8466 3256 1199 152 12920 270 12978
internal_value=0 0.0179892 0.0111733 0.00463734 -0.021085 -0.00682169 -0.0103364 -0.0144301 -0.0327357 0.0380151 -0.00112283 -0.0224753 0.0214716 -0.025547 -0.038726 -0.0303611 -0.0306226 -0.0359269 -0.00815622 -0.0117445 -0.0383275 0.0204355 -0.0400338 -0.0196924 0.0272525 0.043581 0.0710828 -0.0415225 -0.00925347 -0.043806
internal_weight=0 7845.33 6952.76 6134.72 6596.35 4566.86 4386.97 4162.07 4165.32 1567.86 2431.03 3361.12 1074.72 3243.26 3627.11 2759.25 2947.79 2670.37 2146.53 2068.76 2307.11 277.418 2284.39 1751.57 1030.6 708.97 892.569 2422.35 81.1842 2175.14
internal_count=87577 49820 40454 35328 37757 25525 24471 23165 24585 9803 13172 18651 6433 17999 21818 16011 16253 14756 11727 11316 13636 1497 13518 9763 6181 4455 9366 13226 422 13023
is_linear=0
shrinkage=0.1


Tree=23
num_leaves=31
num_cat=0
split_feature=10 11 16 8 16 2 3 4 18 11 7 17 4 0 12 4 13 8 1 3 0 9 1 0 9 14 4 15 4 6
split_gain=486.726 261.121 228.602 171.325 170.247 128.28 136.747 118.955 107.479 106.938 104.075 98.4331 93.5911 90.6625 86.6215 80.0818 79.1444 76.1599 76.0376 82.4706 81.2989 95.112 80.7317 96.7749 73.9718 73.1473 69.4041 64.1366 122.816 95.7779
threshold=0.18850916087660566 0.92041326121179201 3.1171022773819304 0.41105532821117619 3.0021930674659179 0.066503544566742595 0.20606231689453128 165.39331062672474 3.0700670798593248 0.76023087132390998 0.054753145439965172 3.0871505737304692 94.521980762935129 152.53429083366308 0.79713797593297031 144.76061931153177 453.36058059346323 0.046777506947178589 1.0949099063873293 1.0856781005859377 240.3377380371094 0.53132998784304275 0.75028997659683239 309.10183715820318 0.78029570180815633 85.562928169796763 102.60126755964272 0.78866934790484822 99.164321899414077 1.408716392017386
decision_type=2 2 2 2 2 2 2 2 2 2 2 2 2 2 2 2 2 2 2 2 2 2 2 2 2 2 2 2 2 2
left_child=1 2 3 17 9 -5 -7 12 10 14 -8 13 -6 -12 -2 26 24 -1 20 -20 21 -15 23 -22 -14 -3 -4 -19 -29 -30
right_child=4 25 15 5 7 6 8 -9 -10 -11 11 -13 16 18 -16 -17 -18 27 19 -21 22 -23 -24 -25 -26 -27 -28 28 29 -31
leaf_value=0.08038096362986108 -0.028081402535735808 0.024327841214783999 -0.0035711149663217008 0.065146024598534788 0.0054471686335366585 0.0068169484580001202 0.097234419967661037 -0.039192096234072764 0.048628116998312806 0.036132168538503172 0.034352459376389484 0.047824866013145478 0.048586619958352201 -0.039542376970861597 0.033966352344139299 -0.027666104248706143 -0.1797709191616306 0.035719216000526084 -0.067155086796031646 -0.011830877688725604 0.010942119007252638 0.0030715170267262919 -0.085056436709535069 -0.067549306470832779 0.095647645644734033 0.090391527054420717 0.063339832858651468 -0.064388711956300304 0.039268075719641395 -0.024972095375834426
leaf_weight=130.60146299004555 771.91581062972546 636.13420286774635 214.42368829250336 144.84374642372131 252.76968967169523 878.59527716040611 56.613929368555546 127.04561807215214 148.0436944514513 932.93674522638321 155.04418193548918 127.54092229902744 617.56071349978447 1318.6362393349409 317.55548505485058 189.89561623334885 12.399070478975771 402.7688085064292 1713.3032567724586 319.72594681382179 289.58901216089725 868.87854804843664 511.47886751592159 343.28262639045715 727.39968962967396 227.55168974399567 559.57327380031347 312.90497021377087 477.54154358059168 451.53699089586735
leaf_count=699 4301 3463 1082 745 1475 4872 301 692 803 6113 907 659 3573 8427 1904 1190 67 2085 10877 1826 1695 4801 3069 1955 8152 1624 3398 1597 2703 2522
internal_value=0 -0.0109367 -0.015668 -0.020815 0.0310052 -0.027966 -0.0299697 0.0539658 -0.0354926 0.011283 -0.0376759 -0.0390283 0.0613163 -0.0410351 -0.00999593 0.0305261 0.0717203 0.00687932 -0.0432138 -0.0584545 -0.0339142 -0.0226162 -0.0555113 -0.0316332 0.0740388 0.0417334 0.0448032 0.00104292 -0.0102024 0.00804702
internal_weight=0 10478.5 9614.82 8650.93 3759.58 6875.58 6730.73 1737.17 5852.14 2022.41 5704.09 5647.48 1610.13 5519.94 1089.47 963.893 1357.36 1775.35 5364.89 2033.03 3331.87 2187.51 1144.35 632.872 1344.96 863.686 773.997 1644.75 1241.98 929.079
internal_count=87577 61300 56213 50543 26277 40937 40192 13959 35320 12318 34517 34216 13267 33557 6205 5670 11792 9606 32650 12703 19947 13228 6719 3650 11725 5087 4480 8907 6822 5225
is_linear=0
shrinkage=0.1


Tree=24
num_leaves=31
num_cat=0
split_feature=9 4 16 10 11 1 6 11 15 7 12 4 6 10 14 2 2 18 11 0 18 7 1 13 11 11 0 14 14 3
split_gain=421.869 254.588 202.684 156.13 127.905 121.834 114.62 103.765 96.6467 96.6073 84.4573 78.4908 94.6134 73.3573 72.2595 88.2853 70.7067 70.5756 63.357 65.6572 63.2985 63.0565 62.3584 61.5625 60.2702 64.1972 58.0578 56.7032 108.401 57.6662
threshold=0.94262707852327166 141.36843486592241 2.9922176707718662 0.11237122871738085 0.79138730256523104 0.83527650853908642 1.7080365066295708 0.47972238360085517 0.78109303630668914 0.98561574741442404 0.81097086149243813 101.41092987673404 0.73693212866783153 0.36739868529087283 87.493681241962804 0.97643752983791321 0.15506028741320266 0.78855419158935558 0.79986718173013938 232.07543710264045 2.8830522080654917 1.4221768641672587 1.0582104921340945 59.218863653055223 0.43750507590722509 0.79986718173013938 157.28751877675492 94.887807491953893 257.02034977128852 0.21090088605049465
decision_type=2 2 2 2 2 2 2 2 2 2 2 2 2 2 2 2 2 2 2 2 2 2 2 2 2 2 2 2 2 2
left_child=1 2 4 5 7 18 11 -1 24 -7 13 12 14 21 -2 -16 -10 23 19 -4 -11 27 -14 -9 -3 -26 -8 29 -29 -5
right_child=6 8 3 10 -6 9 26 17 16 20 -12 -13 22 -15 15 -17 -18 -19 -20 -21 -22 -23 -24 -25 25 -27 -28 28 -30 -31
leaf_value=0.042418097857386643 -0.27546490393776712 0.23311600201286678 0.11867810289690497 0.070288376851932108 0.0092499999920391367 -0.03695626070366119 0.078088523764349882 -0.02052050041683267 0.035242345403937773 -0.0003601938300480118 0.063187916171704675 0.071416375365570231 0.076014811170343921 0.074172403825485136 0.086685621754075889 -0.47556644856894226 -0.049767971858234353 -0.036265119888551259 0.078003244491631707 -0.0015738358807277546 0.084262115321772746 0.059369418923281098 -0.014692501194222097 0.10957344029954437 -0.027896584554372675 0.027382550213803487 -0.00094619973529101817 0.061315915867694221 -0.070038749694613364 -0.03166368834199388
leaf_weight=200.34779178351164 18.235108703374863 10.375507235527037 51.678865559399128 62.403606005012989 1490.8902194797993 928.91418605297804 107.81846633553505 85.841970093548298 103.19473886489868 828.88673486560583 736.33619194477797 1048.5338502861559 168.21738167107105 218.18678949028254 17.525788962841037 3.32208377867937 1885.6322194859385 2476.6613930761814 231.77821458876133 373.96801652759314 98.945980869233608 216.52619717270136 137.93664672225714 63.122743010520935 622.07230488955975 317.21250315755606 673.74811056256294 270.52926737070084 81.829935133457184 499.97860610485077
leaf_count=1020 140 53 261 326 7587 4804 728 545 547 4191 4551 12084 1595 1608 173 22 12659 13819 1239 1927 493 1041 983 331 4133 1919 4226 1610 451 2511
internal_value=0 -0.00729775 0.00111464 0.01572 -0.0144485 -0.00106052 0.0406102 -0.0269511 -0.0328251 -0.0141594 0.0359468 0.0577994 0.0164426 0.0210826 -0.130076 -0.00290858 -0.045357 -0.0322443 0.0359342 0.0130263 0.0086641 0.0108432 0.0351469 0.0346059 -0.00658015 -0.00922788 0.00995678 -0.00064328 0.0308108 -0.0203508
internal_weight=0 11855.3 8916.83 4599.96 4316.86 2514.17 2175.34 2825.97 2938.49 1856.75 2085.79 1393.77 345.237 1349.45 39.083 20.8479 1988.83 2625.63 657.425 425.647 927.833 1131.27 306.154 148.965 949.66 939.285 781.567 914.741 352.359 562.382
internal_count=87577 67626 48315 25013 23302 12915 19951 15715 19311 9488 12098 14997 2913 7547 335 195 13206 14695 3427 2188 4684 5939 2578 876 6105 6052 4954 4898 2061 2837
is_linear=0
shrinkage=0.1


Tree=25
num_leaves=31
num_cat=0
split_feature=10 11 17 18 3 6 16 18 8 16 13 18 3 7 1 0 9 15 1 13 1 0 0 0 1 1 0 17 8 0
split_gain=378.426 243.234 184.251 181.106 153.824 121.776 118.556 114.748 110.331 94.4835 89.8081 85.0296 80.5266 85.7883 79.0642 116.015 77.2603 71.0921 70.4744 71.294 63.7875 84.7784 62.4023 62.3656 69.4094 58.1586 68.8461 57.5907 59.735 57.2165
threshold=0.26106307309767401 0.92041326121179201 3.0470195445529709 2.7921877441623626 0.11436938908566914 2.2458156083759069 3.1305777058005337 0.92993122265771944 0.46479741866413621 3.0635572906122004 399.54031041355455 3.0700670798593248 1.0687591685673195 0.11424890533089639 1.0603596146464611 189.77619502215427 0.98829600716918242 0.41236743139066062 0.97655603992604367 174.75108382918947 0.92854940856443435 239.33660888671878 153.43400700346476 228.613911538206 0.79668653284698088 0.75028997659683239 309.10183715820318 2.9543181757621446 0.17054025032195391 299.16693115234381
decision_type=2 2 2 2 2 2 2 2 2 2 2 2 2 2 2 2 2 2 2 2 2 2 2 2 2 2 2 2 2 2
left_child=1 2 3 4 -1 9 7 -6 -9 10 16 23 13 -10 15 -15 27 -7 -3 -20 21 -17 -16 -5 29 26 -23 28 -2 -25
right_child=5 18 -4 11 6 17 -8 8 12 -11 -12 -13 -14 14 22 20 -18 -19 19 -21 -22 25 -24 24 -26 -27 -28 -29 -30 -31
leaf_value=0.031441289616831784 0.097166473944145459 0.072607368584735751 0.0450153856794763 0.018402221317075609 0.014019298799866584 0.038587488782007844 0.043916302380728078 -0.0084159312244126202 0.043514096801624769 0.076620451746681167 -0.17851837992963324 0.058670720820799729 0.0095220422885357748 0.0050278292097551656 -0.0018864410133481635 -0.0038443710948332537 0.084774090094604376 -0.043267260804055463 0.03516312475175578 -0.058461045963148932 -0.075759076056222077 0.0052532456347492542 -0.065401642189210504 0.035278900967099874 -0.069588747981014776 -0.087030982640192669 -0.06650865654224572 0.08696737416494188 0.0052959167547498125 -0.026546907117750863
leaf_weight=502.43138657510281 77.472924068570137 408.50468264520168 541.29804265871644 1064.6908850409091 591.87537601590157 174.68312022835016 236.1745906509459 1516.8487718328834 112.78402167186141 689.88770508021116 20.192409984767437 313.32486166805029 316.50912718102336 606.15681787580252 169.35752517729998 556.12547727674246 242.52181732282043 270.26869033277035 424.49739421159029 100.61262027174234 502.64999041706324 246.66477607190609 1785.3222212083638 249.40446578338742 199.51590912789106 328.46105765923858 291.88304323330522 120.15321982651949 818.55761950090528 374.37796745449305
leaf_count=2719 556 2758 3078 5999 3676 947 1400 8376 641 7171 104 1922 1847 3660 1034 3466 3227 1465 2499 524 3216 1446 11728 1467 1106 2045 1767 835 4750 2148
internal_value=0 -0.00745753 -0.0118044 -0.014891 -0.0220699 0.0361155 -0.0257727 -0.0281157 -0.0319926 0.0467936 0.0307038 0.0104264 -0.0392673 -0.0426248 -0.0447901 -0.0331263 0.0340602 -0.011132 0.0414573 0.0172245 -0.0451356 -0.0343195 -0.0598986 0.0024199 -0.0182485 -0.0538671 -0.0336404 0.0219568 0.0132393 -0.00182734
internal_weight=0 11439.5 10505.9 9964.56 7763.24 2413.74 7260.81 7024.64 6432.76 1968.79 1278.9 2201.31 4915.91 4599.4 4486.62 2531.94 1258.71 444.952 933.615 525.11 1925.78 1423.13 1954.68 1887.99 823.298 867.009 538.548 1016.18 896.031 623.782
internal_count=87577 68522 62741 59663 47021 19055 44302 42902 39226 16643 9472 12642 30850 29003 28362 15600 9368 2412 5781 3023 11940 8724 12762 10720 4721 5258 3213 6141 5306 3615
is_linear=0
shrinkage=0.1


Tree=26
num_leaves=31
num_cat=0
split_feature=9 11 4 16 4 9 3 13 12 8 17 10 15 3 13 10 12 2 5 7 8 11 1 0 1 0 14 18 12 10
split_gain=345.585 210.779 178.097 146.78 170.754 126.494 117.65 113.515 118.459 95.0209 90.1754 87.9985 87.659 86.3312 118.852 75.5865 74.6169 72.0764 77.2931 64.23 60.8299 57.1468 60.1535 70.4694 82.5976 61.9305 56.6508 56.557 56.1255 54.1476
threshold=0.45021642477808516 0.87351041036174715 159.08228463008422 3.0817988640865193 90.257975186496694 0.20972335904661429 0.84960107316348443 33.557844572512202 0.90577138827350601 0.079994201660156264 3.1062288284301762 0.11096438741549676 0.7654974988854214 0.25593042373657232 399.54031041355455 0.72763448003274456 0.63037337940807781 0.88554835111228092 301.77252940883199 0.084672363112493945 0.31503897640533596 0.47972238360085517 0.76229539153988546 230.34878683932445 1.0514747297477838 153.13051825041251 116.02329807936827 1.0889875085432223 0.16985894587185132 0.34767585870503753
decision_type=2 2 2 2 2 2 2 2 2 2 2 2 2 2 2 2 2 2 2 2 2 2 2 2 2 2 2 2 2 2
left_child=5 2 3 6 -5 -1 9 -7 10 -2 16 -3 27 14 -11 21 -9 -13 -19 -18 -21 -15 26 24 -24 -26 -23 -4 -8 -6
right_child=1 11 12 4 29 7 28 8 -10 13 -12 17 -14 15 -16 -17 19 18 -20 20 -22 22 23 -25 25 -27 -28 -29 -30 -31
leaf_value=0.054203554428679114 0.088026964604277003 0.017217892653683748 0.1092510338624849 -0.047881764916968855 0.042990002972629726 -0.053511825323764521 -0.15481919472265371 0.016987487095074156 0.040128069350031777 0.027897751003256328 0.10940317464019307 0.07946941181023251 -0.056021923783683293 0.038441435058819334 -0.21341679870228486 0.060266042360902917 0.082664814244843413 0.031872624515258095 -0.22201576860864677 0.0013966196133088408 -0.03396049198240144 -0.019173513086950627 -0.00071549764862973971 -0.08058284731008368 0.052412956211750399 -0.058944992368077834 0.061988067113962743 -0.0095436665137318428 0.03748477915864129 0.096642282839252136
leaf_weight=227.17841306328773 101.07861999794841 722.1492011770606 48.389459259808064 193.85313594341278 998.96888637170196 941.92910838872194 15.447543352842329 441.96032872796059 354.82204025238752 666.34722216799855 53.07431598752737 737.60555185750127 643.74183156341314 137.14573238790035 21.054758220911026 111.82132297381759 53.061494991183281 285.89069350063801 12.515946533530949 581.78829881548882 2973.7208360210061 269.22352058812976 634.57303106784821 299.0846542827785 54.081106577068567 652.46086414903402 126.36896778643131 233.29141582548618 866.28522580489516 231.7432261928916
leaf_count=1308 729 4533 267 1075 6730 6373 98 2496 1929 4059 265 6778 4051 779 102 1124 259 2218 81 2938 18320 1496 3648 1678 314 3713 844 1369 5152 2851
internal_value=0 0.0133965 0.00485866 0.0118295 0.0393522 -0.0188942 0.00191591 -0.0219693 -0.0153053 -0.00732243 -0.0200984 0.0440143 -0.0356632 -0.0105651 0.0205064 -0.0199134 -0.0217953 0.0626927 0.0212239 -0.0265452 -0.028175 -0.0240395 -0.0282487 -0.0366906 -0.0269021 -0.0504213 0.00675293 0.0108639 0.0341157 0.0530927
internal_weight=0 8063.12 6304.96 5379.54 1424.57 5627.53 3954.97 5400.36 4458.43 3073.24 4103.61 1758.16 925.423 2972.16 687.402 2284.76 4050.53 1036.01 298.407 3608.57 3555.51 2172.94 2035.79 1640.2 1341.12 706.542 395.592 281.681 881.733 1230.71
internal_count=87577 53689 40079 34392 10656 33888 23736 32580 26207 18486 24278 13610 5687 17757 4161 13596 24013 9077 2299 21517 21258 12472 11693 9353 7675 4027 2340 1636 5250 9581
is_linear=0
shrinkage=0.1


Tree=27
num_leaves=31
num_cat=0
split_feature=9 10 12 11 16 13 14 8 5 1 6 18 4 17 11 11 3 18 3 17 1 16 4 15 1 18 6 2 8 4
split_gain=297.148 226.425 183.046 161.264 133.107 115.755 131.284 108.443 108.344 97.9022 84.2147 83.0941 84.7075 80.2258 77.9749 76.568 70.58 67.8907 67.518 66.4026 65.8466 65.2941 65.0026 96.0244 63.9115 61.7497 61.3954 60.4491 56.4674 55.883
threshold=0.99268254489027019 0.11538625490745648 0.8588555184803609 0.79138730256523104 3.1338025371180938 39.665012533502519 87.493681241962804 0.2340514576811564 209.99871366840236 0.97919834656365012 1.408716392017386 1.6935483623328729 105.46163558959962 2.9050947211672606 0.43003966737584726 0.47582273003003211 0.89428946986464919 2.545278594558015 0.13108387732467561 2.8296184949483858 0.49514350673277513 3.1002134553808744 110.15286082398696 0.8708377061583118 0.73760539293289196 3.0567461570077623 1.2675296068191531 0.066503544566742595 0.095744300919817935 100.72561000688971
decision_type=2 2 2 2 2 2 2 2 2 2 2 2 2 2 2 2 2 2 2 2 2 2 2 2 2 2 2 2 2 2
left_child=1 4 3 7 5 -1 8 29 9 11 22 -7 -13 18 -9 -11 -14 19 -5 26 -10 -16 23 -8 -12 28 -4 -17 -20 -3
right_child=-2 2 17 13 -6 6 10 14 20 15 24 12 16 -15 21 27 -18 -19 25 -21 -22 -23 -24 -25 -26 -27 -28 -29 -30 -31
leaf_value=-0.048214478165601121 0.057480328083336953 -0.01399656493648176 -0.046556251587545089 0.08607093571691414 0.06491791474192031 0.068996569934171956 0.077084722038621656 0.098133287863146221 0.077899559272297483 0.10151454600958805 0.22467168424297751 0.050487217921474176 -0.040880823894842683 0.070194118361708982 -0.027023007450732817 0.12859764149480668 0.17896699715211803 0.071281616054222799 0.11443061996753262 0.078172558697318567 -0.056378023245689517 0.018173896943440827 0.046327757750551285 -0.038929566468088393 -0.031316279275668484 0.10751808409572434 0.029792296313276463 -0.029672538263555606 0.00090258329197648909 0.071315062048133898
leaf_weight=1132.9291099086404 846.54032946005464 118.21050012111664 158.44291991740465 124.34197467193007 193.58756468445063 222.83050962537527 98.934176161885262 56.089898459613323 37.978505164384842 47.031388178467751 9.9920306727290136 191.73640514910221 348.22893966734409 324.26139784231782 2385.4579299800098 24.445297636091709 15.242000184953211 545.22913505882025 45.339805010706186 163.25511643663049 950.691580966115 369.09269543737173 672.50157704204321 255.83115207403898 407.76787876337767 61.097817417234182 314.17562393471599 1882.2386745810509 1300.0137093402445 219.09240702539682
leaf_count=7631 10523 609 924 829 1146 1280 518 332 199 237 53 1021 2011 2155 14045 114 78 3848 314 1172 5653 2546 3850 1356 2607 482 1849 11091 7662 1442
internal_value=0 -0.0037125 0.00998117 0.00162186 -0.0167568 -0.0192671 -0.0129182 -0.0121603 -0.0228538 -0.0125876 0.0126624 0.0174114 -0.00329216 0.0250096 -0.0185901 -0.0245342 -0.0316616 0.0453901 0.0154384 0.0231895 -0.0512199 -0.0209669 0.0280574 -0.00657641 -0.0251935 0.00919389 0.00419684 -0.0276434 0.0047286 0.0414169
internal_weight=0 12676.1 6184.1 5003 6491.97 6298.38 5165.45 3147.94 3720.42 2731.75 1445.03 778.038 555.207 1855.05 2810.64 1953.72 363.471 1181.1 1530.79 635.874 988.67 2754.55 1027.27 354.765 417.76 1406.45 472.619 1906.68 1345.35 337.303
internal_count=87577 77054 38209 30416 38845 37699 30068 18974 21684 15832 8384 4390 3110 11442 16923 11442 2089 7793 9287 3945 5852 16591 5724 1874 2660 8458 2773 11205 7976 2051
is_linear=0
shrinkage=0.1


Tree=28
num_leaves=31
num_cat=0
split_feature=9 17 18 3 2 9 8 0 13 12 11 11 14 14 7 1 18 16 10 13 12 0 14 8 13 6 12 14 13 6
split_gain=262.547 183.508 180.853 134.662 171.238 106.585 98.6642 95.5648 94.4294 97.7009 83.054 76.7272 74.3071 73.0599 65.3019 64.1293 63.8168 60.9321 68.197 60.2627 65.1222 55.717 53.0007 51.8646 54.4385 51.7954 51.1211 50.1609 49.5772 52.4394
threshold=0.44634509020832153 2.9736790680262835 2.9826619355896304 0.19128617918733679 0.26289795477005656 0.20606308762743966 0.079994201660156264 152.84372810723244 48.06300999517115 0.88471157535548717 0.92041326121179201 0.47582273003003211 116.02329807936827 37.592114042515625 0.054753145439965172 0.86508700251579296 0.57452349826823501 3.0514223466534651 0.36739868529087283 171.13639548557146 0.63037337940807781 195.70904974331708 354.78138350442924 2.4694399003434095 201.44385904456956 0.76063826680183422 0.8543954664104082 246.40363680107424 42.025032305409781 0.81651734309041768
decision_type=2 2 2 2 2 2 2 2 2 2 2 2 2 2 2 2 2 2 2 2 2 2 2 2 2 2 2 2 2 2
left_child=5 2 3 13 23 -1 -6 -8 -7 12 11 -9 19 21 -13 -12 -16 -18 26 20 -10 -2 -4 24 -5 -24 -19 -14 -28 -30
right_child=1 -3 22 4 6 8 7 10 9 -11 15 14 27 -15 16 -17 17 18 -20 -21 -22 -23 25 -25 -26 -27 28 -29 29 -31
