tree
version=v4
num_class=1
num_tree_per_iteration=1
label_index=0
max_feature_idx=18
objective=binary sigmoid:1
feature_names=events_deltaPhi_jet1_MET events_deltaPhi_b1_MET events_deltaPhi_b2_MET events_dibjet_m events_dibjet_pt events_dibjet_dr events_dibjet_deltaPhi events_dibjet_deltaEta events_dibjet_pt_max events_dibjet_pt_min events_dibjet_mass_max events_dibjet_mass_min events_dibjet_BvsL_max events_dibjet_BvsL_min events_VHbb_pt_ratio events_VHbb_deltaPhi events_JetGood_Ht events_Z_pt events_Z_eta
feature_infos=[0.00048828125:3.1415837446795862] [0.001953125:3.1415837446795862] [0.00048828125:3.1415837446795862] [90.0006103515625:249.99519348144531] [150.00070190429688:899.107177734375] [0.39028680324554443:3.4960556030273438] [0:3.1412353515625] [0:2.66748046875] [35.001918792724609:677.7630615234375] [35.001117706298828:858.497802734375] [5.0005278587341309:29.999706268310547] [5.000063419342041:29.999309539794922] [0.673828125:0.99951171875] [0.2451171875:0.99951171875] [0.50003931765182097:1.9996990030170521] [2.2000029722796839:3.1415913740741175] [150.01719665527344:1233.9962158203125] [180.00131225585938:981.65789794921875] none
tree_sizes=956 993 994 993 992 999 994 995 1003 1001 999 1003 999 1003 1006 1006 1002 1007 1008 1005 1005 1008 1006 1010 1011 1005 1007 1008 1002 1007 1016 1009 1009 1002 1008 1013 1009 1002 1013 1007 1007 1007 983 1003 1003 1003 1009 1006 1011 1008 1003 985 1008 988 989 989 1011 978 1006 982 988 1012 979 998 1011 987 978 1007 968 1005 1013 984 1008 1002 993 1007 1006 981 996 1005 994 1007 1011 1008 1006 1012 1008 1005 1011 1007 988 986 1009 988 1012 983 1015 993 1002 997 1007 998 980 1014 1014 995 1000 1004 982 1017 1004 993 987 963 1015 1004 1006 1021 973 1006 972 1012 1014 1000 1008 1006 1012 992 1008 1009 1011 1022 993 982 993 1006 1015 985 1016 970 1017 1016 1013 1004 1011 1008 991 992 1011 1015 996 994 1005 1003 1021 1006 1010 1017 985 988 1015 989 1015 998 1011 997 960 1022 1005 1007 1005 1007 995 1017 1012 984 1007 1012 1013 975 1014 1001 1004 1012 1011 1013 1006 1014 1013 1008 1016 973 1002 1016 1006 995 972 975 982 957 1012 1015 975 1017 1004 982 1002 1005 1007 1011 999 1022 1008 1009 1015 1011 1016 1003 1010 970 998 1019 1005 1018 962 1018 977 993 1010 1005 1018 1017 986 981 1011 984 987 1019 1007 990 1000 1008 992 1017 1009 981 980 1018 1009 986 1020 1018 1014 1011 1006 1018 1009 1015 1012 1014 1017 1020 1007 978 1022 1009 1019 976 1006 1006 954 1019 1002 980 981 994 1006 1022 1012 996 991 987 1006 1011 988 1005 1004 995 1011 984 1018 1008 1011 1004 1009 998 984 992 1005 1016 992 1001 1010 1010 985 991 981 1006 1007 985 1010 1016 1015 1009 1018 1020 1010 1017 1013 1012 1010 1005 1013 983 1014 989 1016 987 1006 1007 986 976 971 997 1012 1008 1013 984 984 986 979 1013 1002 1018 983 982 969 991 1016 981 1016 1002 976 956 981 1022 1007 991 1002 1017 976 1020 1008 987 1006 1008 998 964 1010 985 997 1022 1014 1008 955 1017 988 1021 1020 1015 1016 1012 1014 1001 1016 943 976 988 1025 1004 986 1018 1018 992 981 990 1013 993 1017 999 991 960 1015 1018 1012 991 1002 1011 991 1010 994 1016 974 1008 1014 1010 999 980 1015 988 1015 991 1002 1007 1019 1015 1019 988 1013 1002 1002 1016 972 1011 993 969 1017 999 1013 1014 1009 1012 1005 1013 1003 1013 991 1015 1022 978 1010 1014 1015 1002 1005 987 958 1005 1007 1001 989 1011 1012 993 1020 1011 1016 1011 1001 1004 1009 996 1008 1020 1010 1019 998 998 999 1017 975 984 1014 992 1019 995 1010 1021 1013 1016 989 1023 989 1008 1010 996 991 1016 1014 1014 993 966 992 1014 1009 1011 990 1023 1016 1012 1026 1013 976 986 996 1016 1008 1006 1015 1016 999 1014 1010 1004 1017 1014 999 1000 1011 1008 983 1020 998 1013 1016 976 1014 996 994 988 1002 977 967 993 968 1005 1012 1004 994 996 975 979 1012 992 1000 1012 986 1002 1013 1015 982 996 990 967 1019 1003 1001 1018 1000 980 1007 1015 1009 1013 1005 1003 988 1014 1005 980 1015 1009 1010 995 1020 1013 1020 989 979 986 999 989 1011 1013 1012 1011 959 970 1008 1019 1023 989 1017 1017 1016 1020 1000 1016 1016 1017 984 1012 984 959 1010 983 984 956 1018 1023 1000 988 994 984 981 1019 1015 973 1017 987 1020 986 1011 1014 1019 992 1002 1007 984 1014 963 1004 1010 985 1015 1013 1004 1013 1002 964 990 988 1015 1024 1012 1005 976 971 1007 967 994 999 988 968 992 1018 1019 1020 992 972 1018 1002 1006 1015 1027 1020 986 1015 1009 996 999 1020 1025 995 1016 1018 1013 1002 1014 1015 992 998 1007 994 1006 1007 981 989 972 989 1014 1001 1024 995 956 1004 1014 1007 987 984 972 993 1021 1014 1001 1013 1000 1008 1018 1016 1008 1023 1026 1011 1019 959 1014 963 1014 1011 1013 1019 1019 997 960 1014 1008 1015 1008 1013 1006 1018 988 1017 1004 979 1019 1017 1019 1019 1009 1017 1016 1018 1022 1017 1024 1000 1009 1008 1000 1013 994 978 1018 1013 994 980 1010 985 1022 1018 1016 1016 1023 1015 1014 1006 997 1013 980 995 1019 1009 968 996 999 1013 1011 1010 1017 989 1017 1010 994 1016 1013 1016 1001 1007 1013 974 982 1005 1015 1001 1004 1013 1025 1010 987 1010 1017 1012 1017 1019 1021 1003 980 994 980 996 1021 1008 988 961 1013 1015 1020 1001 985 985 982 986 993 1015 1016 1008 1020 1002 982 1004 1008 974 999 995 1020 990 1022 1008 998 1004 1006 1002 1006 1007 986 991 1010 1013 1002 981 1022 1018 983 969 1021 1015 998 981 1019 1015 1016 1010 996 1006 1021 1016 1020 1013 1011 1004 1019 1015 1020 1025 1019 1020 1022 995 1009 1007 986 1018 1016 1013 1015 1020 1019 998 984 1012 1013 1019 1006 999 1003 992 995 980 1016 1003 989 1005 997 1021 1002 1009 1014 1011 1002 1019 1016 1012 1001 980 1017 981 1023 985 997 1008 1011 995 996 1017 1013 1010 1018 1017 1019 988 988 982 1007 980 975 1011 1009 1000 1007 1022 999 1010 1001 1010 1012 1019 987 1006 1004 1010 1009 1021 1014 1017 978 1014 1015 1005 985 1011 993 1012 1024 999 1003 996 999 1009 1020 1011 1006 994 995 1015 1002 992 988 1016 1014 1019 999 1001 1020 1003 1015 1021 993 1015 998 1011 1019 1014 991 1019 1013 991 1006 1001 1011 1013 1015 1019 1011 1009 1012 1008 1005 1017 998 1017 1015 991 963 993 987 995 1006 1010 1009 1022 1006 991 1013 1008 986 1014 1007 1006 1018 1005 1019 995 1012 960 989 1016 992 1017 1004 1002 991 1018 1012 1016 1016 992 993 976 1013 986 979 1016 1005 984 1016 994 1019 1012 985 993 1016 1006 1005 1011 1019 1013 1002 1020 1003 1006 1015 1025 989 1014 1000 1016 1017 1006 1005 968 969 1022 1009 1024 1008 1025 1022 1017 1017 1014 1016 1010 1011 969 968 944 1017 975 1013 1004 978 990 997 987 1019 1021 1010 1024 1020 1023 1018 1005 972 1007 980 994 1017 1018 993 995 1015 1009 990 1017 1015 981 1004 1020 1006 982 1019 989 1022 1017 979 1025 1008 1016 1014 999 1008 1025 993 1016 1021 1009 1020 989 1018 1008 1010 1001 996 1018 1007 991 1011 969 1003 972 991 1016 1017 1018 1012 1013 998 995 987 1019 1012 1020 1009 1021 1007 1013 974 1004 1011 982 1011 1002 1003 1020 996 1011 1014 1014

Tree=0
num_leaves=8
num_cat=0
split_feature=5 5 5 4 4 13 5
split_gain=86664.8 5897.78 5662.13 3539.28 1808.36 1585.47 310.227
threshold=1.5823785662651064 1.3262037038803103 1.8119308948516848 225.42547607421878 200.62195587158206 0.59741210937500011 2.0248306989669804
decision_type=2 2 2 2 2 2 2
left_child=1 5 4 -3 -2 -1 -4
right_child=2 3 6 -5 -6 -7 -8
leaf_value=1.8371555685649135 1.6493942201015532 1.806733383097638 1.416758794246374 1.611058978866672 1.4596288175425141 1.8831169344134888 1.3358524955790421
leaf_weight=5421.7631156891584 759.8914258480072 3381.8278837054968 682.13175538182259 635.47595310211182 495.50854626297951 22651.392006799579 1252.5288458168507
leaf_count=45321 6352 28269 5702 5312 4142 189345 10470
internal_value=1.82418 1.86188 1.44544 1.77554 1.57334 1.87425 1.3633
internal_weight=0 32090.5 3190.06 4017.3 1255.4 28073.2 1934.66
internal_count=294913 268247 26666 33581 10494 234666 16172
is_linear=0
shrinkage=1


Tree=1
num_leaves=8
num_cat=0
split_feature=3 3 5 3 12 5 11
split_gain=78971.2 2755.55 2689.3 921.193 915.761 614.296 130.017
threshold=152.73896026611331 164.0781173706055 1.4212098717689516 139.5671081542969 0.93041992187500011 1.4056752920150759 19.461236000061039
decision_type=2 2 2 2 2 2 2
left_child=2 5 4 -4 -1 -2 -3
right_child=1 6 3 -5 -6 -7 -8
leaf_value=0.0035716596479989965 -0.095917235027212014 -0.32644316803387607 -0.001064642478090007 -0.10546627014106928 0.055665546648303345 -0.22561357523096975 -0.28268829610984225
leaf_weight=2129.6986422389746 415.53932989388704 2970.1635355502367 1536.8323049247265 720.57721658051014 26212.070163801312 471.94889226555824 888.72616551071405
leaf_count=18198 3537 19586 12231 5419 226501 3396 6045
internal_value=0 -0.288755 0.0453766 -0.034614 0.0517589 -0.165869 -0.316747
internal_weight=0 4746.38 30599.2 2257.41 28341.8 887.488 3858.89
internal_count=294913 32564 262349 17650 244699 6933 25631
is_linear=0
shrinkage=0.0762481


Tree=2
num_leaves=8
num_cat=0
split_feature=3 5 3 13 3 5 3
split_gain=58029.3 2424.19 1577.13 1401.55 924.54 306.221 176.452
threshold=152.73896026611331 1.3599744439125063 161.57891845703128 0.59741210937500011 142.06424713134768 1.4968844652175906 172.91636657714847
decision_type=2 2 2 2 2 2 2
left_child=1 3 5 -1 -3 -2 -4
right_child=2 4 6 -5 -6 -7 -8
leaf_value=0.015799194075960515 -0.083106436858889868 0.0038466617052301953 -0.20136684044854805 0.060068426712786283 -0.092238807966519343 -0.17978826984620741 -0.24778632062209288
leaf_weight=5204.7501360028982 475.65888032317162 2654.4096482396126 750.6200437694788 20991.422990113497 740.11045886576176 346.69000013172626 4039.3036017864943
leaf_count=45339 3684 21463 4657 190198 5349 2124 22099
internal_value=0 0.0434272 -0.223903 0.0512842 -0.0171387 -0.124832 -0.240742
internal_weight=0 29590.7 5612.27 26196.2 3394.52 822.349 4789.92
internal_count=294913 262349 32564 235537 26812 5808 26756
is_linear=0
shrinkage=0.0762481


Tree=3
num_leaves=8
num_cat=0
split_feature=3 5 3 13 3 5 3
split_gain=45479.7 1882.4 1518.86 1131.68 713.207 358.655 127.263
threshold=150.38792419433597 1.2803534269332888 161.57891845703128 0.62133789062500011 138.48686218261722 1.226772725582123 169.90821838378909
decision_type=2 2 2 2 2 2 2
left_child=1 3 5 -1 -3 -2 -4
right_child=2 4 6 -5 -6 -7 -8
leaf_value=0.020140615036577072 -0.032718647901261354 0.016762456818498424 -0.16001981944402285 0.060909347647460123 -0.050092654485956796 -0.12736813339436734 -0.20218595712728127
leaf_weight=5089.8004521876574 335.44408436864614 3913.1032098457217 623.15147452056408 18140.734946444631 1211.034010887146 835.63146744668484 4745.4958495646715
leaf_count=45135 2728 33545 3502 172337 9081 5331 23254
internal_value=0 0.0427652 -0.180232 0.0519906 0.000895584 -0.100641 -0.197461
internal_weight=0 28354.7 6539.72 23230.5 5124.14 1171.08 5368.65
internal_count=294913 260098 34815 217472 42626 8059 26756
is_linear=0
shrinkage=0.0762481


Tree=4
num_leaves=8
num_cat=0
split_feature=3 13 3 9 3 11 3
split_gain=36735.3 1679.47 1334.56 619.287 527.695 230.495 168.145
threshold=149.34019470214847 0.54760742187500011 159.25215911865237 53.620309829711921 135.32742309570315 7.745478868484498 172.91636657714847
decision_type=2 2 2 2 2 2 2
left_child=1 4 5 -3 -1 -2 -4
right_child=2 3 6 -5 -6 -7 -8
leaf_value=0.010910546108149472 -0.16802915195874785 0.014195455181183737 -0.13768958837002213 0.054629314215395325 -0.060731872088098222 -0.064555762572881842 -0.1735362717176327
leaf_weight=4113.7493651732802 144.5132364705205 2493.5609912574291 1106.550145432353 19998.502638280392 694.78310845047235 1044.6451304331422 4883.9704712331295
leaf_count=36553 804 22369 5826 194272 5744 7246 22099
internal_value=0 0.041416 -0.152362 0.0501588 0.000473579 -0.0778601 -0.167052
internal_weight=0 27300.6 7179.68 22492.1 4808.53 1189.16 5990.52
internal_count=294913 258938 35975 216641 42297 8050 27925
is_linear=0
shrinkage=0.0762481


Tree=5
num_leaves=8
num_cat=0
split_feature=3 5 3 13 13 5 5
split_gain=30302.8 1542.27 1223.77 979.124 635.103 371.216 131.337
threshold=148.40740203857425 1.2847511768341067 161.57891845703128 0.59741210937500011 0.77856445312500011 1.5223569869995119 2.0829166173934941
decision_type=2 2 2 2 2 2 2
left_child=1 3 5 -1 -3 -2 -4
right_child=2 4 6 -5 -6 -7 -8
leaf_value=0.017449816146866828 -0.043574119440692401 -0.037188977276440459 -0.13825546181032736 0.057154302033177701 0.021200869586914112 -0.12076597855379333 -0.16376874855934576
leaf_weight=4612.6828261762857 1015.7777447998524 1667.5277844816446 3912.3899192512035 16958.646197989583 3069.6939576491714 577.57932586967945 2187.93826366961
leaf_count=41668 7393 13845 17648 175623 26628 3000 9108
internal_value=0 0.0400284 -0.131962 0.0486782 0.000591812 -0.0719289 -0.147548
internal_weight=0 26308.6 7693.69 21571.3 4737.22 1593.36 6100.33
internal_count=294913 257764 37149 217291 40473 10393 26756
is_linear=0
shrinkage=0.0762481


Tree=6
num_leaves=8
num_cat=0
split_feature=3 13 3 5 5 5 5
split_gain=25444.1 1376.87 1245.18 673.498 595.591 351.195 166.88
threshold=146.74691009521487 0.67944335937500011 159.25215911865237 1.2718649506568911 1.3067724704742434 1.5087079405784609 1.8889317512512209
decision_type=2 2 2 2 2 2 2
left_child=1 4 5 -3 -1 -2 -4
right_child=2 3 6 -5 -6 -7 -8
leaf_value=0.019954973456613033 -0.031291329022790866 0.057111142688282976 -0.11740305611452106 0.019921083915648449 -0.040349473855596944 -0.10433061540041606 -0.14326806011189791
leaf_weight=5695.0460709631443 1120.698380805552 14863.631438367069 3301.8419540375471 3525.5768425539136 1137.4262071847916 591.17156970500946 3231.683532834053
leaf_count=53629 8540 161239 14753 31481 9045 3054 13172
internal_value=0 0.0391381 -0.115118 0.0499979 0.00986862 -0.0568272 -0.130313
internal_weight=0 25221.7 8245.4 18389.2 6832.47 1711.87 6533.53
internal_count=294913 255394 39519 192720 62674 11594 27925
is_linear=0
shrinkage=0.0762481


Tree=7
num_leaves=8
num_cat=0
split_feature=3 3 5 3 5 5 5
split_gain=21545.1 1269.73 1031.1 801.139 506.953 418.486 90.9615
threshold=145.38067626953128 166.94132232666018 1.2165921330451968 99.470386505126967 1.1754341125488283 1.5087079405784609 2.0829166173934941
decision_type=2 2 2 2 2 2 2
left_child=2 4 3 -1 -2 -4 -3
right_child=1 6 5 -5 -6 -7 -8
leaf_value=-0.0031443809995629541 -0.0020896612362956497 -0.11345327851817839 0.019925309293439979 0.05248389402731779 -0.077651491581261931 -0.034015689119918986 -0.13485705750719232
leaf_weight=1650.133021093905 694.30148831009865 3698.4631813764572 5211.5058243051171 16346.257196098566 2071.8178272172809 989.62680120021105 2238.1190572828054
leaf_count=17763 5617 15451 50012 177850 11772 7476 8972
internal_value=0 -0.101729 0.0381321 0.0473731 -0.0587873 0.0112684 -0.121648
internal_weight=0 8702.7 24197.5 17996.4 2766.12 6201.13 5936.58
internal_count=294913 41812 253101 195613 17389 57488 24423
is_linear=0
shrinkage=0.0762481


Tree=8
num_leaves=8
num_cat=0
split_feature=3 13 3 5 12 13 5
split_gain=18331.7 1312.81 1116.15 635.931 413.295 352.135 142.261
threshold=145.38067626953128 0.53637695312500011 161.57891845703128 1.1844915747642519 0.93041992187500011 0.66235351562500011 1.7751877307891848
decision_type=2 2 2 2 2 2 2
left_child=1 4 5 -3 -1 -2 -4
right_child=2 3 6 -5 -6 -7 -8
leaf_value=-0.04756007411423973 -0.094419991992365115 0.054034587629939852 -0.094062833659179959 0.023621630041555663 0.010473977383874161 -0.027859549882957507 -0.1182229234623407
leaf_weight=896.32940265536308 645.59725702553988 13410.081913538277 2644.0159249007702 5746.4145815074444 3422.8163215890527 1670.3040456101298 3887.5319532454014
leaf_count=8023 3898 156470 11167 56841 31767 11158 15589
internal_value=0 0.0363687 -0.0923906 0.044929 -0.00156144 -0.0466396 -0.108541
internal_weight=0 23475.6 8847.45 19156.5 4319.15 2315.9 6531.55
internal_count=294913 253101 41812 213311 39790 15056 26756
is_linear=0
shrinkage=0.0762481


Tree=9
num_leaves=8
num_cat=0
split_feature=3 13 3 5 5 5 11
split_gain=15672.6 1249.52 1015.72 549.425 440.607 414.327 81.2547
threshold=145.38067626953128 0.77856445312500011 169.90821838378909 1.2680305838584902 1.2718649506568911 1.2100966572761538 25.091604232788089
decision_type=2 2 2 2 2 2 2
left_child=1 3 4 -1 -2 -3 -4
right_child=2 5 6 -5 -6 -7 -8
leaf_value=0.021057163639382395 -0.0088518229609282021 0.055876207785836719 -0.10641149908348677 -0.027115615404438811 -0.069460538485544135 0.026848987283506421 -0.070052693634051144
leaf_weight=6447.7952751070261 1044.6391570568085 10642.440642677248 5292.986966073513 1742.8510188087821 2149.3103723451495 3967.0945184081793 454.96827162802219
leaf_count=67672 7783 131254 21402 14482 10775 39693 1852
internal_value=0 0.0346515 -0.0844297 0.0107745 -0.0497361 0.0480175 -0.103622
internal_weight=0 22800.2 8941.9 8190.65 3193.95 14609.5 5747.96
internal_count=294913 253101 41812 82154 18558 170947 23254
is_linear=0
shrinkage=0.0762481


Tree=10
num_leaves=8
num_cat=0
split_feature=3 13 3 5 5 5 5
split_gain=13450.3 1168.13 791.371 496.31 461.456 338.197 119.918
threshold=146.74691009521487 0.74780273437500011 166.94132232666018 1.1844915747642519 1.3984867334365847 1.5223569869995119 2.0829166173934941
decision_type=2 2 2 2 2 2 2
left_child=1 4 5 -3 -1 -2 -4
right_child=2 3 6 -5 -6 -7 -8
leaf_value=0.014585659728498087 -0.023148705120776887 0.054266065360801287 -0.08600716745883516 0.024043160387499603 -0.045782186071790049 -0.079017879697756449 -0.10950164272447663
leaf_weight=6839.2745349034667 1661.2458150461316 10146.307151608169 3817.6503843665123 4641.6185499578714 819.56115913391113 1030.1294059306383 2203.3107367604971
leaf_count=70419 10561 130897 15451 48083 5995 4535 8972
internal_value=0 0.0322848 -0.079312 0.0448025 0.00807847 -0.044697 -0.0947096
internal_weight=0 22446.8 8712.34 14787.9 7658.84 2691.38 6020.96
internal_count=294913 255394 39519 178980 76414 15096 24423
is_linear=0
shrinkage=0.0762481


Tree=11
num_leaves=8
num_cat=0
split_feature=3 13 3 3 13 5 5
split_gain=11641.2 1051.5 918.932 533.899 255.446 237.667 219.195
threshold=144.15107727050784 0.46716308593750006 157.36638641357425 99.021148681640639 0.66235351562500011 1.1037174463272097 1.7751877307891848
decision_type=2 2 2 2 2 2 2
left_child=1 5 4 -3 -2 -1 -4
right_child=2 3 6 -5 -6 -7 -8
leaf_value=0.01023249757777359 -0.068486333273160338 -0.0095182991293975353 -0.068527768692018542 0.042752693410833299 -0.01098381757995006 -0.030914465950265917 -0.09629617679010738
leaf_weight=1886.5180072784424 629.36462038010359 1210.4636795073748 3119.7527106255293 16822.892456181347 1587.6398162543774 1426.6929611116648 3893.4685320407152
leaf_count=18540 3787 14888 13136 204890 11236 12467 15969
internal_value=0 0.0319782 -0.0704846 0.0392321 -0.0274962 -0.0074457 -0.0840213
internal_weight=0 21346.6 9230.23 18033.4 2217 3313.21 7013.22
internal_count=294913 250785 44128 219778 15023 31007 29105
is_linear=0
shrinkage=0.0762481


Tree=12
num_leaves=8
num_cat=0
split_feature=3 3 12 9 5 3 5
split_gain=10040.3 884.864 877.046 643.627 376.224 149.921 101.923
threshold=143.56496429443362 169.90821838378909 0.90991210937500011 59.122688293457038 1.6199931502342226 131.69119262695315 2.0829166173934941
decision_type=2 2 2 2 2 2 2
left_child=2 4 5 -4 -2 -1 -3
right_child=1 6 3 -5 -6 -7 -8
leaf_value=-0.014524514589011611 -0.020938049006503173 -0.075230358748386392 0.0030597628943539517 0.04112520875166268 -0.076640882829131229 -0.079581435965975833 -0.09750153726502607
leaf_weight=1240.2054097801447 2742.0212683081627 3542.1564808636904 3089.3772751539946 16105.297621317208 955.07680469751358 246.67240995913744 2099.3483866751194
leaf_count=12733 17918 14376 32877 201710 4126 2295 8878
internal_value=0 -0.0645974 0.030636 0.0350106 -0.0354529 -0.025647 -0.0836209
internal_weight=0 9338.6 20681.6 19194.7 3697.1 1486.88 5641.5
internal_count=294913 45298 249615 234587 22044 15028 23254
is_linear=0
shrinkage=0.0762481


Tree=13
num_leaves=8
num_cat=0
split_feature=3 5 3 5 3 3 10
split_gain=8698.56 1052.22 678.107 427.543 199.815 195.918 44.9647
threshold=150.38792419433597 1.4558436870574953 103.97624588012697 1.7427148818969729 172.91636657714847 133.19020080566409 9.2825450897216815
decision_type=2 2 2 2 2 2 2
left_child=1 2 -1 4 -2 -3 -5
right_child=3 5 -4 6 -6 -7 -8
leaf_value=-0.004791061004652623 -0.032676959348191502 -0.00039529113632173968 0.036718788308087023 -0.097588744004176678 -0.067848952600095935 -0.052494658943578194 -0.078279478032928521
leaf_weight=2630.124551743269 2124.2920893728733 732.8344564884901 17138.437234260142 1248.8539050668478 1752.1771702170372 1001.5123823955655 2845.9423067271709
leaf_count=32576 10421 6313 214475 5282 7066 6734 12046
internal_value=0 0.0261853 0.0311866 -0.0670457 -0.0486825 -0.0306464 -0.0843129
internal_weight=0 21502.9 19768.6 7971.27 3876.47 1734.35 4094.8
internal_count=294913 260098 247051 34815 17487 13047 17328
is_linear=0
shrinkage=0.0762481


Tree=14
num_leaves=8
num_cat=0
split_feature=3 13 5 3 12 7 5
split_gain=7618.87 961.513 805.625 390.97 381.345 329.977 84.1881
threshold=142.06424713134768 0.77856445312500011 1.6393174529075625 99.021148681640639 0.90991210937500011 0.92164611816406261 2.0829166173934941
decision_type=2 2 2 2 2 2 2
left_child=1 4 5 -3 -1 -2 -4
right_child=2 3 6 -5 -6 -7 -8
leaf_value=-0.030689738837994328 -0.015055586554485693 -0.0081595944839989425 -0.067110641087111567 0.0454511339652834 0.014713886301266309 -0.056746242457826571 -0.088335843968443573
leaf_weight=1301.1833160296082 2777.5893217101693 843.31833220273256 2835.2998089641333 11181.414244741201 6061.2919497564435 1851.5138880982995 2095.6382504403591
leaf_count=12819 17625 10972 11973 155163 67167 9907 9287
internal_value=0 0.0283877 -0.0547706 0.0416739 0.00665031 -0.0318096 -0.0762402
internal_weight=0 19387.2 9560.04 12024.7 7362.48 4629.1 4930.94
internal_count=294913 246121 48792 166135 79986 27532 21260
is_linear=0
shrinkage=0.0762481


Tree=15
num_leaves=8
num_cat=0
split_feature=3 5 3 13 5 11 5
split_gain=6588.83 1104.72 736.363 472.703 297.432 181.933 32.6647
threshold=152.73896026611331 1.1723554134368899 104.93628311157228 0.44982910156250006 1.8119308948516848 16.783696174621586 2.0829166173934941
decision_type=2 2 2 2 2 2 2
left_child=1 2 -1 -3 5 -2 -6
right_child=4 3 -4 -5 6 -7 -8
leaf_value=-0.0011516223234041452 -0.059093768538975057 -0.044725204497639351 0.044444578758484586 0.0076420466664517865 -0.067106721024758481 -0.02507161850965994 -0.084157749001993506
leaf_weight=2528.2706954777241 2472.3964195996523 1183.408199608326 10900.635662958026 6404.2263561040163 1441.2402867525816 1503.0919038504362 2022.4636583775282
leaf_count=32106 10644 9493 152226 68524 6164 6527 9229
internal_value=0 0.0227113 0.0358484 -0.000521427 -0.0607656 -0.0463199 -0.0772114
internal_weight=0 21016.5 13428.9 7587.63 7439.19 3975.49 3463.7
internal_count=294913 262349 184332 78017 32564 17171 15393
is_linear=0
shrinkage=0.0762481


Tree=16
num_leaves=8
num_cat=0
split_feature=3 12 3 5 10 5 5
split_gain=5826.23 703.517 681.393 511.961 342.55 146.308 94.5966
threshold=142.06424713134768 0.93969726562500011 169.90821838378909 1.1723554134368899 8.5277500152587908 0.98948359489440929 2.0829166173934941
decision_type=2 2 2 2 2 2 2
left_child=1 5 4 -3 -2 -1 -4
right_child=2 3 6 -5 -6 -7 -8
leaf_value=0.0076789461349342086 -0.080906754249225096 0.040208830358405674 -0.058142470460250686 0.011730612839388914 -0.015940103849174134 -0.034549408967750751 -0.080257430282412265
leaf_weight=789.94462630525231 542.77526262402534 11068.128353852779 3420.9403321146965 5528.9832052215934 3579.952029235661 1171.1246040798724 1878.362773001194
leaf_count=9005 2775 162354 14376 62975 22763 11787 8878
internal_value=0 0.0256322 -0.0479753 0.030739 -0.0246161 -0.0174632 -0.0660769
internal_weight=0 18558.2 9422.03 16597.1 4122.73 1961.07 5299.3
internal_count=294913 246121 48792 225329 25538 20792 23254
is_linear=0
shrinkage=0.0762481


Tree=17
num_leaves=8
num_cat=0
split_feature=5 13 7 5 5 7 13
split_gain=4895.69 1022.28 520.156 366.309 279.716 96.6028 68.0518
threshold=1.4860062599182131 0.77856445312500011 0.96510314941406261 1.0303736329078677 1.7427148818969729 1.1981506347656252 0.59741210937500011
decision_type=2 2 2 2 2 2 2
left_child=1 3 -3 -1 5 -2 -6
right_child=4 2 -4 -5 6 -7 -8
leaf_value=0.016655289344152686 -0.025909080411975479 0.040323459922134403 0.00094279104824629542 -0.016342083620268743 -0.050866006665769514 -0.055237141653059513 -0.074449408605100936
leaf_weight=3445.6941589862108 1858.3879198431969 10257.956994503736 2419.945362534374 4508.1340215578675 1091.8874346613884 1056.6393917798996 2879.6684003695846
leaf_count=41140 10769 147185 28587 43244 5063 5440 13485
internal_value=0 0.0193838 0.0328245 -0.002022 -0.0548428 -0.036672 -0.0680767
internal_weight=0 20631.7 12677.9 7953.83 6886.58 2915.03 3971.56
internal_count=294913 260156 175772 84384 34757 16209 18548
is_linear=0
shrinkage=0.0762481


Tree=18
num_leaves=8
num_cat=0
split_feature=3 13 3 3 11 12 11
split_gain=4579.65 779.293 578.147 412.44 338.231 275.039 89.4577
threshold=141.57666015625003 0.67358398437500011 172.91636657714847 99.894100189208999 8.2107815742492694 0.87426757812500011 24.084255218505863
decision_type=2 2 2 2 2 2 2
left_child=1 5 4 -3 -2 -1 -4
right_child=2 3 6 -5 -6 -7 -8
leaf_value=-0.039991112012776532 -0.071660395510075969 -0.011621140225105474 -0.064421112943598757 0.03849731082594765 -0.013749226475008118 0.0070191823901493916 -0.029741813246154526
leaf_weight=850.45665912330151 692.41060116887093 1035.4533665850759 4313.8272933959961 11190.640417154878 3827.7102114409208 4705.3459736704826 516.86921893060207
leaf_count=7808 3396 14227 19807 171261 24502 51620 2292
internal_value=0 0.0234774 -0.0424233 0.0342345 -0.0227231 -0.000168507 -0.0607802
internal_weight=0 17781.9 9350.82 12226.1 4520.12 5555.8 4830.7
internal_count=294913 244916 49997 185488 27898 59428 22099
is_linear=0
shrinkage=0.0762481


Tree=19
num_leaves=8
num_cat=0
split_feature=6 13 9 13 6 13 0
split_gain=1834.62 754.84 317.417 265.402 141.151 48.2889 33.993
threshold=1.5266418457031252 0.77856445312500011 59.122688293457038 0.36608886718750006 1.8023796081542971 0.58764648437500011 1.8627230246835433
decision_type=2 2 2 2 2 2 2
left_child=1 3 -3 -1 6 -6 -2
right_child=4 2 -4 -5 5 -7 -8
leaf_value=-0.033315682959012077 -0.053693446244223141 -0.0074688752129812661 0.024006494867595499 -0.0020229099322312391 -0.045556192745439705 -0.075827581332136143 -0.025969233605460811
leaf_weight=2003.4386673346162 398.67610387504101 2192.9324506558478 11985.041753590107 7398.2860250622034 482.35176913440228 1329.0190484449267 923.3642790839076
leaf_count=17206 2079 24246 163040 74569 2385 6663 4725
internal_value=0 0.0080128 0.0191239 -0.00872381 -0.0540467 -0.0680007 -0.0346229
internal_weight=0 23579.7 14178 9401.72 3133.41 1811.37 1322.04
internal_count=294913 279061 187286 91775 15852 9048 6804
is_linear=0
shrinkage=0.0762481


Tree=20
num_leaves=8
num_cat=0
split_feature=3 13 3 3 10 12 13
split_gain=3817.44 659.84 478.685 431.828 306.69 150.304 86.9163
threshold=142.06424713134768 0.42492675781250006 176.34027099609378 102.97975921630861 8.5893192291259783 0.95581054687500011 0.71606445312500011
decision_type=2 2 2 2 2 2 2
left_child=1 5 4 -3 -2 -1 -4
right_child=2 3 6 -5 -6 -7 -8
leaf_value=-0.043716475675393905 -0.069851261444786802 -0.0063454773644326477 -0.04237198202770686 0.032587172421467435 -0.014211069460891488 -0.0024874728316787767 -0.065495720453424514
leaf_weight=727.9612979888916 672.36646750569344 1886.6047581993043 1566.9044664055109 13040.265291456133 4022.7351033240557 1764.2623649388552 2844.7468101233244
leaf_count=6305 3324 25698 7411 195991 24559 18127 13498
internal_value=0 0.021586 -0.0393207 0.0276533 -0.0222772 -0.014662 -0.057376
internal_weight=0 17419.1 9106.75 14926.9 4695.1 2492.22 4411.65
internal_count=294913 246121 48792 221689 27883 24432 20909
is_linear=0
shrinkage=0.0762481


Tree=21
num_leaves=8
num_cat=0
split_feature=3 13 3 3 13 9 10
split_gain=3331.81 574.435 528.678 314.483 275.22 241.482 149.173
threshold=138.84489440917972 0.81372070312500011 161.57891845703128 99.021148681640639 0.78295898437500011 94.160789489746108 9.3998041152954119
decision_type=2 2 2 2 2 2 2
left_child=1 5 4 -3 -2 -1 -4
right_child=2 3 6 -5 -6 -7 -8
leaf_value=-0.011575794269411233 -0.038290635458935574 -0.012453694316701279 -0.072305902098239921 0.038506271033242064 0.0021807033953361696 0.016962081524218117 -0.042601328322985306
leaf_weight=2880.4628351032734 1590.6541252397001 759.99117738753557 1318.8734846264124 8450.3449538499117 2498.6800937242806 4264.353301115334 4379.1320430338383
leaf_count=31617 10347 10429 6444 142662 20976 52126 20312
internal_value=0 0.0216915 -0.0345423 0.0342767 -0.0135393 0.00543024 -0.0495604
internal_weight=0 16355.2 9787.34 9210.34 4089.33 7144.82 5698.01
internal_count=294913 236834 58079 153091 31323 83743 26756
is_linear=0
shrinkage=0.0762481


Tree=22
num_leaves=8
num_cat=0
split_feature=3 13 7 3 11 9 10
split_gain=2889.03 692.8 474.002 349.276 158.495 402.129 149.321
threshold=157.36638641357425 0.77465820312500011 1.0009002685546877 135.08806610107425 19.348338127136234 176.68885803222659 15.716331481933596
decision_type=2 2 2 2 2 2 2
left_child=1 3 -3 -1 6 -6 -2
right_child=4 2 -4 -5 5 -7 -8
leaf_value=0.0062570933783122097 -0.066076107128229533 0.033954591373901929 -0.0061531393372806966 -0.031638619616171822 0.029598508552657773 -0.05262111555970115 -0.038209900083983922
leaf_weight=6219.0503915883601 2296.1953898966312 9534.1077315211296 2077.2237714976072 1824.3215327784419 532.13010616600513 961.18574817478657 2330.4566454142332
leaf_count=71889 10970 154276 25946 13697 2355 4592 11188
internal_value=0 0.0148511 0.0267635 -0.00232693 -0.0451226 -0.0231949 -0.0521303
internal_weight=0 19654.7 11611.3 8043.37 6119.97 1493.32 4626.65
internal_count=294913 265808 180222 85586 29105 6947 22158
is_linear=0
shrinkage=0.0762481


Tree=23
num_leaves=8
num_cat=0
split_feature=3 3 3 12 11 15 13
split_gain=2545.89 518.096 434.189 425.107 322.981 121.189 81.9683
threshold=138.84489440917972 105.81673049926759 176.34027099609378 0.93579101562500011 7.9762237071990976 2.997902631759644 0.71606445312500011
decision_type=2 2 2 2 2 2 2
left_child=1 5 4 -3 -2 -1 -4
right_child=2 3 6 -5 -6 -7 -8
leaf_value=-0.02845279585142391 -0.062185565894388346 -0.013155486189925876 -0.034059570270819794 0.030817347313161634 -0.0086309551562604829 0.0031695042831194485 -0.057045254212004737
leaf_weight=1182.0568196885288 759.30476407706738 1429.2500728033483 1485.5242483019829 11484.528587013483 4710.7864204123616 1710.6658874899149 2671.0476332604885
leaf_count=16094 4000 15251 7411 181862 33170 23627 13498
internal_value=0 0.0193971 -0.0303314 0.025933 -0.0161434 -0.00971009 -0.0489206
internal_weight=0 15806.5 9626.66 12913.8 5470.09 2892.72 4156.57
internal_count=294913 236834 58079 197113 37170 39721 20909
is_linear=0
shrinkage=0.0762481


Tree=24
num_leaves=8
num_cat=0
split_feature=5 13 5 5 12 7 13
split_gain=2425.21 598.729 463.029 229.678 179.305 110.284 68.5518
threshold=1.4133082628250124 0.53637695312500011 1.0497422814369204 1.8119308948516848 0.95581054687500011 1.1981506347656252 0.63598632812500011
decision_type=2 2 2 2 2 2 2
left_child=1 4 -3 5 -1 -2 -5
right_child=3 2 -4 6 -6 -7 -8
leaf_value=-0.034506477466115321 -0.015937989140204764 0.038102018950113045 0.0098935131668032514 -0.034252474956745139 0.00059488898666845247 -0.041056648895785433 -0.060300558593739909
leaf_weight=1193.6002698987722 2923.3864363208413 6612.2442968375981 6978.5023482218385 914.10606545209885 2844.9248753935099 1597.7420748099685 2046.7901645228267
leaf_count=10104 18784 115384 96224 4862 29257 8988 11310
internal_value=0 0.0159774 0.0236395 -0.0358194 -0.00975847 -0.024888 -0.0523855
internal_weight=0 17629.3 13590.7 7482.02 4038.53 4521.13 2960.9
internal_count=294913 250969 211608 43944 39361 27772 16172
is_linear=0
shrinkage=0.0762481


Tree=25
num_leaves=8
num_cat=0
split_feature=5 13 5 5 14 13 5
split_gain=2129.57 462.297 416.457 219.817 161.067 132.595 82.0999
threshold=1.2718649506568911 0.62133789062500011 1.6393174529075625 1.0222828984260561 1.1961610325994922 0.45544433593750006 2.0829166173934941
decision_type=2 2 2 2 2 2 2
left_child=1 4 5 -3 -1 -2 -4
right_child=2 3 6 -5 -6 -7 -8
leaf_value=0.0035712189673774057 -0.036843398982930452 0.039196104023869256 -0.035679221934428192 0.016483574875305898 -0.04560745354004412 -0.0076234749240510968 -0.058204025042324893
leaf_weight=3865.0734596922994 1102.914573378861 5324.2845731563866 2754.1749724149704 4724.0727407187223 425.59553750604391 5086.0176637545228 1540.2886410206556
leaf_count=41474 6855 98832 13878 75993 4469 44122 9290
internal_value=0 0.0196051 -0.0256015 0.0285489 -0.00130403 -0.0128838 -0.0438535
internal_weight=0 14339 10483.4 10048.4 4290.67 6188.93 4294.46
internal_count=294913 220768 74145 174825 45943 50977 23168
is_linear=0
shrinkage=0.0762481


Tree=26
num_leaves=8
num_cat=0
split_feature=5 3 3 3 10 14 13
split_gain=1838.17 508.55 406.301 402.246 208.361 140.073 62.8544
threshold=1.2718649506568911 107.60860824584962 132.54315948486331 139.94532012939456 8.3319625854492205 1.1961610325994922 0.45544433593750006
decision_type=2 2 2 2 2 2 2
left_child=1 5 6 -3 -4 -1 -2
right_child=2 3 4 -5 -6 -7 -8
leaf_value=-0.004702241622061498 -0.021832252019864634 0.033097761195191963 -0.058886521936308854 -0.0042781691814881987 -0.026389779902992832 -0.074480437486492704 0.0087487868511223511
leaf_weight=2928.3877687305212 476.87697782367468 8954.6249674633145 1411.0550790056586 2046.80985949561 6516.5299307331443 173.83587833866477 2041.4099790118635
leaf_count=42988 3616 157786 8373 17431 37615 2563 24541
internal_value=0 0.0184372 -0.0237539 0.0261278 -0.0322273 -0.00877305 0.00285448
internal_weight=0 14103.7 10445.9 11001.4 7927.59 3102.22 2518.29
internal_count=294913 220768 74145 175217 45988 45551 28157
is_linear=0
shrinkage=0.0762481


Tree=27
num_leaves=8
num_cat=0
split_feature=5 13 7 5 5 7 13
split_gain=1600.5 488.279 299.881 201.299 201.099 95.4167 64.5396
threshold=1.4133082628250124 0.81372070312500011 0.89581871032714855 0.98145118355751049 1.8889317512512209 1.1652374267578127 0.59741210937500011
decision_type=2 2 2 2 2 2 2
left_child=1 3 -3 -1 5 -2 -6
right_child=4 2 -4 -5 6 -7 -8
leaf_value=0.015029765314267307 -0.012335182078322494 0.03274632684045356 0.00085156240336419419 -0.010565463723256332 -0.026946466011377374 -0.034224248899579528 -0.056112302794286542
leaf_weight=2846.3201523646712 3125.8460663035512 7068.308947365731 2278.5652619972825 4776.4441016316414 659.6613302975893 1884.5353050678968 1655.750950679183
leaf_count=37580 19583 128989 33738 50662 3788 10512 10061
internal_value=0 0.0133188 0.0249955 -0.000980167 -0.029314 -0.0206289 -0.0479516
internal_weight=0 16969.6 9346.87 7622.76 7325.79 5010.38 2315.41
internal_count=294913 250969 162727 88242 43944 30095 13849
is_linear=0
shrinkage=0.0762481


Tree=28
num_leaves=8
num_cat=0
split_feature=3 5 3 3 10 11 11
split_gain=1443.16 594.767 556.421 183.564 137.473 283.645 44.2245
threshold=157.36638641357425 1.0684476494789126 103.97624588012697 133.62619781494143 9.3998041152954119 16.866240501403812 25.091604232788089
decision_type=2 2 2 2 2 2 2
left_child=1 2 -1 -3 6 -6 -2
right_child=4 3 -4 -5 5 -7 -8
leaf_value=-0.012728206979423303 -0.062893722479247308 0.006461766703675949 0.036306499888149296 -0.01456163082769792 -0.038276448072130667 0.005906135934426399 -0.022879610810226436
leaf_weight=1689.5995539203286 1009.5516700297594 6406.8176228180528 6466.1934184879065 3865.8017597906291 3272.725853279233 1127.1848707348108 218.0385666936636
leaf_count=24108 5697 90301 119169 32230 17031 5195 1182
internal_value=0 0.0107549 0.0261235 -0.00143408 -0.0333462 -0.0269197 -0.0560477
internal_weight=0 18428.4 8155.79 10272.6 5627.5 4399.91 1227.59
internal_count=294913 265808 143277 122531 29105 22226 6879
is_linear=0
shrinkage=0.0762481


Tree=29
num_leaves=8
num_cat=0
split_feature=5 13 5 14 9 7 13
split_gain=1225.55 390.029 336.154 171.208 151.953 127.54 60.3998
threshold=1.226772725582123 0.75122070312500011 1.7427148818969729 1.1792623117394865 51.145261764526374 1.0457267761230471 0.59741210937500011
decision_type=2 2 2 2 2 2 2
left_child=1 3 5 -1 -3 -2 -4
right_child=2 4 6 -5 -6 -7 -8
leaf_value=0.0058739130229119897 -0.0021806426918235338 -0.018813753305138781 -0.021671752678790696 -0.037169621746896878 0.030733519674576163 -0.021818841664538319 -0.045770622883928344
leaf_weight=4472.9887989088893 5159.0650510340929 371.7600438259542 895.51564773917198 605.9292664565146 6973.5916732177138 3085.5634013265371 2230.5938257947564
leaf_count=54931 46117 6197 5063 7083 138603 23434 13485
internal_value=0 0.0169612 -0.0176744 0.000673656 0.0281902 -0.00956103 -0.038968
internal_weight=0 12424.3 11370.7 5078.92 7345.35 8244.63 3126.11
internal_count=294913 206814 88099 62014 144800 69551 18548
is_linear=0
shrinkage=0.0762481


Tree=30
num_leaves=8
num_cat=0
split_feature=3 5 3 13 11 10 13
split_gain=1134.65 487.681 463.396 273.029 128.561 238.022 37.0744
threshold=157.36638641357425 1.0251274108886721 103.97624588012697 0.42980957031250006 9.0495591163635272 14.837084770202638 0.76293945312500011
decision_type=2 2 2 2 2 2 2
left_child=1 2 -1 -3 6 -6 -2
right_child=4 3 -4 -5 5 -7 -8
leaf_value=-0.011660828804433804 -0.034059441723604367 -0.026912176091375965 0.036290715164202132 0.0051188723837844981 -0.037670061716268056 -2.2936762525622995e-05 -0.061569842219320062
leaf_weight=1494.2472142577171 544.28538192808628 1844.9326719045639 5303.5393993407488 9462.1270135380328 2549.1983871757984 1597.1961738914251 792.67180123925209
leaf_count=21508 3104 14924 103432 125944 13566 7706 4729
internal_value=0 0.00958911 0.0257216 -9.90775e-05 -0.0299874 -0.0232295 -0.0506598
internal_weight=0 18104.8 6797.79 11307.1 5483.35 4146.39 1336.96
internal_count=294913 265808 124940 140868 29105 21272 7833
is_linear=0
shrinkage=0.0762481


Tree=31
num_leaves=8
num_cat=0
split_feature=5 13 7 12 5 10 13
split_gain=962.228 403.931 314.36 182.137 109.634 71.3535 31.6241
threshold=1.5087079405784609 0.77856445312500011 0.89581871032714855 0.83569335937500011 2.0829166173934941 8.4645566940307635 0.54760742187500011
decision_type=2 2 2 2 2 2 2
left_child=1 3 -3 -1 5 -2 -6
right_child=4 2 -4 -5 6 -7 -8
leaf_value=-0.037730364550686665 -0.040932904051148973 0.027263911328532599 -0.0027375272590836348 -4.3231532332467806e-05 -0.024767224397191586 -0.016136989605871111 -0.053882200631837927
leaf_weight=832.83702188357711 867.83938068896532 7332.9936742149293 2791.017977245152 6901.9727108776569 328.73926478624344 3324.7964313104749 983.65575686842203
leaf_count=7405 5159 138560 38634 77838 2151 18027 7139
internal_value=0 0.00895331 0.0189766 -0.0041448 -0.0274955 -0.0213522 -0.0468404
internal_weight=0 17858.8 10124 7734.81 5505.03 4192.64 1312.4
internal_count=294913 262437 177194 85243 32476 23186 9290
is_linear=0
shrinkage=0.0762481


Tree=32
num_leaves=8
num_cat=0
split_feature=3 3 12 11 10 15 11
split_gain=942.18 459.506 295.632 262.993 383.359 138.573 26.5344
threshold=137.23963165283206 108.77547454833986 0.95336914062500011 7.6827316284179696 10.544677257537844 2.9144664277606691 6.8415544033050546
decision_type=2 2 2 2 2 2 2
left_child=1 5 -3 6 -5 -1 -2
right_child=3 2 -4 4 -6 -7 -8
leaf_value=-0.037798008855520648 -0.060898920797300096 -0.010092409304385319 0.026376039243967322 -0.038628492443223236 -0.0023906413310857077 -0.0022510903754854672 -0.036235078881438197
leaf_weight=837.69373779371381 730.22206421196461 1503.0413185544312 8833.0394422821701 2429.4972894005477 5652.0343485288322 2684.0006103478372 514.37518805265427
leaf_count=12270 4447 17478 160165 15777 40446 41163 3167
internal_value=0 0.0129439 0.0210525 -0.018396 -0.0133231 -0.0107969 -0.0510209
internal_weight=0 13857.8 10336.1 9326.13 8081.53 3521.69 1244.6
internal_count=294913 231076 177643 63837 56223 53433 7614
is_linear=0
shrinkage=0.0762481


Tree=33
num_leaves=8
num_cat=0
split_feature=3 3 10 3 13 3 2
split_gain=814.72 432.885 228.578 238.118 216.586 128.078 21.4549
threshold=135.08806610107425 108.54708099365236 8.2695503234863299 183.6366882324219 0.59252929687500011 96.655044555664077 2.3468055725097661
decision_type=2 2 2 2 2 2 2
left_child=1 5 6 -4 -3 -1 -2
right_child=2 4 3 -5 -6 -7 -8
leaf_value=-0.034975279794419681 0.0079247100594058862 0.0034302255578429193 -0.0032061570862055985 -0.030834712573360477 0.028574614541175204 -0.00149386874745448 -0.047531565387592317
leaf_weight=894.73210398480296 34.654266055673361 2849.8108570836484 5989.606538683176 2609.4682354256511 6762.1333754397929 2595.6348655447364 1272.0743058696389
leaf_count=11617 218 31547 49151 15257 138025 40661 8437
internal_value=0 0.0127889 -0.0161821 -0.0116238 0.0211444 -0.0101641 -0.0458941
internal_weight=0 13102.3 9905.8 8599.07 9611.94 3490.37 1306.73
internal_count=294913 221850 73063 64408 169572 52278 8655
is_linear=0
shrinkage=0.0762481


Tree=34
num_leaves=8
num_cat=0
split_feature=5 3 12 3 11 16 13
split_gain=757.531 371.464 233.71 217.89 202.268 119.786 72.7014
threshold=1.1606396436691286 107.84386444091798 0.96508789062500011 133.62619781494143 7.4341869354248056 386.22659301757818 0.98559570312500011
decision_type=2 2 2 2 2 2 2
left_child=1 5 -3 6 -5 -1 -2
right_child=3 2 -4 4 -6 -7 -8
leaf_value=-0.00369129014203411 -0.0040965392193086604 -0.0055643650898253034 0.030780606239792487 -0.049287298962968198 -0.014598692416613433 -0.06778202661032072 0.018438045990061134
leaf_weight=2579.0832301974297 3289.6056663505733 1222.7095859311521 6164.358190856874 1137.8323415070772 7139.8946726731956 177.99306558817625 1107.3311468549073
leaf_count=38815 40721 16158 124952 7302 45945 2763 18257
internal_value=0 0.015823 0.0247393 -0.0121287 -0.0194134 -0.00799873 0.00154803
internal_weight=0 10144.1 7387.07 12674.7 8277.73 2757.08 4396.94
internal_count=294913 182688 141110 112225 53247 41578 58978
is_linear=0
shrinkage=0.0762481


Tree=35
num_leaves=8
num_cat=0
split_feature=5 5 13 16 13 14 0
split_gain=673.233 244.485 219.324 175.511 164.517 102.595 96.5614
threshold=1.0524126291275027 1.5223569869995119 0.41564941406250006 553.09127807617199 0.93530273437500011 1.1641726118136047 1.5759353637695315
decision_type=2 2 2 2 2 2 2
left_child=2 4 5 -4 -2 -1 -3
right_child=1 6 3 -5 -6 -7 -8
leaf_value=-0.00057126986089112283 -0.0099043243041300813 -0.049118537011787519 0.027320678897855426 -0.048780416674141631 0.0097243696010247075 -0.06108872609632874 -0.018118545844626747
leaf_weight=916.06771443784237 6109.2965146675706 682.67155793309212 5966.6105421595275 175.92372926324606 4169.9815148711205 195.49570379406214 4451.3968323543668
leaf_count=10369 64652 4825 122104 2965 61462 2054 26482
internal_value=0 -0.00873204 0.0194296 0.025077 -0.00192231 -0.0115832 -0.022316
internal_weight=0 15413.3 7254.1 6142.53 10279.3 1111.56 5134.07
internal_count=294913 157421 137492 125069 126114 12423 31307
is_linear=0
shrinkage=0.0762481


Tree=36
num_leaves=8
num_cat=0
split_feature=3 13 7 11 9 10 14
split_gain=590.295 349.318 268.088 129.987 327.011 127.181 76.7735
threshold=157.36638641357425 0.42492675781250006 0.97682189941406261 19.461236000061039 176.68885803222659 15.716331481933596 1.3385630081413031
decision_type=2 2 2 2 2 2 2
left_child=1 6 -3 5 -5 -2 -1
right_child=3 2 -4 4 -6 -7 -8
leaf_value=-0.014915998986795215 -0.043416588884611973 0.017334517285563726 -0.0077114464924336176 0.047988585781260508 -0.03142500903127609 -0.015560047688265504 -0.090565014056442864
leaf_weight=2820.4146993979812 1905.0751650854945 11301.232202712446 3169.8845725171268 482.21930541098118 787.49540520459414 1975.6582447290421 77.271278612315655
leaf_count=25795 11050 200876 38380 2303 4536 11216 757
internal_value=0 0.00698771 0.0118344 -0.0223936 -0.00105418 -0.0293175 -0.0171325
internal_weight=0 17368.8 14471.1 5150.45 1269.71 3880.73 2897.69
internal_count=294913 265808 239256 29105 6839 22266 26552
is_linear=0
shrinkage=0.0762481


Tree=37
num_leaves=8
num_cat=0
split_feature=5 3 3 3 13 10 10
split_gain=548.918 324.847 241.332 165.87 162.372 157.173 55.0877
threshold=1.0251274108886721 97.659965515136733 133.62619781494143 108.77547454833986 0.80688476562500011 7.8053002357482919 12.941219329833986
decision_type=2 2 2 2 2 2 2
left_child=1 6 3 -2 -3 -4 -1
right_child=2 4 5 -5 -6 -7 -8
leaf_value=-0.0054865425284841814 -0.019524376789517472 0.01160591012974916 -0.043357248436820713 0.0094231388097551164 0.037591856933555323 -0.011868617105573286 -0.047571831293460473
leaf_weight=355.93613310903311 1449.5160190053284 2691.7671029493213 1046.783798199147 5482.5635115616024 2979.4480744488537 7960.6850335337222 391.74652668088675
leaf_count=4852 20192 39307 7186 85726 76581 55979 5090
internal_value=0 0.019063 -0.00733711 0.00333419 0.02531 -0.0155684 -0.0279388
internal_weight=0 6418.9 15939.5 6932.08 5671.22 9007.47 747.683
internal_count=294913 125830 169083 105918 115888 63165 9942
is_linear=0
shrinkage=0.0762481


Tree=38
num_leaves=8
num_cat=0
split_feature=5 3 3 12 16 16 13
split_gain=475.535 281.342 233.402 213.855 160.412 119.51 91.1777
threshold=0.99519017338752758 102.97975921630861 187.20460510253909 0.96020507812500011 553.09127807617199 348.37216186523443 0.59741210937500011
decision_type=2 2 2 2 2 2 2
left_child=1 5 3 -2 -3 -1 -4
right_child=2 4 6 -5 -6 -7 -8
leaf_value=-0.0019318055002820601 -0.024209406872771254 0.031541062057767695 -0.0043525354111321113 0.0017504886899464016 -0.039149280818388144 -0.066183205084292818 -0.035943934711046434
leaf_weight=1054.7022004202008 2182.3193372003734 4207.6207586489618 759.4508493244648 11746.25586720556 189.30572262778878 197.56328383460641 1893.0921969488263
leaf_count=15053 18919 92237 4693 145625 3066 2703 12617
internal_value=0 0.0193305 -0.00627577 -0.00230955 0.0284184 -0.0124151 -0.0269927
internal_weight=0 5649.19 16581.1 13928.6 4396.93 1252.27 2652.54
internal_count=294913 113059 181854 164544 95303 17756 17310
is_linear=0
shrinkage=0.0762481


Tree=39
num_leaves=8
num_cat=0
split_feature=3 3 5 10 3 15 10
split_gain=418.123 322.263 234.551 167.296 128.46 105.662 47.9056
threshold=135.08806610107425 108.77547454833986 0.98145118355751049 10.544677257537844 187.20460510253909 2.997902631759644 6.9174115657806405
decision_type=2 2 2 2 2 2 2
left_child=1 5 -3 6 -5 -1 -2
right_child=3 2 -4 4 -6 -7 -8
leaf_value=-0.025425575238513413 -0.048540542542825839 0.03587202274166456 0.0089442681304367395 0.00054931965094709694 -0.022516959088326634 0.0011418514043820751 -0.022698194528150934
leaf_weight=1492.1283972971141 559.1899926699698 2706.8492635674775 6249.9936542250216 5163.4983985237777 1915.5921683460474 2048.4081317521632 1973.7597236931324
leaf_count=21540 3850 66872 101545 42961 12007 31893 14245
internal_value=0 0.0094133 0.0171169 -0.011734 -0.00567556 -0.0100186 -0.0285523
internal_weight=0 12497.4 8956.84 9612.04 7079.09 3540.54 2532.95
internal_count=294913 221850 168417 73063 54968 53433 18095
is_linear=0
shrinkage=0.0762481


Tree=40
num_leaves=8
num_cat=0
split_feature=3 13 9 2 1 15 10
split_gain=366.694 290.156 223.565 79.437 81.6481 67.1298 24.8741
threshold=157.36638641357425 0.42492675781250006 72.597377777099624 2.8664703369140629 2.8185946067147936 2.9964410384469713 9.698118209838869
decision_type=2 2 2 2 2 2 2
left_child=1 5 -3 4 -2 -1 -5
right_child=3 2 -4 6 -6 -7 -8
leaf_value=-0.030087199445253007 -0.00094664659347149297 -0.0049521632106278033 0.016192816870342037 -0.04435729933251209 -0.024463300520173738 -0.0063918029407042968 -0.023366523216710428
leaf_weight=1210.8578928560019 1921.475340642035 4074.6586822438985 10021.665746858343 651.94690776616335 1573.7095923125744 1693.2522725313902 828.84261800348759
leaf_count=10463 10813 53409 185847 4492 9572 16089 4228
internal_value=0 0.00553753 0.0100675 -0.017987 -0.0116068 -0.0163674 -0.0328398
internal_weight=0 17000.4 14096.3 4975.97 3495.18 2904.11 1480.79
internal_count=294913 265808 239256 29105 20385 26552 8720
is_linear=0
shrinkage=0.0762481


Tree=41
num_leaves=8
num_cat=0
split_feature=5 3 0 7 13 15 17
split_gain=349.128 242.343 163.001 186.346 144.742 69.6086 17.231
threshold=1.0303736329078677 98.13230133056642 1.6730410178476058 0.82254028320312511 0.72387695312500011 3.0048666596412663 265.46121215820318
decision_type=2 2 2 2 2 2 2
left_child=1 5 6 -4 -3 -1 -2
right_child=2 4 3 -5 -6 -7 -8
leaf_value=-0.047846085991857315 -0.043547753030585286 0.0064524167263354188 0.0045009389336782878 -0.012593798952974604 0.031976880642289575 -0.0031354040147840833 -0.011122436979380789
leaf_weight=355.2616571970284 698.77323937043548 2229.4988282881677 7411.7836796492338 7388.5324905514717 3146.9745384640992 487.50339443236589 133.61701977625489
leaf_count=4391 5503 31604 88440 71826 85596 6500 1053
internal_value=0 0.0154644 -0.00588799 -0.00402134 0.0214417 -0.0223575 -0.0386557
internal_weight=0 6219.24 15632.7 14800.3 5376.47 842.765 832.39
internal_count=294913 128091 166822 160266 117200 10891 6556
is_linear=0
shrinkage=0.0762481


Tree=42
num_leaves=8
num_cat=0
split_feature=7 12 6 17 7 12 4
split_gain=293.873 205.234 202.166 62.2266 63.0592 54.7007 27.1139
threshold=0.82254028320312511 0.95629882812500011 1.8023796081542971 366.88128662109381 1.382255554199219 0.79272460937500011 292.01417541503912
decision_type=2 2 2 2 2 2 2
left_child=1 5 -3 4 -2 -1 -5
right_child=3 2 -4 6 -6 -7 -8
leaf_value=-0.037390346951727646 -0.0064376520542271057 0.014138387124677744 -0.027793394472189207 0 -0.022772399037609071 -0.007691470755860021 -0.07303858775555544
leaf_weight=470.4592472910881 6636.445407435298 10410.847142536193 707.47425626963377 33.792356232181191 1753.0512974634767 1627.7809022590518 127.38512227684259
leaf_count=3998 79371 175490 5371 382 11393 18028 880
internal_value=0 0.00730587 0.0114432 -0.0108303 -0.00988371 -0.014505 -0.0573898
internal_weight=0 13216.6 11118.3 8550.67 8389.5 2098.24 161.177
internal_count=294913 202887 180861 92026 90764 22026 1262
is_linear=0
shrinkage=0.0762481


Tree=43
num_leaves=8
num_cat=0
split_feature=5 14 0 4 16 13 17
split_gain=287.999 171.254 147.173 137.538 132.939 76.2035 15.6927
threshold=0.98145118355751049 1.2027299475847428 1.6730410178476058 293.45626831054693 500.38368225097662 0.70727539062500011 258.75178527832037
decision_type=2 2 2 2 2 2 2
left_child=1 4 6 -4 -1 -3 -2
right_child=2 5 3 -5 -6 -7 -8
leaf_value=0.025102795990200353 -0.041413169563456691 -0.045897812700055676 -0.0013866288551876893 -0.034099291418986176 -0.034527855280648077 0.0030814978255804476 -0.012186908809632359
leaf_weight=4086.4097538832575 661.41670785471797 313.35575772076845 15031.13526346907 783.15351758338511 223.21653356030583 424.06101066432893 156.3201955370605
leaf_count=88245 5365 3846 174931 6052 3897 11319 1258
internal_value=0 0.01611 -0.0046768 -0.00302765 0.0219382 -0.017623 -0.0361525
internal_weight=0 5047.04 16632 15814.3 4309.63 737.417 817.737
internal_count=294913 107307 187606 180983 92142 15165 6623
is_linear=0
shrinkage=0.0762481


Tree=44
num_leaves=8
num_cat=0
split_feature=3 3 11 10 5 15 1
split_gain=263.022 293.026 199.876 192.752 192.066 108.565 24.6555
threshold=134.82682800292972 113.60015869140626 6.9103085994720468 10.598963737487795 1.1723554134368899 2.997902631759644 2.3646976947784428
decision_type=2 2 2 2 2 2 2
left_child=1 5 6 -4 -3 -1 -2
right_child=2 4 3 -5 -6 -7 -8
leaf_value=-0.020298876601449356 0.038849002974238343 0.028498310602168227 -0.023948537261469754 0.0010702368917498437 0.0035802263215983484 0.0028020723019739702 -0.049027142382349842
leaf_weight=2042.8741291128099 13.541132289916275 3989.1529661137611 2497.8602503035218 6245.6438730917871 3309.4018313512206 2770.8778061252087 738.84916941821575
leaf_count=32029 93 96502 18419 50674 43991 48158 5047
internal_value=0 0.00759968 -0.0093458 -0.00606381 0.0172346 -0.00697159 -0.0469784
internal_weight=0 12112.3 9495.89 8743.5 7298.55 4813.75 752.39
internal_count=294913 220680 74233 69093 140493 80187 5140
is_linear=0
shrinkage=0.0762481


Tree=45
num_leaves=8
num_cat=0
split_feature=7 0 13 17 5 6 14
split_gain=230.782 193.669 191.22 50.7439 49.1354 34.5794 21.5948
threshold=0.82254028320312511 1.6730410178476058 0.93237304687500011 366.88128662109381 2.0829166173934941 1.1401672363281252 0.75801292551206234
decision_type=2 2 2 2 2 2 2
left_child=1 5 -3 4 -2 -1 -5
right_child=3 2 -4 6 -6 -7 -8
leaf_value=-0.10539062590556192 -0.0071395250652858296 0.0010879516670670129 0.02057609801346659 -0.00016028489854334364 -0.030612155929505464 -0.029628714675897991 -0.068277208314831042
leaf_weight=36.613676125183702 7802.6046282593161 7609.3336296286434 4776.1981062125415 42.132560767233372 558.60802756249905 572.80837816745043 117.1527014952153
leaf_count=616 85682 100790 97006 448 5082 4475 814
internal_value=0 0.00654166 0.00862309 -0.00960116 -0.00874568 -0.0352097 -0.0519092
internal_weight=0 12995 12385.5 8520.5 8361.21 609.422 159.285
internal_count=294913 202887 197796 92026 90764 5091 1262
is_linear=0
shrinkage=0.0762481


Tree=46
num_leaves=8
num_cat=0
split_feature=5 3 16 12 3 16 16
split_gain=216.684 201.453 144.18 128.41 142.008 79.3315 32.6749
threshold=0.98145118355751049 97.659965515136733 430.18560791015631 0.88598632812500011 187.20460510253909 308.57667541503912 219.02311706542972
decision_type=2 2 2 2 2 2 2
left_child=1 5 -3 6 -5 -1 -2
right_child=3 2 -4 4 -6 -7 -8
leaf_value=-0.007241113003848919 -0.0046376844869947956 0.026759479638926002 -0.010509508336047692 0.0010262907287394811 -0.019586173069428867 -0.065552733827087262 -0.033637407828048721
leaf_weight=484.57908362522721 314.03944313526154 3514.7512646391988 717.78908713534474 12950.471292693168 2279.1959441453218 189.98658530041575 999.42034463211894
leaf_count=6432 2386 84204 14349 161672 16114 2322 7434
internal_value=0 0.0141968 0.0203898 -0.00404069 -0.00205071 -0.0242613 -0.0268867
internal_weight=0 4907.11 4232.54 16543.1 15229.7 674.566 1313.46
internal_count=294913 107307 98553 187606 177786 8754 9820
is_linear=0
shrinkage=0.0762481


Tree=47
num_leaves=8
num_cat=0
split_feature=3 3 11 10 5 14 11
split_gain=194.866 255.918 182.579 209.518 142.75 92.9397 47.1784
threshold=134.82682800292972 108.77547454833986 9.1019344329834002 10.544677257537844 1.1694381833076479 1.1961610325994922 6.8415544033050546
decision_type=2 2 2 2 2 2 2
left_child=1 5 6 -4 -3 -1 -2
right_child=2 4 3 -5 -6 -7 -8
leaf_value=-0.007494010249216052 -0.044080749648239027 0.022706610785798199 -0.020878962996364943 0.006740543911326633 0.0026984212716340012 -0.06028899300028602 -0.019428890484147251
leaf_weight=3304.9082925878465 694.10896595939994 4666.6099013220519 2363.5401588138193 4888.5400571227074 3772.3901525326073 203.38172836974263 1469.8962075524032
leaf_count=50531 4856 116370 17608 41449 50877 2902 10320
internal_value=0 0.00658802 -0.00807629 -0.00224191 0.0137912 -0.0106801 -0.0274969
internal_weight=0 11947.3 9416.09 7252.08 8439 3508.29 2164.01
internal_count=294913 220680 74233 59057 167247 53433 15176
is_linear=0
shrinkage=0.0762481


Tree=48
num_leaves=8
num_cat=0
split_feature=7 13 0 15 4 11 14
split_gain=179.038 178.334 146.604 49.4305 45.1521 45.6693 15.1825
threshold=0.82254028320312511 0.36608886718750006 1.5759353637695315 3.0006837546825413 343.59603881835943 8.3261332511901873 1.0445488535445795
decision_type=2 2 2 2 2 2 2
left_child=1 3 -3 -1 5 -2 -6
right_child=4 2 -4 -5 6 -7 -8
leaf_value=-0.036840111818992695 -0.017736419893073837 -0.033947994681131431 0.010685122376482276 -0.0072286357219613984 -0.065929757848773196 -0.0044265732145256122 -0.013514654246599894
leaf_weight=585.52142760902643 1991.1212115213275 439.13603929243982 10988.102120749652 789.33107079565525 101.77172904089093 6315.4886738639325 65.041523335501552
leaf_count=4927 20336 3882 186649 7429 697 70478 515
internal_value=0 0.00580636 0.00894092 -0.0200545 -0.00847816 -0.00764756 -0.0474731
internal_weight=0 12802.1 11427.2 1374.85 8473.42 8306.61 166.813
internal_count=294913 202887 190531 12356 92026 90814 1212
is_linear=0
shrinkage=0.0762481


Tree=49
num_leaves=8
num_cat=0
split_feature=5 15 14 17 16 5 13
split_gain=163.705 173.092 130.167 112.225 109.834 77.5031 71.9514
threshold=0.98145118355751049 3.0154816526919608 1.3013380420748359 425.19715881347662 259.61671447753912 1.4381892681121828 0.57788085937500011
decision_type=2 2 2 2 2 2 2
left_child=1 3 -3 -1 5 -2 -6
right_child=4 2 -4 -5 6 -7 -8
leaf_value=-0.0010073243430590295 0.0070867288902686431 0.028057614805691345 -0.045468316635085528 -0.088478539686281873 -0.022591537395609325 -0.00767840641662282 -0.0056839347861942979
leaf_weight=1823.6057420186698 6037.4125378020108 2737.2350651975721 141.76810708455741 85.36906193383038 2059.2799641862512 3129.0850397795439 5215.5122775454074
leaf_count=39535 90782 63297 2870 1605 15426 20954 60444
internal_value=0 0.0125043 0.0243075 -0.005212 -0.00351002 0.00202447 -0.0105068
internal_weight=0 4787.98 2879 1908.97 16441.3 9166.5 7274.79
internal_count=294913 107307 66167 41140 187606 111736 75870
is_linear=0
shrinkage=0.0762481


Tree=50
num_leaves=8
num_cat=0
split_feature=7 0 3 17 3 6 4
split_gain=152.571 130.226 116.232 81.3925 66.6154 22.3074 8.68142
threshold=0.67765045166015636 1.6730410178476058 99.470386505126967 407.20205688476568 98.13230133056642 1.1401672363281252 327.63635253906256
decision_type=2 2 2 2 2 2 2
left_child=1 5 -3 4 -2 -1 -5
right_child=3 2 -4 6 -6 -7 -8
leaf_value=-0.090057303383554055 -0.034335254730484537 -0.017085819143351479 0.011321233779310139 -0.013765000242605204 -0.0042139674878746546 -0.025061173243241072 -0.076124311438365178
leaf_weight=32.500279411673546 443.80982000008225 914.8175332993269 8960.6314805801958 26.316321384161711 10188.940162885934 490.01820777356625 102.35297709144652
leaf_count=500 5372 11831 149522 346 122534 3946 862
internal_value=0 0.00668189 0.00866405 -0.00626627 -0.00550274 -0.0301798 -0.0656738
internal_weight=0 10398 9875.45 10761.4 10632.7 522.518 128.669
internal_count=294913 165799 161353 129114 127906 4446 1208
is_linear=0
shrinkage=0.0762481


Tree=51
num_leaves=8
num_cat=0
split_feature=3 13 13 11 9 9 9
split_gain=144.194 235.716 136.556 109.4 198.044 106.711 84.4518
threshold=166.94132232666018 0.96411132812500011 0.34411621093750006 23.212530136108402 176.68885803222659 53.620309829711921 144.59605407714847
decision_type=2 2 2 2 2 2 2
left_child=1 2 -1 6 -5 -3 -2
right_child=3 5 -4 4 -6 -7 -8
leaf_value=-0.024575123989568431 -0.010587777400808207 -0.0079002267380290005 0 0.088361205782213487 -0.01330989962428619 0.020413093769412735 -0.037890918134600278
leaf_weight=1501.9841682873666 2255.1715486496687 911.93333825469017 10289.317040916532 159.45368075370789 338.18521589040756 4731.2667344510555 948.54929573088884
leaf_count=13068 15040 11031 146677 780 2228 99714 6375
internal_value=0 0.00298666 -0.00313379 -0.0135748 0.0193747 0.0158014 -0.0187716
internal_weight=0 17434.5 11791.3 3701.36 497.639 5643.2 3203.72
internal_count=294913 270490 159745 24423 3008 110745 21415
is_linear=0
shrinkage=0.0762481


Tree=52
num_leaves=8
num_cat=0
split_feature=12 5 14 5 12 16 15
split_gain=162.439 154.598 143.677 83.8901 25.1015 22.9918 10.3906
threshold=0.88598632812500011 1.0684476494789126 1.2027299475847428 2.0829166173934941 0.77368164062500011 211.54111480712893 3.1213788336711095
decision_type=2 2 2 2 2 2 2
left_child=4 2 -2 -3 6 -6 -1
right_child=1 3 -4 -5 5 -7 -8
leaf_value=-0.038281775411358736 0.016814822599074058 -0.0008647880480794353 -0.017714405455461268 -0.025243714377905537 0.010938194652333418 -0.019472165970466915 -0.0020502218361898943
leaf_weight=544.81575555354357 5243.9008812848479 12387.631852138788 799.69479511678219 876.3159289881587 157.87782053649426 984.86425275355577 63.039847936481237
leaf_count=4277 120506 133828 16952 8570 1237 9014 529
internal_value=0 0.0020964 0.0122049 -0.00249759 -0.0221317 -0.0150791 -0.0348768
internal_weight=0 19307.5 6043.6 13263.9 1750.6 1142.74 607.856
internal_count=294913 279856 137458 142398 15057 10251 4806
is_linear=0
shrinkage=0.0762481


Tree=53
num_leaves=8
num_cat=0
split_feature=12 3 3 11 13 12 1
split_gain=143.275 169.841 176.853 122.117 45.4431 36.2643 8.86246
threshold=0.96166992187500011 164.0781173706055 108.77547454833986 19.348338127136234 0.28405761718750006 0.79272460937500011 3.0856691916757311
decision_type=2 2 2 2 2 2 2
left_child=4 2 -2 -3 6 -6 -1
right_child=1 3 -4 -5 5 -7 -8
leaf_value=-0.050614885311773571 -0.010468713998872005 -0.021118579506060338 0.010821956798034452 0.012305754798975319 -0.027177198178384567 -0.0072952501193638483 0
leaf_weight=215.61657148972154 2823.9061372987926 2480.1768743023276 11321.879195475951 842.90034580230713 685.40626453235745 2612.1579987555742 17.082184739410877
leaf_count=1513 46207 16677 191926 5084 5497 27884 125
internal_value=0 0.00290327 0.00655635 -0.0125782 -0.0139289 -0.011516 -0.0464752
internal_weight=0 17468.9 14145.8 3323.08 3530.26 3297.56 232.699
internal_count=294913 259894 238133 21761 35019 33381 1638
is_linear=0
shrinkage=0.0762481


Tree=54
num_leaves=8
num_cat=0
split_feature=7 12 0 17 5 15 0
split_gain=126.834 106.506 97.1296 70.8412 63.8292 20.629 11.105
threshold=0.59341430664062511 0.85424804687500011 1.6730410178476058 436.30517578125006 0.94415643811225902 3.0252898057275499 3.1167437156015123
decision_type=2 2 2 2 2 2 2
left_child=1 5 -3 4 -2 -1 -5
right_child=3 2 -4 6 -6 -7 -8
leaf_value=-0.037643552490106841 0.010583245945450754 -0.025456256865696376 0.011208602961975405 -0.073289587057512776 -0.0065399327940109464 -0.0087464086482342863 0
leaf_weight=303.14121911302209 1427.9207548778504 436.75130778551102 7865.7653618194163 97.104028753936291 10478.348256006837 316.27197151631117 8.7152571454644185
leaf_count=2453 32764 3822 134661 987 117274 2854 98
internal_value=0 0.00694934 0.00924454 -0.00504931 -0.00446723 -0.0233588 -0.0660354
internal_weight=0 8921.93 8302.52 12012.1 11906.3 619.413 105.819
internal_count=294913 143790 138483 151123 150038 5307 1085
is_linear=0
shrinkage=0.0762481


Tree=55
num_leaves=8
num_cat=0
split_feature=12 5 9 2 12 14 15
split_gain=115.959 126.997 132.603 77.7689 31.6356 26.0257 10.7731
threshold=0.96166992187500011 1.1723554134368899 84.040252685546889 2.8781496604257311 0.79272460937500011 1.2239160607537627 3.1213788336711095
decision_type=2 2 2 2 2 2 2
left_child=4 2 -2 -3 6 -6 -1
right_child=1 3 -4 -5 5 -7 -8
leaf_value=-0.029260871667445218 -0.0075323492793120351 0.0011736743303351277 0.015991784235174004 -0.01385941102328637 -0.0066262948870930228 -0.038161030695497679 0
leaf_weight=691.16144877672195 1837.9705304447562 7130.3501079715788 5606.2512016389519 2766.3676425665617 2624.5619227271527 161.1727419923991 76.67830466479063
leaf_count=5301 35651 67281 130084 26878 27322 1761 635
internal_value=0 0.00263064 0.0101571 -0.00301347 -0.0124802 -0.00857603 -0.0262693
internal_weight=0 17340.9 7444.22 9896.72 3553.57 2785.73 767.84
internal_count=294913 259894 165735 94159 35019 29083 5936
is_linear=0
shrinkage=0.0762481


Tree=56
num_leaves=8
num_cat=0
split_feature=3 3 11 3 10 14 17
split_gain=120.972 167.224 141.276 126.214 42.7759 51.6467 17.9858
threshold=96.655044555664077 133.19020080566409 9.1019344329834002 113.60015869140626 12.941219329833986 1.0615967745075852 203.10066986083987
decision_type=2 2 2 2 2 2 2
left_child=4 3 -3 -2 6 -6 -1
right_child=1 2 -4 -5 5 -7 -8
leaf_value=-0.03487423485537533 -0.0028556313308307902 -0.022751085468606335 -0.00079756749241215825 0.014608504928283382 -0.028546960233926541 -0.092192471192176578 -0.00054190068340306797
leaf_weight=118.77576395124197 3807.012551009655 2214.8617851193994 7431.1613981034607 6452.4951065536588 378.06131133809686 96.826906953006983 360.7617747746408
leaf_count=1474 68570 16488 65752 132486 4478 1059 4606
internal_value=0 0.00132847 -0.00586617 0.00811105 -0.0263992 -0.0426447 -0.00967762
internal_weight=0 19905.5 9646.02 10259.5 954.426 474.888 479.538
internal_count=294913 283296 82240 201056 11617 5537 6080
is_linear=0
shrinkage=0.0762481


Tree=57
num_leaves=8
num_cat=0
split_feature=0 7 15 17 5 17 1
split_gain=104.026 109.34 94.4195 61.8633 54.1855 22.6183 1.5339
threshold=1.4511095603280746 0.59341430664062511 2.9808882196717943 415.66943359375006 1.0469897985458376 260.91613769531256 2.4713363647460942
decision_type=2 2 2 2 2 2 2
left_child=4 2 -2 -3 6 -6 -1
right_child=1 3 -4 -5 5 -7 -8
leaf_value=0 -0.0029783030612372564 -0.0032280877979100589 0.013568472502523658 -0.051952144426063079 -0.036391741914359919 0.0057684295589267628 -0.15506550189967316
leaf_weight=1.9277289565652633 3160.2626875359565 11628.900624427944 5396.541141724214 149.78517464920878 368.83934360742569 81.600011669099331 18.39982545375824
leaf_count=37 47946 147331 93282 1665 3580 774 298
internal_value=0 0.000871364 0.00743665 -0.00388292 -0.0352194 -0.0283535 -0.147675
internal_weight=0 20335.5 8556.8 11778.7 470.767 450.439 20.3276
internal_count=294913 290224 141228 148996 4689 4354 335
is_linear=0
shrinkage=0.0762481


Tree=58
num_leaves=8
num_cat=0
split_feature=13 3 3 13 16 3 0
split_gain=103.918 128.201 115.539 79.568 57.8625 52.7401 10.8808
threshold=0.34411621093750006 187.20460510253909 99.470386505126967 0.76684570312500011 224.00079345703128 169.90821838378909 3.0202318747811998
decision_type=2 2 2 2 2 2 2
left_child=4 2 -2 -3 6 -6 -1
right_child=1 3 -4 -5 5 -7 -8
leaf_value=0.014827252339073229 -0.017265026866911306 0.0032907889888678776 0.0058294875665226443 -0.027016360683075731 -0.031151327703320256 0.0078297047896189655 -0.016087920806850401
leaf_weight=311.91229746118188 1363.3789119943976 782.09168253466487 15476.931070439517 1355.1383923254907 1181.7335350178182 232.37736418098211 74.517022341489792
leaf_count=2340 17533 5692 246332 10453 10472 1546 545
internal_value=0 0.00170174 0.00394447 -0.0158529 -0.0174436 -0.024607 0.00826509
internal_weight=0 18977.5 16840.3 2137.23 1800.54 1414.11 386.429
internal_count=294913 280010 263865 16145 14903 12018 2885
is_linear=0
shrinkage=0.0762481


Tree=59
num_leaves=8
num_cat=0
split_feature=16 7 13 14 3 12 3
split_gain=100.438 102.991 114.934 31.3028 24.9922 31.0791 20.7835
threshold=584.49942016601574 0.82254028320312511 0.93237304687500011 0.76555378273626651 119.58375167846681 0.96362304687500011 135.08806610107425
decision_type=2 2 2 2 2 2 2
left_child=1 2 -1 -3 5 -2 -6
right_child=4 3 -4 -5 6 -7 -8
leaf_value=-0.00074742663315369715 0 0.005083408768877736 0.014487453309156966 -0.007948006120772972 0.00048915972199755449 -0.16456757549608536 -0.059990625343555752
leaf_weight=7608.6510047987103 6.2421112470328834 1239.5094175711274 4605.3311519604176 7126.3131615947932 40.389707004651427 20.396458338946104 94.100222419947386
leaf_count=102302 64 12156 98381 79791 999 412 808
internal_value=0 0.000512566 0.00498449 -0.00599283 -0.059123 -0.125723 -0.0410134
internal_weight=0 20579.8 12214 8365.82 161.128 26.6386 134.49
internal_count=294913 292630 200683 91947 2283 476 1807
is_linear=0
shrinkage=0.0762481


Tree=60
num_leaves=8
num_cat=0
split_feature=5 15 17 4 16 2 17
split_gain=96.6198 140.832 84.909 84.2955 78.976 70.9624 9.66311
threshold=0.98145118355751049 3.0154816526919608 425.19715881347662 369.43087768554693 368.87622070312506 2.8371124267578129 366.88128662109381
decision_type=2 2 2 2 2 2 2
left_child=1 2 -1 5 -3 -2 -5
right_child=3 4 -4 6 -6 -7 -8
leaf_value=-0.0023322167691131692 0.0015259981760320936 0.028901085119345464 -0.076508134625718399 -0.01730611930298883 0 -0.0091262637230270904 -0.069315719416270308
leaf_weight=1788.2011140231043 10405.049867454916 1966.4003912135959 90.571908874437213 42.51115289889276 748.13441282324493 5566.1682788003236 115.96087590791285
leaf_count=39535 119374 49070 1605 259 17097 67299 674
internal_value=0 0.00978397 -0.00617872 -0.00274554 0.0208942 -0.00217601 -0.0573732
internal_weight=0 4593.31 1878.77 16129.7 2714.53 15971.2 158.472
internal_count=294913 107307 41140 187606 66167 186673 933
is_linear=0
shrinkage=0.0762481


Tree=61
num_leaves=8
num_cat=0
split_feature=12 8 9 13 1 16 12
split_gain=96.3662 96.1743 142.469 35.4019 34.7525 20.5602 17.6238
threshold=0.96166992187500011 67.40091705322267 73.24115371704103 0.47277832031250006 1.6189180930429183 211.54111480712893 0.77807617187500011
decision_type=2 2 2 2 2 2 2
left_child=3 4 -3 5 -2 -1 -5
right_child=1 2 -4 6 -6 -7 -8
leaf_value=0.00058244830884577453 -0.032559915801455425 -0.0047299745013571386 0.011017952326681084 -0.021720144246496886 -0.006877880570234916 -0.024118506746386326 -0.0017879491502069734
leaf_weight=213.76634906232357 350.30055863969028 5363.3647940084338 8785.4333672169596 303.85130004584789 2639.9450410213321 1264.5245927087963 1775.587659817189
leaf_count=1385 3299 62813 159199 2682 34583 9491 21461
internal_value=0 0.00240031 0.00503534 -0.0113822 -0.00999325 -0.0204271 -0.00483136
internal_weight=0 17139 14148.8 3557.73 2990.25 1478.29 2079.44
internal_count=294913 259894 222012 35019 37882 10876 24143
is_linear=0
shrinkage=0.0762481


Tree=62
num_leaves=8
num_cat=0
split_feature=3 3 3 11 14 15 8
split_gain=96.5995 110.06 134.552 123.589 32.0097 38.3551 28.5953
threshold=93.843715667724624 133.19020080566409 113.60015869140626 6.8415544033050546 1.0720829986784344 3.00883361697197 98.164516448974624
decision_type=2 2 2 2 2 2 2
left_child=4 2 -2 -3 5 -1 -6
right_child=1 3 -4 -5 6 -7 -8
leaf_value=-0.047627088252344837 -0.0042073218531258347 -0.036020032214227858 0.013263583774443446 -0.0026235616523853692 0 -0.00071138880003277546 -0.10505043551526499
leaf_weight=200.36375389620662 4280.688178004697 692.32895845361054 6327.7500831838697 8881.5427264347672 17.969627510756254 217.53681822121143 55.259905964136124
leaf_count=2243 74310 5163 132486 77077 217 2838 579
internal_value=0 0.000841083 0.006197 -0.00507384 -0.0332353 -0.0239167 -0.0796125
internal_weight=0 20182.3 10608.4 9573.87 491.13 417.901 73.2295
internal_count=294913 289036 206796 82240 5877 5081 796
is_linear=0
shrinkage=0.0762481


Tree=63
num_leaves=8
num_cat=0
split_feature=3 5 14 16 16 17 2
split_gain=84.2251 132.725 113.488 90.579 42.0554 41.8708 20.3951
threshold=98.13230133056642 0.98682901263237011 1.2027299475847428 258.99234008789068 392.02958679199224 274.59739685058599 2.2201232910156254
decision_type=2 2 2 2 2 2 2
left_child=4 2 -2 -3 5 -1 -6
right_child=1 3 -4 -5 6 -7 -8
leaf_value=-0.022056591403277936 0.019840716049690565 0.003410219990088064 -0.014705099117484794 -0.0082916025221215217 0.0244347004519158 0.014260069827122799 -0.089260344226403998
leaf_weight=983.2656051106751 3208.7919283416122 8479.5245646871626 657.94333924911916 7012.9065510202199 5.847934626042842 217.11310882493854 62.566576186567545
leaf_count=11630 85285 105374 14718 74452 55 2769 630
internal_value=0 0.00126883 0.0139034 -0.00187536 -0.0189768 -0.015302 -0.0760412
internal_weight=0 19359.2 3866.74 15492.4 1268.79 1200.38 68.4145
internal_count=294913 279829 100003 179826 15084 14399 685
is_linear=0
shrinkage=0.0762481


Tree=64
num_leaves=8
num_cat=0
split_feature=12 8 11 13 1 12 11
split_gain=83.2179 81.6245 120.241 31.5392 29.4392 21.6446 7.40268
threshold=0.96166992187500011 67.40091705322267 9.548373222351076 0.28405761718750006 1.6189180930429183 0.73754882812500011 24.829775810241703
decision_type=2 2 2 2 2 2 2
left_child=3 4 -3 6 -2 -5 -1
right_child=1 2 -4 5 -6 -7 -8
leaf_value=-0.040649311763114163 -0.030174191142987042 -0.0047679796626694552 0.0099379263270531724 -0.027952484010649696 -0.0063262344157956289 -0.0064721858747186934 0.0047509225954839905
leaf_weight=226.98016916960478 343.73175312392414 5007.3314590472728 9038.557513654232 304.76000384986401 2646.273678008467 3015.3233850002289 13.905626244843004
leaf_count=1541 3299 64747 157265 2324 34583 31057 97
internal_value=0 0.00223755 0.0046819 -0.0105721 -0.00917149 -0.00853541 -0.0372141
internal_weight=0 17035.9 14045.9 3560.97 2990.01 3320.08 240.886
internal_count=294913 259894 222012 35019 37882 33381 1638
is_linear=0
shrinkage=0.0762481


Tree=65
num_leaves=8
num_cat=0
split_feature=16 5 3 16 14 3 5
split_gain=83.2264 98.8317 118.117 64.6743 29.6841 18.9547 11.2885
threshold=530.47616577148449 0.93805697560310375 108.07813262939455 259.61671447753912 0.97195008843402608 180.07929992675784 1.3211912512779238
decision_type=2 2 2 2 2 2 2
left_child=1 2 -1 -3 6 -6 -2
right_child=4 3 -4 -5 5 -7 -8
leaf_value=-0.005114463612192123 -0.082233886958316113 0.0024368149660150026 0.023471392469499166 -0.0070762826234086534 -0.0087563646884112421 -0.069351269636075477 0
leaf_weight=1366.3436094634235 87.207220885902643 9274.4221828766167 2135.0143390726298 7494.7797687835991 176.78225137665868 35.390231944620609 9.8281497769057733
leaf_count=22540 1188 118118 63045 86572 3207 171 72
internal_value=0 0.000619393 0.0122695 -0.00180433 -0.0389639 -0.0209403 -0.0738911
internal_weight=0 20270.6 3501.36 16769.2 309.208 212.172 97.0354
internal_count=294913 290275 85585 204690 4638 3378 1260
is_linear=0
shrinkage=0.0762481


Tree=66
num_leaves=8
num_cat=0
split_feature=0 7 12 17 5 17 8
split_gain=74.457 77.9872 63.2894 51.5548 44.5241 20.9228 1.90547
threshold=1.4511095603280746 0.54505920410156261 0.85424804687500011 436.30517578125006 1.0469897985458376 260.91613769531256 263.65719604492193
decision_type=2 2 2 2 2 2 2
left_child=4 2 -2 -3 6 -6 -1
right_child=1 3 -4 -5 5 -7 -8
leaf_value=-0.13799406238282297 -0.017502501245122769 -0.0025009469917685041 0.008740413972894677 -0.051599118811671209 -0.031763110441067367 0.009530460260091014 0
leaf_weight=19.192422060295943 569.32594737969339 12306.761395312846 7097.6439472455531 121.72891269996762 350.54481979086995 78.935339543968439 2.9517019726335993
leaf_count=304 4761 160023 124002 1438 3580 774 31
internal_value=0 0.000704765 0.006758 -0.00301514 -0.0304531 -0.0237152 -0.128473
internal_weight=0 20095.5 7666.97 12428.5 451.624 429.48 22.1441
internal_count=294913 290224 128763 161461 4689 4354 335
is_linear=0
shrinkage=0.0762481


Tree=67
num_leaves=8
num_cat=0
split_feature=13 3 13 13 16 3 9
split_gain=76.5194 92.3741 83.6928 60.1482 47.6401 52.5582 16.8975
threshold=0.35559082031250006 191.01383972167972 0.96411132812500011 0.76684570312500011 218.35529327392581 169.90821838378909 70.205863952636733
decision_type=2 2 2 2 2 2 2
left_child=4 2 -2 -3 6 -6 -1
right_child=1 3 -4 -5 5 -7 -8
leaf_value=-0.0089242707472106768 -0.0005925400089501398 0.0035144614143306449 0.010725184684025717 -0.024532073312688224 -0.025270553645773422 0.011228499649756326 0.023868529150781265
leaf_weight=139.80659630149603 10742.365046486259 681.59840292856097 5847.8740291595459 1212.9189836159348 1416.1194626577199 263.04097620397806 221.3168755993247
leaf_count=948 149725 5112 113477 9794 12328 1793 1736
internal_value=0 0.0015553 0.00338713 -0.0143565 -0.0139893 -0.0194255 0.0106972
internal_weight=0 18484.8 16590.2 1894.52 2040.28 1679.16 361.123
internal_count=294913 278108 263202 14906 16805 14121 2684
is_linear=0
shrinkage=0.0762481


Tree=68
num_leaves=8
num_cat=0
split_feature=16 3 3 10 1 17 17
split_gain=73.1096 72.5966 86.9395 31.7424 20.8995 11.2388 6.90815
threshold=637.04074096679699 96.655044555664077 132.97571563720706 12.941219329833986 2.4351412375741686 275.55671691894537 492.95910644531256
decision_type=2 2 2 2 2 2 2
left_child=1 3 -3 -1 6 -6 -2
right_child=4 2 -4 -5 5 -7 -8
leaf_value=-0.0054128425664134623 0.037167892712439261 0.0063774485433818326 -0.0038270665304385308 -0.033050344285195966 0 -0.093709716623637723 -0.043074525014615568
leaf_weight=498.97431450337172 11.693129308521749 9887.0528879724443 9507.4591184537858 506.23960269242525 8.8313003499060851 65.065557174384594 5.3040046021342269
leaf_count=6077 194 199238 82920 5530 149 734 71
internal_value=0 0.000318946 0.0013655 -0.019603 -0.0666304 -0.0834025 0
internal_weight=0 20399.7 19394.5 1005.21 90.894 73.8969 16.9971
internal_count=294913 293765 282158 11607 1148 883 265
is_linear=0
shrinkage=0.0762481


Tree=69
num_leaves=8
num_cat=0
split_feature=14 5 15 4 3 13 5
split_gain=71.7957 103.813 118.074 61.7208 41.9882 39.2385 21.7148
threshold=1.2027299475847428 0.98145118355751049 3.006194804106848 369.43087768554693 115.78573226928712 0.73071289062500011 0.69845762848854076
decision_type=2 2 2 2 2 2 2
left_child=1 2 -1 -3 6 -6 -2
right_child=4 3 -4 -5 5 -7 -8
leaf_value=-0.0054759088823319261 -0.072124029569774539 -0.0010751477538840134 0.022752729983362731 -0.052821555724417164 -0.02606751240233051 0.0034977506797400984 -0.025867436177894415
leaf_weight=1327.4518752973527 95.384685046970844 15245.265493782237 2393.751834563911 131.04472184740007 448.82377477549016 591.368064628914 225.22212923690677
leaf_count=29740 1440 179959 62402 798 4544 12127 3903
internal_value=0 0.00121197 0.0126371 -0.00154344 -0.0168878 -0.00913261 -0.0410013
internal_weight=0 19097.5 3721.2 15376.3 1360.8 1040.19 320.607
internal_count=294913 272899 92142 180757 22014 16671 5343
is_linear=0
shrinkage=0.0762481


Tree=70
num_leaves=8
num_cat=0
split_feature=12 3 3 11 14 13 10
split_gain=67.2113 102.492 140.99 116.763 52.1478 41.1423 20.6042
threshold=0.99633789062500011 164.0781173706055 114.52626800537111 19.348338127136234 1.2323825365402932 0.28869628906250006 19.578436851501468
decision_type=2 2 2 2 2 2 2
left_child=4 2 -2 -3 5 -1 -6
right_child=1 3 -4 -5 6 -7 -8
leaf_value=-0.025705439043621575 -0.0076940740988697643 -0.021167333384104006 0.012804571075975808 0.019181766839755487 -0.017355953557893749 -0.0023297531123593054 -0.053413421025015922
leaf_weight=463.05338191241026 2687.8357268087566 1662.2463820874691 7001.0331976953894 547.68585567548871 305.00444728508592 7618.5453825239092 151.95831578224897
leaf_count=3524 51663 11731 121872 3360 4120 96782 1861
internal_value=0 0.00370559 0.00709739 -0.0110635 -0.00515821 -0.00370585 -0.0301522
internal_weight=0 11898.8 9688.87 2209.93 8538.56 8081.6 456.963
internal_count=294913 188626 173535 15091 106287 100306 5981
is_linear=0
shrinkage=0.0762481


Tree=71
num_leaves=8
num_cat=0
split_feature=17 17 1 12 14 3 17
split_gain=68.278 69.8098 68.1103 56.3867 27.7933 53.2749 14.3313
threshold=425.19715881347662 239.09412384033206 2.9555816650390629 0.92797851562500011 0.90791477210256044 180.07929992675784 436.30517578125006
decision_type=2 2 2 2 2 2 2
left_child=1 2 -1 -3 6 -6 -2
right_child=4 3 -4 -5 5 -7 -8
leaf_value=0.00028724658358731233 0 -0.010579094774980796 -0.012893616245901051 0.0086274699217082848 0.0029264877479737044 -0.085109402432577072 -0.065553761790369341
leaf_weight=8995.784430636093 24.11069655790925 1006.5384325012565 3036.2466445937753 6957.1015482451767 200.83148214966059 44.378512553870678 132.63423149287701
leaf_count=117617 400 9852 38111 122352 4347 225 2009
internal_value=0 0.000627778 -0.00302656 0.00617154 -0.0309438 -0.0134566 -0.05601
internal_weight=0 19995.7 12032 7963.64 401.955 245.21 156.745
internal_count=294913 287932 155728 132204 6981 4572 2409
is_linear=0
shrinkage=0.0762481


Tree=72
num_leaves=8
num_cat=0
split_feature=15 5 16 14 17 13 0
split_gain=63.3659 83.1874 85.1333 77.6621 52.8951 52.3634 9.67581
threshold=3.0410156381600584 1.0116236805915835 260.80598449707037 1.3013380420748359 492.95910644531256 0.32531738281250006 3.1167437156015123
decision_type=2 2 2 2 2 2 2
left_child=4 3 -3 -2 5 -1 -6
right_child=1 2 -4 -5 6 -7 -8
leaf_value=-0.021375110543132861 0.02000448694668084 0.0071767153692534136 -0.010978913366837319 -0.039975990503758267 -0.079545657639710443 -0.0018191945141543702 0.0094289001977611725
leaf_weight=859.86239067837596 2330.3731063120067 3935.0996671970934 2421.2158541288227 126.65220618806779 58.348944442346692 10656.765768272802 2.8551021423190823
leaf_count=6571 60253 49991 24291 2474 724 150562 47
internal_value=0 0.00486738 0.000228232 0.0167697 -0.00371084 -0.00330339 -0.0721393
internal_weight=0 8813.34 6356.32 2457.03 11577.8 11516.6 61.204
internal_count=294913 137009 74282 62727 157904 157133 771
is_linear=0
shrinkage=0.0762481


Tree=73
num_leaves=8
num_cat=0
split_feature=3 5 13 0 5 10 15
split_gain=63.608 70.5198 98.5403 48.0611 30.9616 19.2744 17.8315
threshold=93.843715667724624 1.1175120472908022 0.93823242187500011 2.9695955832772936 0.60328909754753124 10.09912157058716 3.00883361697197
decision_type=2 2 2 2 2 2 2
left_child=4 2 -2 -3 5 -1 -6
right_child=1 3 -4 -5 6 -7 -8
leaf_value=0.01120621003367003 0.00011207151520520404 -0.00024393678771746105 0.019027890481603686 -0.011732028198065909 -0.035207047421423061 -0.12034168286537709 -0.0049891457837814334
leaf_weight=4.1356843560934093 4548.5247825402766 10128.265751078725 2483.8543337620795 2684.669832168147 242.77541458234191 26.180169183760881 244.44084509834647
leaf_count=47 82253 102949 77753 26081 2483 274 3073
internal_value=0 0.000687463 0.00682793 -0.00266905 -0.0262789 -0.0977577 -0.0206132
internal_weight=0 19845.3 7032.38 12812.9 517.532 30.3159 487.216
internal_count=294913 289036 160006 129030 5877 321 5556
is_linear=0
shrinkage=0.0762481


Tree=74
num_leaves=8
num_cat=0
split_feature=7 14 15 17 17 13 5
split_gain=59.3321 58.7426 56.5436 40.9297 40.8891 23.602 15.9183
threshold=0.59341430664062511 1.3601258311359457 2.9775499145137236 366.88128662109381 193.23408508300784 0.70727539062500011 0.75509703159332286
decision_type=2 2 2 2 2 2 2
left_child=1 2 -1 4 -2 -3 -5
right_child=3 5 -4 6 -6 -7 -8
leaf_value=-0.0021873668001189243 -0.01413175820068205 -0.056570832750201604 0.010802005075882708 0 -0.00088114720771880091 -0.0077260545740050193 -0.038770720021057553
leaf_weight=3073.7729919590056 1572.0076475888491 112.96194449067116 5211.6960164848715 75.930516678839922 9902.307316172868 136.87066664919257 255.61964766308665
leaf_count=45646 17640 1115 93828 1844 128802 3201 2837
internal_value=0 0.00483748 0.00596158 -0.00350518 -0.0027178 -0.0311541 -0.0297978
internal_weight=0 8535.3 8285.47 11805.9 11474.3 249.833 331.55
internal_count=294913 143790 139474 151123 146442 4316 4681
is_linear=0
shrinkage=0.0762481


Tree=75
num_leaves=8
num_cat=0
split_feature=3 5 17 4 14 1 15
split_gain=60.6609 78.4727 71.0952 60.37 32.8626 39.5798 28.0971
threshold=99.470386505126967 0.93805697560310375 425.19715881347662 369.43087768554693 1.0743278943131449 3.0476595481210436 2.9614217599206651
decision_type=2 2 2 2 2 2 2
left_child=4 2 -2 -3 6 -6 -1
right_child=1 3 -4 -5 5 -7 -8
leaf_value=-0.024300771965183179 0.016889147499648954 -0.00037975458779336069 -0.022412187427665577 -0.045350812800085731 -0.021718037964755941 -0.096959280416820767 -0.0007949409208119723
leaf_weight=466.29509280994534 2573.9905814267695 15734.468167308718 290.85701247304678 171.27453271858394 195.46040853857994 52.816358748823404 843.92330392077565
leaf_count=4949 73837 195184 6129 1151 2154 562 10947
internal_value=0 0.0011939 0.0128046 -0.000888318 -0.0144406 -0.0398803 -0.00935836
internal_weight=0 18770.6 2864.85 15905.7 1558.5 248.277 1310.22
internal_count=294913 276301 79966 196335 18612 2716 15896
is_linear=0
shrinkage=0.0762481


Tree=76
num_leaves=8
num_cat=0
split_feature=12 3 3 16 3 3 15
split_gain=54.0387 67.6589 120.991 60.0438 22.8742 32.8593 15.0371
threshold=0.88598632812500011 109.45742797851564 132.97571563720706 392.02958679199224 124.98778152465822 161.57891845703128 3.0507319609271453
decision_type=2 2 2 2 2 2 2
left_child=4 3 -3 -2 6 -6 -1
right_child=1 2 -4 -5 5 -7 -8
leaf_value=-0.01161119814042586 -0.0059580589448872522 0.011397838593317451 -0.0023850795331432219 -0.049680782535548237 -0.029966561413226869 0.00087628539869824367 0.0085337045230461216
leaf_weight=531.8469818662852 3144.6063689943403 6368.3790982794017 8796.2581902574748 191.5783255212009 663.75878223776817 269.90571767091751 346.89163547568023
leaf_count=4727 50824 147240 78928 2864 4823 1894 3613
internal_value=0 0.00122004 0.00339211 -0.00858761 -0.0125604 -0.020885 -0.00344028
internal_weight=0 18500.8 15164.6 3336.18 1812.4 933.664 878.739
internal_count=294913 279856 226168 53688 15057 6717 8340
is_linear=0
shrinkage=0.0762481


Tree=77
num_leaves=8
num_cat=0
split_feature=0 7 0 5 13 4 15
split_gain=58.0267 54.1318 54.1785 35.349 30.9296 17.391 7.22398
threshold=1.4511095603280746 0.54505920410156261 2.9644304831796373 1.1372760534286501 0.32531738281250006 203.97499847412112 2.6969983448558534
decision_type=2 2 2 2 2 2 2
left_child=3 2 -2 6 -3 -5 -1
right_child=1 4 -4 5 -6 -7 -8
leaf_value=0 0.0084895582284753735 -0.016182252419590797 -0.0093044944198954517 -0.031434636752528944 -0.0014139983811642643 0.00022741974908868648 -0.11580390241195886
leaf_weight=3.326263120397928 6356.3175107557327 889.32629228755832 1165.8371564224362 270.79613085091114 11435.536907611415 140.53987566009164 25.966172754764557
leaf_count=37 108786 6869 19977 2761 154592 1527 364
internal_value=0 0.000599547 0.0057026 -0.0272407 -0.00250044 -0.0202702 -0.104107
internal_weight=0 19847 7522.15 440.628 12324.9 411.336 29.2924
internal_count=294913 290224 128763 4689 161461 4288 401
is_linear=0
shrinkage=0.0762481


Tree=78
num_leaves=8
num_cat=0
split_feature=16 13 3 3 15 2 14
split_gain=51.2374 49.4768 54.1416 41.2299 17.2201 9.08275 3.63946
threshold=637.04074096679699 0.35559082031250006 191.01383972167972 180.07929992675784 2.4532994945817674 3.1165682395272936 0.64663980214010175
decision_type=2 2 2 2 2 2 2
left_child=1 3 -3 -1 6 -6 -2
right_child=4 2 -4 -5 5 -7 -8
leaf_value=-0.014781225501444759 -0.029692742190445376 0.0029398972954396948 -0.010876905485366028 0.019310032288132273 -0.075691497318581311 0.0068580025083669355 0.028929530335782577
leaf_weight=1830.0050808563828 3.2552648000419167 16296.548951337114 1826.2527414523065 224.01405886560678 73.940112099051476 3.2518855836242428 13.402786964550613
leaf_count=15095 35 262196 14823 1651 855 43 215
internal_value=0 0.000253547 0.00153477 -0.0109375 -0.0549489 -0.0696981 0.00462681
internal_weight=0 20176.8 18122.8 2054.02 93.85 77.192 16.6581
internal_count=294913 293765 277019 16746 1148 898 250
is_linear=0
shrinkage=0.0762481


Tree=79
num_leaves=8
num_cat=0
split_feature=14 7 15 3 3 13 15
split_gain=50.315 53.1745 66.64 38.015 27.5335 26.9423 15.3309
threshold=1.2027299475847428 0.67765045166015636 2.9992634097682402 106.60185623168947 115.78573226928712 0.73071289062500011 2.4532994945817674
decision_type=2 2 2 2 2 2 2
left_child=1 2 -1 -3 6 -6 -2
right_child=4 3 -4 -5 5 -7 -8
leaf_value=-0.0023581923316832623 0.025259013454046172 -0.01558187260248633 0.010934461370953122 -0.0010434099135855498 -0.021409149259321494 0.0030247939547368044 -0.037095491234087188
leaf_weight=3778.1010713130236 17.97618424333632 1189.7834341581911 5151.9950337577611 8750.506735837087 456.64534398168325 581.00302478484809 321.18989355117083
leaf_count=56439 254 15711 94969 105780 4544 12127 5089
internal_value=0 0.00101452 0.00529096 -0.0028088 -0.0140614 -0.00759005 -0.0329567
internal_weight=0 18870.4 8930.1 9940.29 1376.81 1037.65 339.166
internal_count=294913 272899 151408 121491 22014 16671 5343
is_linear=0
shrinkage=0.0762481


Tree=80
num_leaves=8
num_cat=0
split_feature=0 17 17 3 6 3 17
split_gain=49.1895 51.0176 51.9543 24.7571 19.1851 16.4178 15.4769
threshold=1.4511095603280746 399.66159057617193 264.66358947753912 180.07929992675784 0.95946374535560619 155.51705169677737 251.46189117431643
decision_type=2 2 2 2 2 2 2
left_child=4 2 -2 -3 5 -1 -6
right_child=1 3 -4 -5 6 -7 -8
leaf_value=-0.10018241525396381 -0.0009299804997724095 -0.013564262752892471 0.0084637080083809439 -0.055651049343677879 -0.027431353841119076 0.0026652570933788909 0.0063474181360818616
leaf_weight=29.22827872261405 14794.38078221865 473.96080737560987 4439.7275322154164 101.98081976547837 308.88292176648974 7.28554843366146 92.235348146408796
leaf_count=371 199265 9831 80556 572 3326 41 951
internal_value=0 0.000548721 0.00122986 -0.0217081 -0.0251693 -0.0769161 -0.0192098
internal_weight=0 19810 19234.1 575.942 437.632 36.5138 401.118
internal_count=294913 290224 279821 10403 4689 412 4277
is_linear=0
shrinkage=0.0762481


Tree=81
num_leaves=8
num_cat=0
split_feature=8 9 3 4 3 10 2
split_gain=46.4753 83.3384 68.9523 35.1234 23.7145 61.1722 24.0738
threshold=67.40091705322267 84.679225921630874 143.05115509033206 397.19313049316412 129.93273925781253 7.0702004432678232 3.0941305160522465
decision_type=2 2 2 2 2 2 2
left_child=4 3 -3 -2 6 -6 -1
right_child=1 2 -4 -5 5 -7 -8
leaf_value=0.0012670762609998994 -0.0034849687183355505 0.011911806734394728 -0.0020412888520396546 -0.05370463062196288 -0.034960748627500073 -0.0042124189704435162 -0.024614388054478215
leaf_weight=1694.487431447953 7667.6109152063727 5586.6765519473702 3224.4202736318111 78.104197699576616 558.45001130923629 1192.0708720311522 232.52626248076558
leaf_count=26212 91312 137289 21047 1110 4696 9556 3691
internal_value=0 0.00170707 0.00678559 -0.00404597 -0.00776386 -0.014193 -0.00180607
internal_weight=0 16556.8 8811.1 7745.72 3677.53 1750.52 1927.01
internal_count=294913 250758 158336 92422 44155 14252 29903
is_linear=0
shrinkage=0.0762481


Tree=82
num_leaves=8
num_cat=0
split_feature=12 3 3 17 14 12 8
split_gain=48.4572 68.6148 105.093 34.66 33.6475 28.6852 17.9948
threshold=0.99633789062500011 109.45742797851564 157.36638641357425 203.10066986083987 1.2323825365402932 0.79272460937500011 75.811626434326186
decision_type=2 2 2 2 2 2 2
left_child=4 3 -3 -2 5 -1 -6
right_child=1 2 -4 -5 6 -7 -8
leaf_value=-0.017451547627303363 -0.027353084392800379 0.010653598570187413 -0.0071917462157235325 -0.0037812170713239406 0.0071148109084604016 -0.001711381059137045 -0.030849215545060912
leaf_weight=743.37529715895653 485.98065546900034 7087.2504311650991 2613.55900458619 1502.8333873059601 77.608977353200316 7287.5447822399437 392.98482640460134
leaf_count=5608 7353 137683 17240 26350 861 94698 5120
internal_value=0 0.0031675 0.00582507 -0.00968412 -0.00439626 -0.00320077 -0.0241795
internal_weight=0 11689.6 9700.81 1988.81 8501.51 8030.92 470.594
internal_count=294913 188626 154923 33703 106287 100306 5981
is_linear=0
shrinkage=0.0762481


Tree=83
num_leaves=8
num_cat=0
split_feature=13 5 14 17 16 15 14
split_gain=42.899 83.6798 52.9401 40.0646 37.9567 22.7418 17.3858
threshold=0.96411132812500011 1.6393174529075625 1.3601258311359457 371.20445251464849 259.61671447753912 2.6719155629449571 0.69902695430608885
decision_type=2 2 2 2 2 2 2
left_child=2 3 4 -2 -1 -4 -3
right_child=1 6 5 -5 -6 -7 -8
leaf_value=0.0024444800762847174 0.010526254876052441 0.0134544612147347 0.0086898072925361541 -0.019590855101780182 -0.0056171295049872597 -0.042558972606506519 -0.018635372400680261
leaf_weight=6633.0700546335429 5060.7400835976005 100.15936265513301 53.347111374139786 262.37709782831371 6907.489295931533 259.40999360382557 882.95299692824483
leaf_count=77467 104573 776 744 6642 94387 3324 7000
internal_value=0 0.00519302 -0.00239103 0.00899116 -0.00165444 -0.0332177 -0.0151281
internal_weight=0 6306.23 13853.3 5323.12 13540.6 312.757 983.112
internal_count=294913 118991 175922 111215 171854 4068 7776
is_linear=0
shrinkage=0.0762481


Tree=84
num_leaves=8
num_cat=0
split_feature=3 5 16 2 16 15 14
split_gain=43.9936 51.6972 71.6938 54.6862 22.4531 19.1437 13.026
threshold=93.843715667724624 0.92560473084449779 351.84031677246099 2.8577791770272936 335.11679077148443 2.5869516452127184 0.85860002918979228
decision_type=2 2 2 2 2 2 2
left_child=4 2 -2 -3 6 -6 -1
right_child=1 3 -4 -5 5 -7 -8
leaf_value=0.00061838961319636869 0.020060392929755616 0.0019776071981655028 -0.0030536622828519393 -0.0073286233990978314 0.015706748725594417 -0.076417530576741499 -0.024517644531604287
leaf_weight=180.58200054988265 1710.5420773550868 10977.596470901743 1406.5656368695199 5498.9780323766172 10.663850530982016 62.441563431173563 283.17697491124272
leaf_count=1993 47010 135692 34729 71605 94 573 3217
internal_value=0 0.000576027 0.00957973 -0.00111787 -0.0214603 -0.0603938 -0.014409
internal_weight=0 19593.7 3117.11 16476.6 536.864 73.1054 463.759
internal_count=294913 289036 81739 207297 5877 667 5210
is_linear=0
shrinkage=0.0762481


Tree=85
num_leaves=8
num_cat=0
split_feature=1 8 9 12 5 16 17
split_gain=42.2085 64.9584 60.4501 56.272 32.2762 25.9058 18.856
threshold=2.9555816650390629 71.994956970214858 84.679225921630874 0.83569335937500011 1.3480269908905032 420.81970214843756 238.11969757080081
decision_type=2 2 2 2 2 2 2
left_child=1 4 5 -3 -1 -2 -4
right_child=2 3 6 -5 -6 -7 -8
leaf_value=0.00087426035971072439 -0.010872934797128468 -0.017208393360171156 -0.0039439870570984383 0.0065745030028875572 -0.013268596444437447 -0.05023377219960784 0.0096832071689170636
leaf_weight=1765.2052598111331 3245.1490764264017 605.41627393849194 1024.4693002924323 10100.899376116693 1941.0338546074927 99.447665663436055 1340.8945792736486
leaf_count=29193 39098 4777 15655 159850 16332 1308 28700
internal_value=0 0.00218406 -0.00555953 0.00520538 -0.00648824 -0.0121643 0.00370436
internal_weight=0 14412.6 5709.96 10706.3 3706.24 3344.6 2365.36
internal_count=294913 210152 84761 164627 45525 40406 44355
is_linear=0
shrinkage=0.0762481


Tree=86
num_leaves=8
num_cat=0
split_feature=3 3 11 3 15 6 2
split_gain=41.1085 46.8478 99.7988 58.7322 26.3081 26.2439 15.1173
threshold=99.470386505126967 132.54315948486331 7.3093471527099618 113.60015869140626 3.1033183971988128 0.60059356689453136 2.4672088623046879
decision_type=2 2 2 2 2 2 2
left_child=4 3 -3 -2 5 -1 -6
right_child=1 2 -4 -5 6 -7 -8
leaf_value=-0.028177912484128532 -0.0032883339935618175 -0.02589249988261607 -6.558984349503048e-05 0.0095389176625156457 -0.035489043521117383 -0.0061697176749109569 0.016846982605691636
leaf_weight=591.60566976293921 3202.417422959581 965.85144370235503 8553.2978445300832 5790.5980564858764 31.066900245845318 735.02384544163942 235.12435279041529
leaf_count=6552 61575 7460 78307 128959 359 8582 3119
internal_value=0 0.000997951 -0.00271678 0.00495059 -0.0117511 -0.0161876 0.00955985
internal_weight=0 18512.2 9519.15 8993.02 1592.82 1326.63 266.191
internal_count=294913 276301 85767 190534 18612 15134 3478
is_linear=0
shrinkage=0.0762481


Tree=87
num_leaves=8
num_cat=0
split_feature=16 15 7 15 15 1 14
split_gain=40.3897 40.094 59.1441 49.956 17.5337 11.418 3.93171
threshold=584.49942016601574 3.0410156381600584 1.1652374267578127 2.5869516452127184 2.5432890160009269 3.0327211936288561 0.83063355609384704
decision_type=2 2 2 2 2 2 2
left_child=1 3 -3 -1 6 -6 -2
right_child=4 2 -4 -5 5 -7 -8
leaf_value=0.015046057027092158 -0.021503057495181874 0.0070487422467609123 -0.010182604235753847 -0.0041025010860970719 -0.061276189237988353 -0.0012985806060701924 0.022400148852365357
leaf_weight=849.07946223951876 12.012315912172197 7172.4539586910978 1369.1010954752564 10515.103080634028 102.30418946035206 30.557556692510843 27.363232390955091
leaf_count=10916 132 125329 11040 145345 1287 403 461
internal_value=0 0.000306207 0.0042607 -0.00264982 -0.0363177 -0.0493505 0.00384327
internal_weight=0 19905.7 8541.56 11364.2 172.237 132.862 39.3755
internal_count=294913 292630 136369 156261 2283 1690 593
is_linear=0
shrinkage=0.0762481


Tree=88
num_leaves=8
num_cat=0
split_feature=12 3 5 4 13 3 3
split_gain=37.6154 59.3464 100.572 31.8983 28.8724 22.9606 19.2866
threshold=0.99633789062500011 114.52626800537111 1.1723554134368899 340.78182983398443 0.28869628906250006 125.8091506958008 180.07929992675784
decision_type=2 2 2 2 2 2 2
left_child=4 3 -3 -2 6 -6 -1
right_child=1 2 -4 -5 5 -7 -8
leaf_value=-0.026713810525858764 -0.0051351629624182436 0.017813334790721783 0.00030349463015792163 -0.044858542908298125 0.001701499928866508 -0.0064685132846135328 0.019820903185763704
leaf_weight=453.16696289181709 2575.2776621701196 2788.816749451682 6084.4333040043712 120.76786808855832 3646.1244966099039 4345.2632201071829 50.399864282459021
leaf_count=3349 48962 78081 58882 2701 60355 42194 389
internal_value=0 0.00281266 0.00583427 -0.00705489 -0.00386748 -0.00271818 -0.0215508
internal_weight=0 11569.3 8873.25 2696.05 8494.95 7991.39 503.567
internal_count=294913 188626 136963 51663 106287 102549 3738
is_linear=0
shrinkage=0.0762481


Tree=89
num_leaves=8
num_cat=0
split_feature=17 17 5 3 5 16 5
split_gain=39.0435 43.362 46.5276 37.8216 34.5863 32.2584 11.3624
threshold=194.0860290527344 399.66159057617193 1.0251274108886721 105.81673049926759 0.75509703159332286 258.40730285644537 0.78337529301643383
decision_type=2 2 2 2 2 2 2
left_child=3 2 -2 6 -3 -5 -1
right_child=1 4 -4 5 -6 -7 -8
leaf_value=-0.084256608796383511 0.0087991595068993185 -0.0020495018609513536 -0.00033022555913616008 0.0010522108168108941 -0.04009706644112792 -0.018406866948961927 -0.025618046881796974
leaf_weight=20.761052265763283 4383.5159455686808 329.3646450471133 12327.387549631298 1659.5283230580389 251.75964707601815 691.87840879056603 382.13106600008905
leaf_count=206 110589 7768 140115 20409 2670 8432 4724
internal_value=0 0.00133045 0.00205483 -0.00843707 -0.0190345 -0.00461617 -0.0299803
internal_weight=0 17292 16710.9 2754.3 581.124 2351.41 402.892
internal_count=294913 261142 250704 33771 10438 28841 4930
is_linear=0
shrinkage=0.0762481


Tree=90
num_leaves=8
num_cat=0
split_feature=14 5 15 2 15 13 2
split_gain=36.4886 49.7757 73.4965 47.6609 19.8151 15.983 4.83233
threshold=1.2027299475847428 0.94415643811225902 2.997902631759644 2.8371124267578129 2.5171385129266466 0.82788085937500011 2.1281649192147936
decision_type=2 2 2 2 2 2 2
left_child=1 2 -1 -3 6 -6 -2
right_child=4 3 -4 -5 5 -7 -8
leaf_value=-0.0066078825985897696 0 0.0022779316160463068 0.018590578015236815 -0.0064957190088791679 -0.022114275923420555 -0.004689130700740749 0.034628731208584701
leaf_weight=1009.4449346903712 21.013391377404332 10107.960926019587 1950.9404014023021 5574.9514701832086 705.06471580080688 601.26431839354336 57.268557004630566
leaf_count=22607 335 123277 55734 71281 7525 13180 974
internal_value=0 0.000871654 0.009937 -0.000829724 -0.0119385 -0.0142817 0.0235462
internal_weight=0 18643.3 2960.39 15682.9 1384.61 1306.33 78.2819
internal_count=294913 272899 78341 194558 22014 20705 1309
is_linear=0
shrinkage=0.0762481


Tree=91
num_leaves=8
num_cat=0
split_feature=0 3 5 6 5 11 13
split_gain=35.5559 36.6932 56.8781 34.8775 23.1228 7.48457 4.19997
threshold=1.2737642844491683 105.53972244262697 0.91342878341674816 0.60059356689453136 1.1936965584754946 23.212530136108402 0.99682617187500011
decision_type=2 2 2 2 2 2 2
left_child=4 3 -3 -2 6 -6 -1
right_child=1 2 -4 -5 5 -7 -8
leaf_value=-0.097973645439506346 -0.017334121695164482 0.013643358505570899 7.7003836249104368e-05 -0.00010611284999292072 -0.022946904162871803 0.0093718974592315301 0
leaf_weight=25.025348719209436 1221.1243565585464 2043.9509906927124 14866.274695571512 1594.7905945200473 223.86560796573758 39.140374653041363 4.3088121935725203
leaf_count=278 16127 63756 189192 22347 2662 481 70
internal_value=0 0.000379517 0.00173114 -0.00765988 -0.0262125 -0.0173504 -0.0874508
internal_weight=0 19726.1 16910.2 2815.91 292.34 263.006 29.3342
internal_count=294913 291422 252948 38474 3491 3143 348
is_linear=0
shrinkage=0.0762481


Tree=92
num_leaves=8
num_cat=0
split_feature=17 13 7 14 16 1 17
split_gain=38.4152 37.2625 54.7666 45.1471 17.8131 11.6961 7.74223
threshold=425.19715881347662 0.96411132812500011 0.96510314941406261 1.1552979824163536 637.04074096679699 3.0729853232675279 536.88775634765636
decision_type=2 2 2 2 2 2 2
left_child=1 3 -3 -1 5 -2 -6
right_child=4 2 -4 -5 6 -7 -8
leaf_value=-0.00023962922705575963 -0.022300977314653254 0.010541482031823288 -0.004746979476846473 -0.014706686836767393 -0.0085637866830635938 0.011893874877699951 -0.082248150917633697
leaf_weight=12121.886820321903 282.51529964804649 4062.5527588780969 2025.1900331843644 1398.3984772218391 19.569893004372716 62.088935559615493 37.282781714573503
leaf_count=152820 5169 92786 23306 19020 205 1249 358
internal_value=0 0.000465518 0.00542451 -0.00175431 -0.0232346 -0.0155224 -0.0624195
internal_weight=0 19608 6087.74 13520.3 401.457 344.604 56.8527
internal_count=294913 287932 116092 171840 6981 6418 563
is_linear=0
shrinkage=0.0762481


Tree=93
num_leaves=8
num_cat=0
split_feature=17 17 16 5 5 3 4
split_gain=34.4757 46.6644 74.2419 54.258 32.0294 54.1912 16.08
