tree
version=v4
num_class=1
num_tree_per_iteration=1
label_index=0
max_feature_idx=18
objective=binary sigmoid:1
feature_names=dilep_pt dilep_dr dilep_deltaPhi dilep_deltaEta dijet_m dijet_pt dijet_dr dijet_deltaPhi dijet_deltaEta dijet_CvsL_max dijet_CvsL_min dijet_CvsB_max dijet_CvsB_min dijet_pt_max dijet_pt_min ZH_pt_ratio ZH_deltaPhi deltaPhi_l2_j1 deltaPhi_l2_j2
feature_infos=[60.000011444091797:1708.637451171875] [0.10723894089460373:3.4653282165527344] [0:3.1405735015869141] [0:2.7852554321289062] [75.001937866210938:199.99491882324219] [0.31593704223632812:1218.052001953125] [0.40042829513549805:5.1722712516784668] [0:3.1414794921875] [0:4.23681640625] [0.2000732421875:0.99951171875] [0.011322021484375:0.99951171875] [0.400146484375:0.98681640625] [3.3918768167495728e-06:0.98193359375] [20.015625:1168] [20.015625:824.5] [0.0029097356922448856:11.423377441306201] [4.7206878662109375e-05:3.1415888706790369] [0.00011444091796875:3.1415875593768519] [3.0517578125e-05:3.1415837446795862]
tree_sizes=3298 3431 3450 3437 3455 3446 3465 3470 3469 3462 3475 3466 3454 3474 3467 3480 3482 3456 3467 3452 3481 3466 3469 3462 3455 3475 3466 3470 3459 3488 3475 3481 3472 3447 3469 3459 3473 3466 3468 3469 3456 3442 3453 3443 3430 3450 3458 3467 3421 3475 3449 3424 3421 3413 3437 3439 3422 3424 3404 3429 3391 3424 3420 3379 3413 3405 3412 3396 3412 3456 3395 3412 3420 3422 3452 3385 3422 3386 3389 3378 3408 3375 3403 3379 3394 3399 3462 3401 3424 3373 3401 3403 3385 3377 3386 3377 3406 3415

Tree=0
num_leaves=31
num_cat=0
split_feature=9 8 8 10 1 2 4 9 10 4 6 2 4 2 4 8 4 4 4 10 9 10 4 15 2 10 6 10 4 15
split_gain=9801.96 3803.82 1905.71 891.023 777.564 706.319 687.403 579.259 486.888 456.198 389.085 345.375 299.83 289.208 255.326 244.152 241.43 232.756 230.765 219.565 219.228 209.189 202.881 192.422 186.136 170.817 150.021 143.237 132.51 132.357
threshold=0.40637207031250006 1.4719390869140627 1.7563781738281252 0.11074829101562501 1.9285427331924441 1.5714244842529299 155.03352355957034 0.73706054687500011 0.13250732421875003 147.58587646484378 2.4522664546966557 1.5792503356933596 102.15532684326173 1.5714244842529299 85.865581512451186 2.3055438995361333 91.943698883056655 148.45255279541018 94.636165618896499 0.092132568359375014 0.66137695312500011 0.076019287109375014 142.83803558349612 0.96627525888928678 1.6733779907226565 0.10531616210937501 1.9860445261001589 0.083221435546875014 88.193817138671889 0.59716260570590773
decision_type=2 2 2 2 2 2 2 2 2 2 2 2 2 2 2 2 2 2 2 2 2 2 2 2 2 2 2 2 2 2
left_child=1 3 6 5 10 9 8 13 11 12 25 28 23 -4 -7 21 -13 18 -5 29 -8 -6 -16 -1 -9 -3 -14 -15 -2 -12
right_child=2 4 7 17 15 14 20 24 -10 -11 19 16 26 27 22 -17 -18 -19 -20 -21 -22 -23 -24 -25 -26 -27 -28 -29 -30 -31
leaf_value=2.2262589396267103 2.3415023560365249 2.0584644963071375 2.2299801694856809 2.2382197642169643 1.7284160470324579 1.8087830061776859 2.1283632712174732 2.3535672436004949 2.4393761720048781 1.9876433304759775 1.9677628698091023 2.2161188728775461 2.356088981387082 1.8658911574821497 2.1208037393725134 1.674954407152188 2.3581210627162585 2.1369648702041024 2.3670066941622703 2.0353388176906995 2.3190296348026034 1.9758282335159714 1.8275747436657501 2.0170258609343672 2.2381664195741742 2.2342961793109684 2.2304106373602242 2.1041460694646501 2.4165087840043058 1.717515301919037
leaf_weight=151.52712874114513 265.66856987774372 116.20519459247589 193.75469945371151 179.38780039548874 51.038210466504097 40.005066990852356 76.914503797888756 469.18641068041325 4930.3070060908794 67.15136244893074 38.100063800811768 148.11399802565575 267.33544766902924 36.115685477852821 187.72218935191631 75.803251937031746 624.76167120039463 61.99197880923748 619.99916322529316 129.61959205567837 279.24171760678291 103.42579819262028 26.987545192241669 61.912603676319122 199.07283335924149 105.33080138266087 147.32024669647217 83.740765228867531 2076.4534771442413 47.466329485177994
leaf_count=1909 3347 1464 2441 2260 643 504 969 5911 62114 846 480 1866 3368 455 2365 955 7871 781 7811 1633 3518 1303 340 780 2508 1327 1856 1055 26160 598
internal_value=2.35168 2.1748 2.3984 2.24998 1.97064 2.18319 2.4138 2.26657 2.41982 2.23538 2.04904 2.38887 2.26187 2.15445 2.04073 1.82194 2.33091 2.32363 2.33811 1.95327 2.27785 1.89408 2.08395 2.16557 2.31919 2.14206 2.31144 2.03235 2.408 1.82894
internal_weight=0 2478.33 9383.33 1811.34 666.989 949.962 8401.46 981.87 8045.3 695.247 436.722 3115 628.095 313.611 254.715 230.267 772.876 861.379 799.387 215.186 356.156 154.464 214.71 213.44 668.259 221.536 414.656 119.856 2342.12 85.5664
internal_count=149438 31223 118215 22820 8403 11968 105845 12370 101358 8759 5502 39244 7913 3951 3209 2901 9737 10852 10071 2711 4487 1946 2705 2689 8419 2791 5224 1510 29507 1078
is_linear=0
shrinkage=1


Tree=1
num_leaves=31
num_cat=0
split_feature=9 8 8 10 9 2 4 10 6 10 2 4 4 1 4 2 4 10 4 8 9 15 10 10 6 2 6 13 13 4
split_gain=7130.92 2083.53 1240.74 630.811 487.067 480.707 475.223 352.946 327.777 296.395 238.788 232.765 272.838 205.42 194.31 184.732 171.353 160.004 138.007 133.794 124.697 123.44 113.427 109.792 105.891 103.177 93.7106 91.9448 90.7975 89.2944
threshold=0.48254394531250006 1.3189773559570315 1.7563781738281252 0.13116455078125003 0.26794433593750006 1.2000579833984377 155.03352355957034 0.13372802734375003 2.5010275840759282 0.12542724609375003 1.2966413497924807 91.558383941650405 144.00571441650393 1.8500177860260012 142.25473785400393 1.5229937434196474 96.07587051391603 0.14678955078125003 99.37573623657228 2.4553070068359379 0.31188964843750006 0.84078626707704462 0.099090576171875014 0.12884521484375003 1.9137571454048159 1.4532432556152346 2.6651985645294194 28.992187500000004 42.421875000000007 94.636165618896499
decision_type=2 2 2 2 2 2 2 2 2 2 2 2 2 2 2 2 2 2 2 2 2 2 2 2 2 2 2 2 2 2
left_child=1 3 6 5 15 14 7 10 22 13 -2 21 27 -4 18 23 -12 28 -1 -11 26 -7 -6 -3 -20 -8 -5 -13 -10 -9
right_child=2 4 9 20 8 11 25 29 17 19 16 12 -14 -15 -16 -17 -18 -19 24 -21 -22 -23 -24 -25 -26 -27 -28 -29 -30 -31
leaf_value=-0.096991172975311679 0.065542524948039083 -0.28495702603129708 -0.05573468118132309 -0.014193542977804228 -0.16249195193870153 -0.18351298404564903 -0.016764013937034951 0.052196277867304103 -0.34640308711795365 0.01834373618811181 -0.061820858628008707 -0.27317648771780428 -0.30513828116890052 -0.19173563755708387 -0.17736909587480382 -0.36724928932639045 0.028685083126723472 -0.13101274885533312 0.037033407489410052 -0.12121486137061331 0.043422644430813673 -0.35918824326291815 -0.051942495572779225 -0.14867525614828919 -0.066955854241436505 -0.139068196891587 -0.15696791614082958 -0.087679373185558393 -0.22740704061519709 0.093248477108385477
leaf_weight=196.58287657797337 1695.899857789278 206.62316103279591 250.78300290554762 311.21561058610678 180.09958834946156 81.986785195767879 251.28252331912518 617.42327487468719 116.40192136913538 422.55412168800831 279.6490748077631 28.623783089220524 76.337249450385571 199.33874201774597 99.354974247515202 221.85407941788435 830.23600733280182 98.293923482298851 303.70222750306129 82.030580513179302 448.58847519010305 78.098688967525959 191.4961336478591 82.8052594140172 144.52041933685541 95.074187204241753 53.939083062112331 401.97133050858974 142.76968575268984 3735.5288671553135
leaf_count=2215 22398 1986 3024 3834 1834 838 3008 8368 1063 5070 3352 321 722 2231 1022 1961 10706 986 3852 967 5742 774 2187 874 1733 1136 657 4608 1341 50628
internal_value=0 -0.119911 0.050405 -0.0620152 -0.223764 -0.102449 0.064064 0.0695989 -0.171286 -0.0569701 0.0419422 -0.164096 -0.1309 -0.115963 -0.0471923 -0.298593 0.00588101 -0.23965 -0.027134 -0.00434437 0.00810445 -0.269217 -0.105522 -0.245967 0.00350415 -0.0503363 -0.0352836 -0.10001 -0.280852 0.0874256
internal_weight=0 3465.27 8459.8 2224.92 1240.34 1411.18 7505.09 7158.74 729.061 954.706 2805.78 667.018 506.932 450.122 744.16 511.282 1109.89 357.466 644.806 504.585 813.743 160.085 371.596 289.428 448.223 346.357 365.155 430.595 259.172 4352.95
internal_count=149438 38550 110888 26318 12232 16085 99596 95452 7411 11292 36456 7263 5651 5255 8822 4821 14058 3390 7800 6037 10233 1612 4021 2860 5585 4144 4491 4929 2404 58996
is_linear=0
shrinkage=0.1


Tree=2
num_leaves=31
num_cat=0
split_feature=9 8 8 10 4 10 4 6 1 13 4 2 6 9 10 1 1 4 15 16 10 6 4 6 9 4 4 10 10 2
split_gain=5485.84 1412.51 899.767 588.014 348.432 289.523 283.252 248.866 246.965 236.084 221.769 213.025 158.756 157.09 146.8 145.344 138.92 128.191 122.752 117.35 115.747 112.831 111.855 97.7863 89.605 89.3131 87.2563 77.476 73.3173 72.4475
threshold=0.54272460937500011 1.4022369384765627 1.7231292724609377 0.086151123046875014 155.03352355957034 0.14984130859375003 94.636165618896499 2.3120347261428837 1.4841657280921938 30.367187500000004 85.37015533447267 1.5878467559814455 2.8920150995254521 0.29724121093750006 0.17352294921875003 1.6673969626426699 1.7499020099639895 151.3532638549805 0.87934572668068867 2.6638286431604112 0.17169189453125003 2.1061669588088994 143.39344787597659 2.3206012248992924 0.25598144531250006 146.82503509521487 146.82503509521487 0.15289306640625003 0.13995361328125003 0.98822784423828136
decision_type=2 2 2 2 2 2 2 2 2 2 2 2 2 2 2 2 2 2 2 2 2 2 2 2 2 2 2 2 2 2
left_child=1 3 4 8 6 9 15 10 22 -3 18 26 28 -10 21 -2 25 24 -5 -14 -9 -8 -1 -7 -12 -11 -4 -17 -13 -6
right_child=2 5 11 7 29 23 14 20 13 16 17 12 19 -15 -16 27 -18 -19 -20 -21 -22 -23 -24 -25 -26 -27 -28 -29 -30 -31
leaf_value=-0.029622164902690342 0.056531315311168485 -0.2763239616407786 0.023323804141581961 -0.019783494145366259 0.013362148132823519 -0.01956282464242199 0.078243166700434616 -0.10435512678613888 -0.20302197554754686 -0.091865714671532248 -0.018207634439121115 -0.1011670109633786 -0.086808802599357041 -0.099808067700232261 0.094607591528336921 -0.052265132578710939 -0.20731633326900206 -0.11424170438859303 -0.20822866195598877 -0.27774391380226743 -0.0026006119911096606 0.034042738515110832 -0.17015729015809339 -0.1308188813480127 0.051912735679340183 -0.18911746291760012 -0.059676355586413446 0.02793357180993071 0.0088941846342542527 -0.080205751259533137
leaf_weight=369.58448477089405 589.37008760869503 267.17405688762665 424.40947906672955 74.695662058889866 158.97144281864166 127.91533206403255 1502.1920190379024 344.27765375375748 289.07767624408007 263.62721597403288 237.59447373449802 130.24199470877647 61.214303061366081 300.99920116364956 2871.6179322823882 275.44264567643404 445.72495220601559 60.500391602516174 64.342101380228996 67.888424001634121 165.54342684149742 938.25454715639353 66.884160950779915 206.59244801104069 782.21684400737286 147.1373264119029 180.53967175632715 214.07838815450668 113.07153606414795 172.58935114741325
leaf_count=4401 8095 2018 5169 841 1893 1401 21045 3739 2680 2437 2804 1305 634 3103 42115 3278 3420 583 660 698 2085 12840 591 1865 10098 1212 2135 3032 1316 1945
internal_value=0 -0.0903512 0.0515751 -0.0482357 0.0646093 -0.169943 0.0697948 -0.0126442 -0.108188 -0.194255 0.0118864 -0.038077 -0.0975791 -0.150372 0.0792825 0.0230809 -0.168654 0.027186 -0.10699 -0.187212 -0.0713145 0.0612499 -0.0511577 -0.0882747 0.0355762 -0.126702 -0.00144658 -0.0171925 -0.0500199 -0.0353433
internal_weight=0 4213.89 7699.88 2755.72 6722.52 1458.17 6390.96 1729.17 1026.55 1123.66 1219.35 977.365 372.416 590.077 5312.06 1078.89 856.489 1080.31 139.038 129.103 509.821 2440.45 436.469 334.508 1019.81 410.765 604.949 489.521 243.314 331.561
internal_count=149438 43938 105500 31585 94243 12353 90405 20810 10775 9087 14986 11257 3953 5783 76000 14405 7069 13485 1501 1332 5824 33885 4992 3266 12902 3649 7304 6310 2621 3838
is_linear=0
shrinkage=0.1


Tree=3
num_leaves=31
num_cat=0
split_feature=9 6 8 4 15 4 8 10 10 10 10 1 4 9 4 8 1 4 9 1 4 16 16 4 4 15 1 4 6 4
split_gain=4332 1038.22 713.779 525.156 383.212 339.182 316.458 239.461 237.093 235.175 232.365 157.268 152.321 148.814 143.943 117.019 113.614 105.26 98.4146 92.8353 81.1289 74.1282 71.373 67.115 66.0099 65.1222 65.0988 64.8799 63.5392 61.8214
threshold=0.59106445312500011 2.3374152183532719 1.4843292236328127 94.636165618896499 0.84360274146214664 148.45255279541018 2.0869445800781254 0.14837646484375003 0.13250732421875003 0.20428466796875003 0.088348388671875014 1.8257681131362917 146.82503509521487 0.26184082031250006 95.713352203369155 0.77778625488281261 1.6081299185752871 134.89544677734378 0.26184082031250006 1.3508158326148989 152.509391784668 2.3483901619911198 3.0124912112951283 109.2903518676758 96.76950836181642 1.2187222156334563 1.4661222100257876 151.3532638549805 1.7296784520149233 131.40667724609378
decision_type=2 2 2 2 2 2 2 2 2 2 2 2 2 2 2 2 2 2 2 2 2 2 2 2 2 2 2 2 2 2
left_child=1 3 8 4 -1 10 7 13 12 11 15 -4 14 -3 26 -5 -6 -15 25 -8 24 -21 -18 -17 -10 28 -2 -11 -12 -23
right_child=2 6 9 5 16 -7 19 -9 20 27 18 -13 -14 17 -16 23 22 -19 -20 21 -22 29 -24 -25 -26 -27 -28 -29 -30 -31
leaf_value=-0.025632792423046408 0.0508374118424091 -0.17427205809266541 -0.0061718473368832126 0.0052044081042519584 -0.10532100752854763 -0.12551734033612491 -0.092912092348353487 -0.028604276271394381 0.055938273685153042 0.05759796607771589 0.064065528297025678 -0.090253871610044389 -0.043059198956971495 -0.06800640213702662 0.064453338511119881 -0.13447840433613861 -0.17887386664689373 -0.15338980288959311 0.051331269408212268 -0.1410042311591749 0.015527485086924128 -0.17664122071664709 -0.29597411612056795 -0.045859483787594052 0.093590655857608562 -0.12315441454202916 -0.026104467607098225 -0.044739049026140426 -0.041462328918038645 -0.25849624328546822
leaf_weight=317.31151244044304 172.1837309896946 378.44307552278042 508.75650146603584 336.51148615777493 148.22307198494673 216.5453752502799 90.85745819658041 349.68567444384098 562.35874859243631 424.87141924351454 101.96837395429611 395.2879923582077 193.16584272682667 446.55781614780426 1569.4809753671288 128.65088573098183 160.24211193621159 213.37145482003689 865.98367521166801 143.22780787199736 166.37367834150791 155.10184341669083 77.090038150548935 254.56236447393894 2706.4670275002718 47.831178888678551 304.30250450968742 72.525437228381634 129.54309678822756 227.75445201247931
leaf_count=3338 2430 2944 6409 3842 1518 1835 693 3969 8332 5816 1240 4188 2359 4237 22701 1199 1357 1742 11529 964 1976 1027 629 2538 42888 508 3571 824 1361 1474
internal_value=0 -0.0717964 0.0513586 -0.0322882 -0.107025 -0.00705266 -0.126664 -0.100178 0.0671429 -0.0125508 0.00670191 -0.0429362 0.0418244 -0.124281 0.0498385 -0.0378249 -0.174011 -0.095613 0.0346826 -0.186255 0.083646 -0.202376 -0.21691 -0.0756103 0.0871131 -0.0169295 0.00169936 0.0426762 0.00501703 -0.225335
internal_weight=0 4789.46 7075.77 2784.46 702.867 2081.6 2005 1388.06 5674.33 1401.44 1865.05 904.044 2239.13 1038.37 2045.97 719.725 385.555 659.929 1145.33 616.942 3435.2 526.084 237.332 383.213 3268.83 279.343 476.486 497.397 231.511 382.856
internal_count=149438 47944 101494 30894 6842 24052 17050 12892 84257 17237 22217 10597 31061 8923 28702 7579 3504 5979 14638 4158 53196 3465 1986 3737 51220 3109 6001 6640 2601 2501
is_linear=0
shrinkage=0.1


Tree=4
num_leaves=31
num_cat=0
split_feature=9 8 8 10 2 2 10 9 6 4 4 2 15 4 10 6 10 9 10 8 4 4 11 10 4 8 4 2 11 4
split_gain=3472.98 850.076 595.452 350.409 305.957 242.026 213.7 213.107 183.054 152.84 176.971 147.204 123.95 106.218 100.197 91.7832 83.9187 82.8438 81.7566 78.2601 76.6568 89.7265 76.1818 74.9354 61.4749 57.9189 66.8389 57.8988 58.54 56.718
threshold=0.62084960937500011 1.1163482666015627 1.4843292236328127 0.13116455078125003 1.7541236877441408 1.8714172244071963 0.17352294921875003 0.30822753906250006 2.5320430994033818 151.3532638549805 102.43315887451173 1.2966413497924807 0.93465966195122296 158.07572937011722 0.19464111328125003 1.8930941224098208 0.20697021484375003 0.31188964843750006 0.069366455078125014 1.9540100097656252 146.82503509521487 101.5333595275879 0.61743164062500011 0.062393188476562507 151.3532638549805 2.3500099182128911 97.114120483398452 1.2292518615722658 0.47766113281250006 159.86889648437503
decision_type=2 2 2 2 2 2 2 2 2 2 2 2 2 2 2 2 2 2 2 2 2 2 2 2 2 2 2 2 2 2
left_child=1 3 6 5 7 9 11 22 16 10 12 24 -1 17 19 -12 -4 -5 -10 -9 21 -13 -3 -6 -2 26 -25 -20 -29 -8
right_child=2 4 8 13 23 -7 29 14 18 -11 15 20 -14 -15 -16 -17 -18 -19 27 -21 -22 -23 -24 25 -26 -27 -28 28 -30 -31
leaf_value=-0.029230447684436639 0.069850820893988239 -0.16325044194280136 -0.0026909887668675274 -0.0063767219854099144 -0.22277786297428459 -0.13338317812998438 0.087660328787637659 -0.039882803602892043 -0.14072513967989989 -0.12830094304202211 0.041240262106594927 -0.017612230628205702 -0.13015909324750677 -0.115948345139399 0.019515145206181566 -0.025784003223906067 0.06457652314575793 0.056200364221437385 0.009585187864411468 -0.10988099339166479 -0.071835119959157173 0.047202970031903609 -0.097123374403097804 -0.18840406598071915 -0.0076859194126625537 -0.19530873268834681 -0.09627459046292626 -0.20612284893621236 -0.048566815767792454 0.0059924847804722625
leaf_weight=328.50445535033941 1410.7390382811427 243.07759191840887 491.1343892775476 324.98004272580147 144.82120540738106 278.24286448210478 2601.1601682640612 481.07292346656322 86.795310966670513 147.71156297624111 411.11719334125519 334.61653589084744 193.26651663333178 49.514483995735645 184.25968307629228 406.17040000110865 297.98038228601217 606.16146819666028 180.81768206879497 239.11057334393263 92.251241412013769 590.48549174517393 614.99717184901237 108.8695122115314 110.24559417739511 147.1297791749239 284.60415892675519 25.674368008971214 289.37757090479136 87.91316856443882
leaf_count=3274 22035 1699 5957 3783 856 2317 43991 4822 865 1044 5313 4088 1649 457 2150 4136 4346 8748 2195 1738 1037 8803 4575 792 1324 810 2215 264 3136 1019
internal_value=0 -0.0593566 0.0499584 -0.0211559 -0.102203 -0.0477845 0.0653463 -0.0801566 -0.00867955 -0.0317651 -0.0211162 0.0445356 -0.0666149 0.0267709 -0.0462875 0.00793097 0.0227101 0.0343602 -0.0511912 -0.0631231 0.0150906 0.0237588 -0.115856 -0.158895 0.0642307 -0.141781 -0.121766 -0.0355195 -0.0614064 0.0849904
internal_weight=0 5193.61 6599.19 2745.67 2447.94 1765.01 5227.41 1762.52 1371.78 1486.77 1339.06 2538.34 521.771 980.656 904.443 817.288 789.115 931.142 582.665 720.183 1017.35 925.102 858.075 685.425 1520.98 540.603 393.474 495.87 315.052 2689.07
internal_count=149438 50378 99060 30721 19657 17733 82297 14984 16763 15416 14372 37287 4923 12988 8710 9449 10303 12531 6460 6560 13928 12891 6274 4673 23359 3817 3007 5595 3400 45010
is_linear=0
shrinkage=0.1


Tree=5
num_leaves=31
num_cat=0
split_feature=9 8 8 1 10 10 2 10 10 2 4 11 2 9 4 4 4 4 15 4 4 4 6 9 14 2 4 4 4 4
split_gain=2815.99 630.767 530.48 279.414 229.65 207.082 158.78 148.914 140.479 133.276 132.752 108.901 100.117 99.082 87.7988 109.084 73.3396 69.7261 65.0044 60.3952 76.3126 59.549 59.3219 59.1214 58.6901 58.389 55.8819 54.6006 53.5854 53.574
threshold=0.62084960937500011 0.96279525756835949 1.4843292236328127 1.5376933813095095 0.13116455078125003 0.17352294921875003 1.8714172244071963 0.20428466796875003 0.18597412109375003 1.2966413497924807 144.00571441650393 0.64233398437500011 1.5792503356933596 0.27111816406250006 146.82503509521487 99.061836242675795 158.07572937011722 94.266613006591811 0.92561587407352097 146.82503509521487 101.5333595275879 165.58377075195315 1.8660051822662356 0.35998535156250006 114.65625000000001 2.1358504295349126 151.3532638549805 152.509391784668 96.76950836181642 151.3532638549805
decision_type=2 2 2 2 2 2 2 2 2 2 2 2 2 2 2 2 2 2 2 2 2 2 2 2 2 2 2 2 2 2
left_child=1 4 5 10 6 9 14 12 11 26 13 25 -4 -3 15 18 17 -6 -1 20 -11 -10 -17 -13 -12 -5 -2 28 -7 -9
right_child=2 3 7 8 16 27 -8 29 21 19 24 23 -14 -15 -16 22 -18 -19 -20 -21 -22 -23 -24 -25 -26 -27 -28 -29 -30 -31
leaf_value=-0.021444419576670426 0.067007010662277072 -0.068968031237491262 -0.0041192797475407186 -0.13533805017808431 -0.021020936997925135 0.052988581055556608 -0.10626768205561939 0.054015465073766714 -0.018583659720819101 -0.01561332430575162 -0.076476002373854504 -0.1128483232236604 -0.071460285305251017 0.008766597075612519 -0.091258348932645686 0.039670743472276289 -0.094268952879391132 0.05077609016248498 -0.10245323802045525 -0.060888292091816634 0.044336475876531389 -0.17896466349721371 -0.016681530093645897 -0.062412876896321016 -0.19428970354203415 -0.21752199663195093 -0.006871796359004651 0.019009558578678691 0.093001468553334923 -0.039586313297644581
leaf_weight=250.85869973152876 1327.9040959216654 247.9014016315341 559.06495200842619 496.72182370722294 172.17707066610456 403.40487954393029 267.90285765379667 383.75802339985967 223.64207291603088 339.43887592479587 254.87507634609938 709.22515279054642 364.85574445873499 484.30858173966408 160.16377345472574 361.08402567729354 46.135501578450203 630.9273661673069 163.69164158403873 97.637385882437229 567.05042583122849 25.824196524918079 387.04328899458051 345.71296565234661 50.693854436278343 104.66384861990809 110.93739928305149 127.50746031850576 1964.9729921929538 72.738815374672413
leaf_count=2409 22035 2083 6844 3266 2047 6790 2042 5679 2269 4088 1815 4463 3438 5413 1086 4824 392 9088 1247 1037 8803 185 3931 2844 366 608 1324 1583 36637 802
internal_value=0 -0.051244 0.0471782 -0.0824082 -0.0136478 0.0624959 -0.0360636 -0.0076254 -0.105144 0.0417987 -0.0406567 -0.11568 -0.0307122 -0.0175517 -0.0218458 -0.0122839 0.0283401 0.0353836 -0.053432 0.0138392 0.021888 -0.0351859 0.0105169 -0.0963202 -0.0960213 -0.149641 0.0613108 0.0827542 0.0861861 0.0391008
internal_weight=0 5383.55 6319.27 2943.57 2439.98 4938.85 1590.74 1380.42 1905.79 2442.97 1037.78 1656.32 923.921 732.21 1322.84 1162.68 849.24 803.104 414.55 1004.13 906.489 249.466 748.127 1054.94 305.569 601.386 1438.84 2495.89 2368.38 456.497
internal_count=149438 50378 99060 23312 27066 82297 15539 16763 13635 37287 9677 11181 10282 7496 13497 12411 11527 11135 3656 13928 12891 2454 8755 7307 2181 3874 23359 45010 43427 6481
is_linear=0
shrinkage=0.1


Tree=6
num_leaves=31
num_cat=0
split_feature=9 6 6 4 15 4 4 4 4 9 9 4 2 1 10 16 10 14 10 8 16 1 1 16 8 8 2 10 15 8
split_gain=2310.71 584.593 406.208 332.3 233.83 213.198 182.185 177.928 176.801 174.675 151.282 102.53 100.031 98.5422 79.7934 78.8076 76.214 73.2808 71.8056 70.9874 67.0323 62.3279 61.3651 57.3398 53.9435 51.7989 51.7874 48.4671 48.4244 46.9135
threshold=0.69018554687500011 2.3120347261428837 2.4522664546966557 95.369827270507827 0.85767403828974931 146.07149505615237 134.89544677734378 141.1926193237305 96.42883682250978 0.33898925781250006 0.28381347656250006 158.07572937011722 1.0527254939079287 1.6850371956825259 0.085357666015625014 2.8481953183757232 0.19940185546875003 32.890625000000007 0.20184326171875003 1.1079254150390627 2.8253330439329152 2.2654613256454472 2.0108572244644169 2.654515000181743 1.1252746582031252 1.9093475341796877 1.2292518615722658 0.060104370117187507 0.83449508933036443 0.88343811035156261
decision_type=2 2 2 2 2 2 2 2 2 2 2 2 2 2 2 2 2 2 2 2 2 2 2 2 2 2 2 2 2 2
left_child=1 3 8 4 22 9 10 16 13 14 -3 18 -8 -2 -5 -9 25 -11 24 -12 -14 27 -1 -16 -10 -4 -17 -6 -15 -30
right_child=2 6 7 5 21 -7 12 15 11 17 19 -13 20 28 23 26 -18 -19 -20 -21 -22 -23 -24 -25 -26 -27 -28 -29 29 -31
leaf_value=0.0064736818247268808 0.052118735326058256 -0.092977093426315452 0.018841169068899745 -0.047966299240003882 -0.1617887298806413 -0.070843591904680203 -0.061956669308451888 -0.0096188522880943494 0.07592527476762452 -0.024347961405984275 -0.00054733019502813704 -0.0020516818842230451 -0.095953985572383674 0.031515447881391233 -0.063033710603059512 -0.033418280478449282 0.058483225020133714 0.054786420347732692 0.093504035114301443 -0.054809652399252611 -0.15642517368399952 -0.20174026444538257 -0.11101252914725153 0.025566946833839539 0.036782842394579268 -0.049821377416177204 -0.13395345054145349 -0.079622238345213064 -0.0022252304890137318 -0.094086235744863397
leaf_weight=359.13382545486093 467.4002586081624 639.03487871587276 506.28369011357427 390.18477000296116 90.04179247841239 308.09174655750394 321.27968133985996 235.82336677238345 1096.3859729319811 133.00847934558988 438.79385924711823 168.06958177685738 337.51604184508324 125.58484729006886 87.014757446944714 85.704311296343803 424.29906992986798 973.48330413922668 1546.4591254107654 535.10129643604159 401.21840561926365 64.130285892635584 50.738808114081621 454.92809679359198 518.62879106774926 140.32208083570004 127.40589348971844 354.13795199617743 116.31309524551034 106.49915130063891
leaf_count=3802 7706 4246 7494 3497 615 2344 2271 2647 19182 1699 5094 1911 2119 1702 929 1076 7707 14130 30494 4155 2491 422 411 5269 7544 1331 1326 2921 1569 1334
internal_value=0 -0.0416562 0.0476204 -0.0132657 -0.0642687 0.00668996 -0.076334 0.00339734 0.0638342 0.0184074 -0.0551695 0.0740568 -0.108538 0.0221124 -0.0134847 -0.0494481 0.0255507 0.0452739 0.0781029 -0.0303615 -0.128797 -0.109584 -0.00807013 0.0113412 0.0633555 0.00394048 -0.0935223 -0.0962786 -0.0181433 -0.0461327
internal_weight=0 5937.84 5665.18 3264.89 918.183 2346.71 2672.94 1519.84 4145.34 2038.62 1612.93 3329.54 1060.01 815.797 932.128 448.934 1070.9 1106.49 3161.47 973.895 738.734 508.31 409.873 541.943 1615.01 646.606 213.11 444.18 348.397 222.812
internal_count=149438 56415 93023 36039 8171 27868 20376 21581 71442 25524 13495 59131 6881 12311 9695 5049 16532 15829 57220 9249 4610 3958 4213 6198 26726 8825 2402 3536 4605 2903
is_linear=0
shrinkage=0.1


Tree=7
num_leaves=31
num_cat=0
split_feature=9 8 8 10 9 10 13 2 10 6 2 1 10 8 2 10 12 11 9 6 4 15 4 11 4 4 4 4 4 4
split_gain=1903.98 466.508 357.25 217.942 202.712 170.852 168.862 116.686 102.153 101.935 91.0635 88.0239 75.5371 69.0182 59.9392 57.0432 51.9362 72.6973 51.7161 48.6879 66.0444 57.9473 48.2828 47.5289 45.3695 57.8927 45.1067 51.0384 44.9717 44.6536
threshold=0.70141601562500011 0.96279525756835949 1.4843292236328127 0.18145751953125003 0.33898925781250006 0.14398193359375003 38.453125000000007 1.2591463923454287 0.11819458007812501 2.5320430994033818 1.5792503356933596 1.3508158326148989 0.065521240234375014 1.9309234619140627 1.9039063453674319 0.088348388671875014 0.060699462890625007 0.56762695312500011 0.29357910156250006 1.8795478343963625 107.04673767089845 0.93926548292335965 159.86889648437503 0.59741210937500011 146.82503509521487 96.07587051391603 159.86889648437503 97.114120483398452 84.344272613525405 137.67499542236331
decision_type=2 2 2 2 2 2 2 2 2 2 2 2 2 2 2 2 2 2 2 2 2 2 2 2 2 2 2 2 2 2
left_child=1 4 5 6 10 11 12 18 14 15 19 -2 -3 -5 22 -4 17 -7 -8 20 21 -1 28 -11 25 -13 27 -18 -6 -14
right_child=2 3 9 13 8 16 7 -9 -10 23 -12 24 29 -15 -16 -17 26 -19 -20 -21 -22 -23 -24 -25 -26 -27 -28 -29 -30 -31
leaf_value=0.014449616406218488 0.065782632935986254 -0.15450720398814322 -0.02304385028192682 0.020541294358411812 -0.057196885192700955 -0.43402285266298368 -0.056083093469951828 -0.077921040933747271 0.049405733280335776 -0.081758662523633396 -0.072991121051510663 -0.0090968600019992463 -0.075772011664591993 -0.057555059383781998 -0.070916280094021053 0.041750945498512076 0.049941432840472588 0.014314907452063683 -0.0077178153155406859 -0.040831578588543041 0.040038075628142177 -0.088398516059716215 -0.092320539524695572 -0.015703027272144593 -0.038605306561609487 0.042256466712517114 0.0095117322192011869 0.089426898189958276 0.025331100843661525 -0.13752769550514884
leaf_weight=115.03884386271238 666.41607666760683 247.34665862098336 186.29443579167128 380.56848072633147 75.477284986525774 4.4364237077534225 391.75041683018208 1045.1756505593657 663.56277460977435 148.61619970202446 407.92617374658585 313.75113931670785 515.34017449989915 161.05109695345163 114.59964342787862 501.97577369213104 401.08089418336749 19.57270672917366 507.48323780670762 420.8989589959383 258.70577901601791 104.58762286603451 45.052265636622906 407.88498014956713 117.902497805655 730.98001176863909 88.926453121006489 1780.9392589479685 527.48953648656607 151.50799602642655
leaf_count=1212 12014 1414 2188 4679 665 79 2761 6968 10461 1528 3085 3854 3417 1183 967 7370 7251 376 4968 3748 3255 854 294 4335 1263 12541 1030 38194 6669 815
internal_value=0 -0.036117 0.0454341 -0.0608437 -0.0053574 0.0596062 -0.0718638 -0.0551985 0.0207143 -0.00151889 -0.0338031 0.0368068 -0.107309 -0.00268073 -0.00425036 0.0242129 0.0777771 -0.0685293 -0.0287881 -0.0160259 0.00580132 -0.0345274 0.00753925 -0.0333435 0.020198 0.0268342 0.0793239 0.082169 0.0150005 -0.0898029
internal_weight=0 6133.56 5368.78 3400.22 2733.34 4124.01 2858.6 1944.41 1426.18 1244.77 1307.16 1829.05 914.195 541.62 762.619 688.27 2294.96 24.0091 899.234 899.231 478.332 219.626 648.019 556.501 1162.63 1044.73 2270.95 2182.02 602.967 666.848
internal_count=149438 57415 92023 26205 31210 76602 20343 14697 19056 15421 12154 29672 5646 5862 8595 9558 46930 455 7729 9069 5321 2066 7628 5863 17658 16395 46475 45445 7334 4232
is_linear=0
shrinkage=0.1


Tree=8
num_leaves=31
num_cat=0
split_feature=9 10 6 6 4 4 4 4 15 6 4 8 11 15 10 10 14 2 10 16 2 0 2 16 17 15 8 9 4 10
split_gain=1570.98 387.007 334.454 289.234 173.207 214.339 151.63 127.583 126.226 118.021 87.9777 83.3902 83.195 80.1343 71.7844 66.4814 66.0569 60.774 58.0266 51.1364 48.3172 46.804 46.3686 44.1084 43.0731 42.5939 41.2057 37.1911 36.8468 36.2761
threshold=0.70678710937500011 0.19464111328125003 2.4334886074066167 2.5962541103363042 98.113426208496108 146.82503509521487 97.114120483398452 140.22053527832034 0.82227457523370673 1.5698575973510744 152.509391784668 1.7563781738281252 0.68237304687500011 0.82536688397450131 0.070892333984375014 0.19012451171875003 28.304687500000004 1.2292518615722658 0.20965576171875003 2.5272825678163255 1.7721239924430849 69.259452819824233 1.5474700927734377 2.8253330439329152 2.1532351096444811 1.2187222156334563 1.1001892089843752 0.24212646484375003 167.8305587768555 0.053146362304687507
decision_type=2 2 2 2 2 2 2 2 2 2 2 2 2 2 2 2 2 2 2 2 2 2 2 2 2 2 2 2 2 2
left_child=1 3 6 4 8 9 13 18 19 25 15 28 -5 -2 -11 26 24 -9 -4 -1 -15 -13 -10 -19 -16 -6 -8 -18 -3 -7
right_child=2 11 7 12 5 29 10 17 22 14 -12 21 -14 20 16 -17 27 23 -20 -21 -22 -23 -24 -25 -26 -27 -28 -29 -30 -31
leaf_value=-0.081824771323324691 0.055888978204161679 0.046338896616361966 0.0050418138974162013 -0.10022858081107285 0.057218257935992091 -0.13999386321499582 0.072058911914698542 0.0046741368563968299 -0.063571303338794724 -0.042563691341501675 0.0083281699567450043 -0.1413567019643063 -0.056227583165111943 0.010656447535228269 -0.11686257669702926 0.091223393535181288 -0.022606581843052764 -0.027441571970733616 0.054463298162776633 -0.002112012329238615 -0.067227460333245517 -0.0097758734752439996 -0.11746787199562797 -0.10556058653713224 -0.012582375951200346 -0.019039820513054674 0.034782933147274091 0.026829237525141769 -0.060673368305453126 -0.062055556963588235
leaf_weight=102.49308941885829 353.63243909180164 733.18030630424619 643.81402258947492 764.34461160749197 425.53517624735832 71.672567848116159 873.30377039313316 190.14818027615547 367.69220072776079 495.88234481215477 212.67022558674216 33.004059001803398 981.49079941213131 327.69500472396612 65.568940818309784 1303.7940787710249 199.01530031859875 138.90319606289268 376.50581900030375 374.65958832204342 105.23306502774358 149.42741832137108 282.08694047853351 150.68963452428579 100.04812172055244 88.472910057753325 449.02873789519072 646.64202796667814 33.652933560311794 358.0983001999557
leaf_count=874 5915 11288 9082 4662 6256 416 17242 2360 2948 4221 2602 218 6487 5330 512 30205 1631 1452 7576 3397 1271 1226 1696 1456 987 1161 7042 7294 276 2355
internal_value=0 -0.0316354 0.0429934 -0.0421238 -0.0258418 -0.0109223 0.0594251 0.00328114 -0.0582898 0.00271415 0.0701901 0.0271861 -0.0754917 0.0205727 -0.0113977 0.0751999 0.00388466 -0.03925 0.0232787 -0.0192344 -0.00827502 -0.0335804 -0.0869693 -0.0680908 -0.0538676 0.0440924 0.059401 0.0151951 0.0416426 -0.0750533
internal_weight=0 6272.97 5125.42 5323.7 3577.87 2450.94 3625.36 1500.06 1126.93 2021.16 2838.8 949.265 1745.84 786.561 1507.16 2626.13 1011.27 479.741 1020.32 477.153 432.928 182.431 649.779 289.593 165.617 514.008 1322.33 845.657 766.833 429.771
internal_count=149438 57905 91533 44897 33748 24833 69607 21926 8915 22062 57091 13008 11149 12516 14645 54489 10424 5268 16658 4271 6601 1444 4644 2908 1499 7417 24284 8925 11564 2771
is_linear=0
shrinkage=0.1


Tree=9
num_leaves=31
num_cat=0
split_feature=9 9 8 8 10 2 13 2 10 1 2 4 6 4 4 4 2 12 10 10 15 16 4 4 10 11 4 4 8 2
split_gain=1298.04 332.13 303.488 216.119 159.862 132.912 122.66 101.602 87.5463 83.3069 81.7394 67.9138 57.494 52.6777 52.5482 51.0612 50.5513 48.2013 46.7176 44.8693 43.5539 40.2773 41.2341 49.2773 39.8165 38.6346 37.7361 37.6418 36.9583 36.8629
threshold=0.70141601562500011 0.30822753906250006 1.4843292236328127 1.6454315185546877 0.16815185546875003 1.6733779907226565 28.523437500000004 1.0816116333007815 0.12542724609375003 1.3508158326148989 1.5792503356933596 153.71852111816409 1.6019261479377749 78.460567474365249 102.15532684326173 158.07572937011722 2.2261110544204716 0.060699462890625007 0.12542724609375003 0.052383422851562507 1.5478999070090829 1.6954399943351748 144.69951629638675 89.931049346923842 0.062393188476562507 0.56762695312500011 140.22053527832034 86.804977416992202 1.9309234619140627 2.3876316547393803
decision_type=2 2 2 2 2 2 2 2 2 2 2 2 2 2 2 2 2 2 2 2 2 2 2 2 2 2 2 2 2 2
left_child=1 6 4 5 9 8 -1 12 21 -2 18 14 20 -7 -9 24 19 25 -4 -5 -8 -3 23 -23 -15 -6 27 -12 -16 -11
right_child=2 3 10 16 17 13 7 11 -10 29 26 -13 -14 15 28 -17 -18 -19 -20 -21 -22 22 -24 -25 -26 -27 -28 -29 -30 -31
leaf_value=-0.10317546417606954 0.062232080051213057 -0.092745803596944121 -0.0083754731263092075 -0.1159140478235343 -0.28141892233538268 -0.15973477519414594 0.023247697629144234 -0.078222548545467993 0.046200586724963869 0.022845994444547445 -0.11746713113796776 -0.10913020181422116 -0.036864679072379017 -0.068989899565278665 -0.024228341110119154 -0.12003577834338285 -0.11554134294052541 0.077233445759663982 0.041984830898092775 -0.033237790947747731 -0.1569822274051107 -0.029878287499803365 -0.040100153871605822 0.027213260731048829 -0.0026907341163472428 0.0084669645894550373 -0.076869070618196686 -0.0053812371627170339 -0.078382163367372984 -0.04996225141467666
leaf_weight=423.44883016124368 673.4697578959167 42.478451687842607 352.21276773139834 71.610078245401382 6.1231492832303074 30.622712649405003 305.18434422835708 462.16568814218044 800.9890197776258 1150.6094759739935 33.223553724586964 246.46956115961075 622.85714552924037 114.16358033195138 605.07211396843195 51.998864255845547 99.138296779245138 1814.8497940264642 386.17359161376953 787.75942022353411 14.024445280432699 192.60856224969029 160.54701546579599 702.92997229471803 438.54953600093722 18.452104296535254 148.37845529988408 305.19260283559561 159.17771088331938 74.012015633285046
leaf_count=2344 13587 406 4253 414 78 221 3403 2893 12770 18696 334 1178 4540 874 4658 306 533 42816 6127 5477 120 1667 1105 8957 4781 376 1217 3490 768 1049
internal_value=0 -0.0281229 0.0401825 -0.00747847 0.0543411 0.00781625 -0.0535313 -0.0448265 0.021059 0.0339817 -0.00300953 -0.0612306 -0.0191793 -0.0317776 -0.0516043 -0.0252978 -0.0479272 0.0753497 0.0179628 -0.0401271 0.0153293 0.00272769 0.00656788 0.0149343 -0.0163849 -0.0637608 -0.0348211 -0.0163851 -0.0355075 0.0184457
internal_weight=0 6331.8 4962.7 3493.4 3737.52 2534.89 2838.4 2414.95 1899.55 1898.09 1225.18 1472.89 942.066 635.335 1226.42 604.712 958.508 1839.43 738.386 859.369 319.209 1098.56 1056.09 895.539 552.713 24.5753 486.795 338.416 764.25 1224.62
internal_count=149438 57415 92023 37511 76602 31087 19904 17560 24905 33332 15421 9497 8063 6182 8319 5961 6424 43270 10380 5891 3523 12135 11729 10624 5655 454 5041 3824 5426 19745
is_linear=0
shrinkage=0.1


Tree=10
num_leaves=31
num_cat=0
split_feature=9 10 6 1 6 8 10 4 6 9 16 2 4 4 4 11 4 8 4 4 14 10 15 8 8 15 18 4 12 14
split_gain=1077.14 326.236 245.231 238.862 122.134 115.653 113.128 100.509 75.9801 74.2146 72.8036 71.6786 65.779 52.8525 65.4331 49.974 48.3591 47.8106 43.6992 49.9088 42.6392 39.6553 39.5057 44.1751 39.0367 38.3088 37.7829 35.9997 35.4863 35.3587
threshold=0.79223632812500011 0.19940185546875003 2.4522664546966557 1.554665803909302 1.9860445261001589 0.70937347412109386 0.20965576171875003 149.31601715087893 2.2885563373565678 0.31530761718750006 2.8726548592196868 2.1358504295349126 100.02901458740236 85.865581512451186 138.84487915039065 0.58081054687500011 159.86889648437503 2.1505661010742192 135.52555847167972 102.73725891113283 39.171875000000007 0.065521240234375014 0.83449508933036443 1.1682434082031252 0.75706481933593761 0.86596235193062066 1.1693941672616683 82.33337783813478 0.060699462890625007 151.93750000000003
decision_type=2 2 2 2 2 2 2 2 2 2 2 2 2 2 2 2 2 2 2 2 2 2 2 2 2 2 2 2 2 2
left_child=1 3 6 4 9 13 12 17 27 24 -9 15 22 -5 -15 -7 -14 -4 19 25 -11 29 -2 -24 -1 -17 -12 -3 -8 -6
right_child=2 8 7 5 21 11 28 10 -10 20 26 -13 16 14 -16 18 -18 -19 -20 -21 -22 -23 23 -25 -26 -27 -28 -29 -30 -31
leaf_value=0.014071790823898082 0.042552371479918145 -0.033614825266971973 0.030350426278211502 -0.068821567282783921 -0.06164658559511358 -0.078985825920186339 -0.047098589907086395 -0.00022172591404580409 -0.0038332790495047711 -0.013397453651409805 -0.031621477244660419 -0.096258426434904565 0.057764864365657448 0.0044163257780329328 -0.069344476482117293 -0.031663464560396169 -0.020390218975332334 -0.03393082421646456 -0.068020866499572799 -0.014112408347978989 0.04576579239572328 -0.0235974377193677 0.010697619623345377 -0.075178750031520858 -0.037639612902287206 -0.087789579047791777 -0.13502996741918818 0.058734558444328122 0.081099792097851675 -0.21910435363530098
leaf_weight=272.43341968208551 201.35975167155266 45.59879283234477 797.80839949846268 176.13214863091707 172.96921048313379 506.39562955498695 21.960377797484398 177.83746496960521 407.27997370064259 152.7606597840786 57.651574149727821 430.54187264665961 1127.3246028870344 685.74529707804322 145.84543783217669 277.19012463092804 85.150556944310665 135.33312551677227 489.87536185234785 649.74278190359473 601.36010447517037 792.06563209742308 197.22628501430154 86.028604492545128 314.51266851276159 216.66668770089746 91.27066770195961 568.23669533059001 1287.6548507623374 15.54317309334874
leaf_count=3052 3358 603 14340 1201 1273 3188 396 1849 4959 1986 564 2423 22507 7062 1018 1931 974 1354 2771 5089 9132 6496 3062 1037 2709 1413 827 10341 32422 101
internal_value=0 -0.0225325 0.0413499 -0.0315649 -0.00658527 -0.0477727 0.056869 0.00431393 0.0296549 0.0130274 -0.0434164 -0.0590296 0.0398295 -0.0190596 -0.00851994 -0.0515392 0.0522761 0.0210277 -0.0430304 -0.0323254 0.0337812 -0.0334081 0.00868868 -0.0153843 -0.0136376 -0.0562873 -0.0949979 0.0518744 0.0789501 -0.0746293
internal_weight=0 6920.9 4266.61 5899.78 2321.64 3578.14 3006.71 1259.9 1021.12 1341.07 326.76 2570.41 1697.09 1007.72 831.591 2139.87 1212.48 933.142 1633.47 1143.6 754.121 980.578 484.615 283.255 586.946 493.857 148.922 613.835 1309.62 188.512
internal_count=149438 66748 82690 50845 24749 26096 63756 18934 15903 16879 3240 16815 30938 9281 8080 14392 23481 15694 11204 8433 11118 7870 7457 4099 5761 3344 1391 10944 32818 1374
is_linear=0
shrinkage=0.1


Tree=11
num_leaves=31
num_cat=0
split_feature=9 6 2 9 10 4 10 6 8 8 4 15 4 15 13 4 9 16 12 11 10 4 4 11 4 10 16 14 4 14
split_gain=897.585 259.397 240.288 142.609 132.293 130.453 114.945 107.131 82.7507 67.2338 64.7724 69.9208 57.3948 54.2591 52.1256 45.4163 55.508 45.4055 44.833 44.1583 42.467 41.0546 40.2172 39.1855 36.395 36.334 34.3586 32.0006 31.9586 31.8528
threshold=0.72680664062500011 2.049381017684937 1.251510798931122 0.25598144531250006 0.20428466796875003 94.266613006591811 0.077423095703125014 1.9137571454048159 0.71643447875976574 1.241355895996094 99.061836242675795 1.0023959787715881 151.3532638549805 0.82227457523370673 35.328125000000007 167.8305587768555 0.34338378906250006 2.4290107637643819 0.060699462890625007 0.63012695312500011 0.086151123046875014 149.31601715087893 146.82503509521487 0.59741210937500011 80.182998657226577 0.16644287109375003 2.8481953183757232 31.773437500000004 156.43824005126956 134.68750000000003
decision_type=2 2 2 2 2 2 2 2 2 2 2 2 2 2 2 2 2 2 2 2 2 2 2 2 2 2 2 2 2 2
left_child=2 5 3 19 9 13 14 10 17 21 11 -5 18 -2 -4 16 -10 -8 -6 -1 -9 -3 -12 -11 -18 -7 -17 -19 -16 -25
right_child=1 4 6 7 12 25 8 20 15 23 22 -13 -14 -15 28 26 24 27 -20 -21 -22 -23 -24 29 -26 -27 -28 -29 -30 -31
leaf_value=-0.075304687627300748 0.059120706703029859 0.026931781368964319 -0.10031412010714175 0.026279467315893035 -0.15255803192390216 0.058139306439680717 -0.051816015386242975 -0.035086448751599705 -0.051253115749321579 -0.064620587879095567 0.059006910560415696 -0.073066838261148556 -0.016132663285745193 -0.013239322297316261 -0.043912285511187109 -0.048118490721704342 -0.10744685083693538 -0.034427756248939116 0.060688956642767702 -0.023093878041154637 0.0045730271768197345 -0.03835876417084047 -0.011327255307245682 -0.010428171046402389 -0.0062450795293732611 0.087159456753892348 -0.13656207629576475 0.027787978888068679 -0.09313324520558583 -0.31165006628611619
leaf_weight=221.10733184218407 162.40848746523261 631.36453695967793 304.94630836695433 251.31732426583767 10.008212342858313 817.49905875697732 121.21535961702466 419.42877984046936 759.232845492661 189.72554598748684 660.06964055448771 98.653392355889082 125.64730439335108 286.31681345403194 751.50062177330256 102.3720840588212 37.627036441117525 102.10030341893435 661.14552438259125 605.88138190284371 757.82970423623919 113.64263639226556 92.717350780963898 576.21519051864743 639.3576632142067 913.56673888489604 76.933383084833622 434.45416654646397 159.99796248227358 3.5320620015263549
leaf_count=1528 3269 11494 1573 3062 182 17158 1189 3204 4492 1976 11530 891 1464 4573 5076 521 288 941 15999 4780 7748 1210 755 6529 6072 25700 378 5085 731 40
internal_value=0 0.0362521 -0.0217069 -0.00148008 0.0129128 0.0609994 -0.0397153 0.0114227 -0.0264393 -0.00444062 0.0338194 -0.0017253 0.0458965 0.0129502 -0.0645255 -0.0386135 -0.0326892 0.00346112 0.057509 -0.0370532 -0.00955669 0.0169724 0.0503442 -0.0251728 -0.0118699 0.0734546 -0.0860664 0.015949 -0.0525522 -0.0122633
internal_weight=0 4491.07 6596.74 3107 2311.28 2179.79 3489.74 2280.02 2273.29 1514.48 1102.76 349.971 796.801 448.725 1216.44 1615.52 1436.22 657.77 671.154 826.989 1177.26 745.007 752.787 769.473 676.985 1731.07 179.305 536.554 911.499 579.747
internal_count=149438 89594 59844 33498 38894 50700 26346 27190 18966 21249 16238 3953 17645 7842 7380 11751 10852 7215 16181 6308 10952 12704 12285 8545 6360 42858 899 6026 5807 6569
is_linear=0
shrinkage=0.1


Tree=12
num_leaves=31
num_cat=0
split_feature=10 9 1 4 8 6 13 2 4 14 4 4 4 6 10 10 8 4 15 4 13 1 13 14 12 18 4 15 1 10
split_gain=764.029 385.202 228.092 113.584 112.245 103.683 99.2418 72.0587 69.5616 69.3683 65.6375 62.6737 72.3261 60.2068 60.1188 53.3587 42.9308 42.659 44.915 43.5139 40.2917 39.6386 37.4601 36.4544 36.2586 34.5742 36.311 32.9786 32.4033 32.1703
threshold=0.23052978515625003 0.36389160156250006 1.5491550564765932 151.3532638549805 1.1859436035156252 1.9426649808883669 28.992187500000004 1.7902355194091799 153.71852111816409 43.671875000000007 88.611537933349624 90.78784561157228 144.00571441650393 2.2885563373565678 0.067901611328125014 0.084564208984375014 2.5874633789062504 99.061836242675795 0.9887605016357669 159.86889648437503 47.609375000000007 2.5997117757797246 187.68750000000003 33.203125000000007 0.58081054687500011 1.734348924952098 131.67408752441409 2.2585315676453592 2.0622391700744633 0.060897827148437507
decision_type=2 2 2 2 2 2 2 2 2 2 2 2 2 2 2 2 2 2 2 2 2 2 2 2 2 2 2 2 2 2
left_child=1 6 5 10 11 17 29 8 9 -8 27 21 22 -12 -11 20 -17 18 -3 -19 -6 -4 -13 -24 -15 -7 -27 28 -2 -1
right_child=3 2 4 -5 15 25 7 -9 -10 14 13 12 -14 24 -16 16 -18 19 -20 -21 -22 -23 23 -25 -26 26 -28 -29 -30 -31
leaf_value=-0.119442453784942 0.031968982363061664 0.040556747949159033 -0.020879861481270887 -0.011908916994922967 -0.082685139983548595 0.026161036196989253 -0.032670371874129717 -0.056523817969624572 -0.057307459435412947 -0.031576368264348044 0.08159176558245701 0.030488723069400182 -0.03836252468361967 0.0073766464334069351 0.021000639438538776 -0.0066952111838947705 -0.074417509975606477 0.066156927481590591 -0.043311340306074558 -0.026837902484714383 -0.031208713402992479 -0.15364876075078293 -0.56814653880438015 0.015685842418410884 0.060595307871970941 0.013353301481003813 -0.043710734678700201 -0.54013440302655258 -0.066968915895715408 -0.061970874014918298
leaf_weight=124.99767320603132 172.59062952175736 251.10166167654097 306.79773651063442 229.95363130234182 263.99950426444411 385.80656329728663 918.48098320513964 734.05322641134262 425.55087974667549 311.6333386823535 1183.5165270753205 1000.0455764196813 187.96250850148499 197.88503197953105 719.8234378695488 779.12526667118073 106.38808958977461 872.4374419040978 85.631571020931005 53.396077536046505 358.58845568820834 24.265214268118143 2.0656743086874476 2.2176442984491587 362.61477299034595 226.68078557215631 219.47544846311212 1.0833776108920563 40.958526499569416 441.10371582582593
leaf_count=589 3367 4321 3245 2589 1932 5176 6344 4021 2124 2463 33134 17041 1755 4025 7268 7955 663 19492 1262 548 3142 211 31 47 7787 3452 2318 21 688 2427
internal_value=0 -0.0114451 0.00626988 0.0545776 -0.0112643 0.0316474 -0.0361501 -0.0291391 -0.0206769 -0.0126828 0.0623834 0.00788153 0.0185698 0.0688054 0.00511558 -0.0306037 -0.0148316 0.0497081 0.019229 0.0607936 -0.0530366 -0.0306111 0.0292248 -0.265873 0.0418064 0.0042389 -0.0147179 0.0102008 0.0129928 -0.0746609
internal_weight=0 8801.63 5125.99 2188.6 3031.46 2094.53 3675.64 3109.54 2375.49 1949.94 1958.65 1523.35 1192.29 1744.02 1031.46 1508.1 885.513 1262.57 336.733 925.834 622.588 331.063 1004.33 4.28332 560.5 831.963 446.156 214.633 213.549 566.101
internal_count=149438 97827 72591 51611 36022 36569 25236 22220 18199 16075 49022 22330 18874 44946 9731 13692 8618 25623 5583 20040 5074 3456 17119 78 11812 10946 5770 4076 4055 3016
is_linear=0
shrinkage=0.1


Tree=13
num_leaves=31
num_cat=0
split_feature=9 10 6 6 14 13 13 4 4 4 4 4 15 16 2 2 15 4 4 10 10 1 9 4 4 17 11 1 16 14
split_gain=663.639 208.932 176.51 166.813 112.067 106.374 91.4196 96.382 90.8278 65.2704 59.8859 57.3821 55.7362 53.218 52.592 51.01 46.6891 44.1647 41.2409 38.9075 37.5918 36.3406 35.9151 35.8404 49.9324 34.7569 34.4006 34.1285 34.0631 32.8964
threshold=0.82104492187500011 0.083892822265625014 2.4244031906127934 2.6291095018386845 32.890625000000007 44.609375000000007 33.078125000000007 158.07572937011722 100.02901458740236 149.31601715087893 100.64112854003908 144.00571441650393 1.0256651188662012 2.8564412186490462 1.3506164550781252 2.0682588815689091 1.2002720189880487 133.32468414306643 86.340389251708999 0.19012451171875003 0.13995361328125003 0.92343905568122875 0.44104003906250006 134.56288909912112 109.2903518676758 2.7135263999276842 0.62719726562500011 2.6527812480926518 2.7876994498074059 43.296875000000007
decision_type=2 2 2 2 2 2 2 2 2 2 2 2 2 2 2 2 2 2 2 2 2 2 2 2 2 2 2 2 2 2
left_child=1 5 8 4 25 17 16 10 14 20 12 19 -8 -11 -2 21 -6 18 -1 29 26 -7 28 24 -23 -3 -4 -5 -12 -10
right_child=2 3 9 27 6 15 7 -9 11 13 22 -13 -14 -15 -16 -17 -18 -19 -20 -21 -22 23 -24 -25 -26 -27 -28 -29 -30 -31
leaf_value=-0.099191371503167702 0.044569882644210981 -0.037623466670872352 -0.045923836942961094 -0.027183806316022515 -0.0086694283209989374 0.025787607400511198 0.026480235427632417 -0.038231695008523935 0.022167219462953802 0.0068734459245175603 -0.0043347190501497402 0.019207668030962299 -0.053315041480432451 -0.072298660326650416 -0.012010311583180324 -0.070804061624168885 -0.10593215202174099 -0.10714607847859769 -0.040906250682483464 0.086915223560782517 0.04074835049547261 -0.032890118458713077 0.067385544882825013 -0.045154498113367754 0.012227435480488033 0.013417286097281218 0.015973919568498762 -0.095841002629262359 0.046208271757876208 0.067495326680321113
leaf_weight=156.58789952844381 377.48717910610139 517.79792347177863 122.36613792926073 1344.2374616526067 322.66304301656783 168.9690105766058 356.95926050655544 186.86663281545043 219.75748059898615 171.81824659183621 177.4327748529613 255.68564034253359 115.97527299076319 167.83355752006173 290.86841190420091 207.0756504535675 58.266344889998436 201.64767154678702 540.20133377611637 739.95262847654521 425.25181127525866 533.93669310957193 565.41540838591754 493.94455778226256 453.75738195329905 179.72340566851199 337.24355451390147 76.522661752998829 536.57734015211463 589.86400995403528
leaf_count=904 8291 4825 1545 10071 3248 2081 4589 1264 4445 1740 1901 4365 1089 1442 4333 1181 543 1003 3626 24728 9483 4341 12441 3064 4725 1997 4764 501 6846 14062
internal_value=0 -0.0160567 0.0360676 -0.00262798 0.0106742 -0.0376822 0.0212405 0.0300382 0.0514388 0.00501647 0.0373183 0.0630983 0.00691246 -0.0322482 0.0199462 -0.0240198 -0.0235466 -0.0659318 -0.0540045 0.0703404 0.0193204 -0.0181506 0.0485577 -0.0231614 -0.0121626 -0.0244723 -0.000505692 -0.0308817 0.0336482 0.0551918
internal_weight=0 7194.56 3698.13 4438.44 3017.68 2756.12 2320.16 1939.23 2473.62 1224.51 1752.36 1805.26 472.935 339.652 668.356 1857.68 380.929 898.437 696.789 1549.57 884.862 1650.61 1279.43 1481.64 987.694 697.521 459.61 1420.76 714.01 809.621
internal_count=149438 70240 79198 49315 38743 20925 31921 28130 60224 18974 26866 47600 5678 3182 12624 15392 3791 5533 4530 43235 15792 14211 21188 12130 9066 6822 6309 10572 8747 18507
is_linear=0
shrinkage=0.1


Tree=14
num_leaves=31
num_cat=0
split_feature=10 9 1 4 14 6 13 8 13 11 4 4 4 15 4 12 13 16 16 8 2 10 12 15 16 13 7 4 15 4
split_gain=573.854 264.609 182.521 110.123 95.9461 95.232 80.1601 75.479 64.0647 59.7938 59.6944 57.7367 54.783 44.8985 44.2876 39.4042 37.4006 37.383 37.0574 36.0886 33.7894 29.585 30.4197 29.0604 28.0677 27.8339 27.5761 26.3618 31.261 25.6418
threshold=0.23052978515625003 0.34338378906250006 1.9523380994796755 144.00571441650393 40.484375000000007 2.2885563373565678 50.171875000000007 0.56700134277343761 37.171875000000007 0.58081054687500011 152.509391784668 86.804977416992202 94.636165618896499 0.9776342028005699 170.08744812011722 0.57104492187500011 35.328125000000007 2.9534013012992308 2.4976376036750243 1.0423736572265627 1.7813631892204287 0.070159912109375014 0.83618164062500011 1.1264607341761843 3.0070656557851518 68.531250000000014 0.90597534179687511 101.84670639038087 0.86868073511846011 152.509391784668
decision_type=2 2 2 2 2 2 2 2 2 2 2 2 2 2 2 2 2 2 2 2 2 2 2 2 2 2 2 2 2 2
left_child=1 7 3 4 16 12 26 18 -5 -9 11 24 13 -2 15 -7 -3 -10 -1 -13 21 -11 -23 25 -4 -19 -6 28 -8 -14
right_child=5 2 10 8 6 14 27 9 17 20 -12 19 29 -15 -16 -17 -18 23 -20 -21 -22 22 -24 -25 -26 -27 -28 -29 -30 -31
leaf_value=-0.052921129201477762 0.052064109863274359 -0.070255037808639939 -0.041661817157617791 -0.10613623877122556 -0.02809630514249703 -0.0022625030542409402 0.066057534766722256 -0.068180552123220273 0.014222785550787804 -0.046060269916163195 -0.070444650804638215 0.013518096542289068 0.080967470725827662 -0.041284736859841284 -0.04704237403388252 0.048683792517674795 0.007849653950948221 -0.11322126282861047 0.004674820527340532 -0.022391209987970215 -0.053017764725091433 -0.025026122198263195 0.012592665991235222 0.013430278132311955 -0.12344499526759717 -0.031830471365866142 0.023262145537813382 0.065660704012375642 -0.0059903259258581708 0.019327222547939255
leaf_weight=133.01941784098744 170.95013984665275 64.935946777462959 166.65169064700603 71.872994130477309 129.70352414064109 239.38136360794306 114.58158399164677 558.25160603970289 385.5227194391191 434.48239739984274 233.44785615801811 500.22530832141638 951.36661613360047 73.753997504711151 84.09897805005312 415.02643712982535 1097.6834283787757 54.025322459638119 697.31740202382207 635.32589238323271 535.5042397081852 834.18864328041673 289.56988783553243 103.12989967502654 56.087386485189199 189.02995305508375 539.01125104539096 843.36912025511265 126.94220608659089 72.639768548309803
leaf_count=963 3687 483 1389 501 1778 4585 2183 3052 3478 2519 1442 7746 31331 1327 733 8940 16072 460 6098 5765 2631 5614 2237 1106 437 1869 8271 19854 1879 1008
internal_value=0 -0.00943964 0.00460585 0.016732 0.0257639 0.0498184 0.0405331 -0.030863 -0.0160454 -0.0391009 -0.0237322 -0.0157038 0.0664368 0.0239287 0.0212689 0.0300477 0.00348726 -0.00719612 -0.00455201 -0.00657269 -0.0313475 -0.0239003 -0.0153325 -0.0310489 -0.0622554 -0.0499217 0.0133007 0.0573188 0.02819 0.0765949
internal_weight=0 8793.88 5311.55 3719.81 2916.23 2007.22 1753.61 3482.33 803.581 2652 1591.74 1358.29 1268.71 244.704 738.507 654.408 1162.62 731.708 830.337 1135.55 2093.75 1558.24 1123.76 346.185 222.739 243.055 668.715 1084.89 241.524 1024.01
internal_count=149438 97827 74713 57934 50520 51611 33965 23114 7414 16053 16779 15337 37353 5014 14258 13525 16555 6913 7061 13511 13001 10370 7851 3435 1826 2329 10049 23916 4062 32339
is_linear=0
shrinkage=0.1


Tree=15
num_leaves=31
num_cat=0
split_feature=9 2 8 10 8 10 11 6 10 2 5 4 9 16 15 12 17 4 2 13 4 10 10 2 4 16 5 4 10 11
split_gain=487.806 162.876 153.763 87.6459 77.0292 62.3076 60.3224 54.4989 53.0449 51.6134 46.5808 45.2656 40.9089 40.3855 39.9465 38.2512 38.0133 37.9957 35.7456 36.5209 34.147 33.9299 32.6637 32.4604 30.0719 29.8737 42.5223 28.5915 27.8779 26.206
threshold=0.82104492187500011 1.1708895564079287 1.1770172119140627 0.19464111328125003 0.62385559082031261 0.11251831054687501 0.59057617187500011 1.5698575973510744 0.066314697265625014 1.3271242976188662 240.75761413574222 103.26766586303712 0.23175048828125003 2.4098308126079009 0.89722376448045804 0.83618164062500011 2.095427513122559 174.918815612793 2.4969024658203129 152.43750000000003 134.56288909912112 0.053939819335937507 0.17169189453125003 1.7087199091911318 77.360439300537124 2.9291447997093205 302.20245361328131 111.39843368530275 0.043441772460937507 0.57104492187500011
decision_type=2 2 2 2 2 2 2 2 2 2 2 2 2 2 2 2 2 2 2 2 2 2 2 2 2 2 2 2 2 2
left_child=1 3 5 6 13 16 25 11 -6 22 12 14 -9 -3 -8 18 -2 29 19 -10 27 -15 -4 -7 -25 26 -1 -17 -27 -11
right_child=2 4 9 -5 8 23 7 10 15 17 -12 -13 -14 21 -16 20 -18 -19 -20 -21 -22 -23 -24 24 -26 28 -28 -29 -30 -31
leaf_value=-0.051973549145856529 0.0031526183416854233 -0.04777387225866906 0.0086290485566348097 0.042642471244196567 -0.057156106960974777 0.070063730881532449 0.042205121184556868 -0.036991040068508819 -0.027455678129525846 -0.044138636699451089 -0.13169359712841203 0.053990363468698066 0.0056520432913415436 -0.039760735489315857 -0.039158650162587766 -0.011804178347411433 0.04688295825555204 -0.084288355268796078 -0.082198204245330406 -0.12381219226120586 -0.040812497153413695 0.014080929877212682 0.054617159496891554 -0.21219106639365146 0.035368827061232781 -0.12429367083856545 -0.35992797423495837 0.041947552408314104 -0.0035225435000423308 0.0051951783232526702
leaf_weight=249.56969971209764 364.37811034545302 168.35223166458309 397.34247157536447 496.29237141087651 757.7466744557023 1064.1101015768945 110.0624715462327 283.29373363405466 1585.9525388255715 135.81190269067883 28.770066853612661 342.34590150043368 1092.6932223606855 138.76391287520528 133.57236726209521 226.31729812920094 437.38428014144301 66.625181347131729 141.79117818176746 40.335446264594793 178.93169263750315 747.73024174943566 252.64866179972887 5.0034868195652953 253.9612296409905 20.444518614560366 4.5658038388937703 175.84935708157718 293.51953714340925 519.70723938010633
leaf_count=2035 6655 1582 6184 9967 4306 33738 1436 1789 12021 1715 203 6066 10433 1051 1228 1864 9625 475 857 305 1156 8689 6479 86 6727 178 53 1831 3190 7514
internal_value=0 -0.0133509 0.0321558 0.00418298 -0.0262223 0.0490065 -0.00327633 0.00492574 -0.0341495 0.0060616 -0.00576058 0.0305438 -0.00312749 -0.00287384 -0.00240242 -0.0267285 0.0270088 -0.0123387 -0.034044 -0.0298455 -0.00447031 0.00565303 0.0265044 0.0623367 0.0305857 -0.0320181 -0.0575063 0.011699 -0.0113868 -0.00502591
internal_weight=0 7216.9 3496.97 3055.13 4161.77 2124.84 2558.84 1990.74 3106.92 1372.14 1404.76 585.981 1375.99 1054.85 243.635 2349.18 801.762 722.144 1768.08 1626.29 581.098 886.494 649.991 1323.07 258.965 568.1 254.136 402.167 313.964 655.519
internal_count=149438 70240 79198 36578 33662 56831 26611 21155 22340 22367 12425 8730 12222 11322 2664 18034 16280 9704 13183 12326 4851 9740 12663 40551 6813 5456 2088 3695 3368 9229
is_linear=0
shrinkage=0.1


Tree=16
num_leaves=31
num_cat=0
split_feature=10 9 1 4 6 11 11 12 2 4 14 10 1 14 13 4 10 13 6 4 14 5 1 8 16 4 4 18 4 15
split_gain=430.801 193.295 141.983 76.4992 69.5435 64.4353 57.8265 57.3848 50.7431 43.9197 43.0161 40.2219 39.7238 36.8614 36.5031 36.3903 31.6244 31.147 29.7884 29.1656 34.3739 29.1103 29.7025 28.9338 26.9927 26.3009 28.6959 26.0724 25.6549 27.0425
threshold=0.25549316406250006 0.36804199218750006 1.5491550564765932 151.3532638549805 1.9426649808883669 0.69653320312500011 0.63012695312500011 0.060699462890625007 2.1909395456314091 159.86889648437503 40.859375000000007 0.056320190429687507 1.442039489746094 38.484375000000007 49.734375000000007 88.611537933349624 0.089813232421875014 141.31250000000003 2.7780406475067143 156.43824005126956 24.117187500000004 212.31057739257815 1.0421342253685 1.3289489746093752 2.7876994498074059 159.86889648437503 81.804527282714858 1.747011184692383 93.488189697265639 0.7514674393658638
decision_type=2 2 2 2 2 2 2 2 2 2 2 2 2 2 2 2 2 2 2 2 2 2 2 2 2 2 2 2 2 2
left_child=1 6 4 7 13 11 14 -2 15 10 -7 -4 -8 -3 -1 -9 -12 18 28 20 -14 27 -23 -17 -11 26 -15 -6 29 -13
right_child=3 2 5 -5 21 9 12 8 -10 24 16 17 19 25 -16 23 -18 -19 -20 -21 -22 22 -24 -25 -26 -27 -28 -29 -30 -31
leaf_value=-0.057007689200683644 -0.10814613779062715 0.0067738101255684219 -0.066430494288695588 -0.010042965988172963 0.027774000407180616 -0.0061927261472631331 0.0014116660741656313 0.018515464154476437 -0.014812495314760386 0.0013506669081728845 0.0060630443642851212 0.015341648049006982 -0.056294250189420116 -0.021294140178849005 -0.020664335024533634 0.078323395997276432 0.045753649177594502 -0.13565844549467465 -0.039895764061042664 -0.055410351376624756 -0.013516870124529935 -0.041088552584130945 -0.29324767654844114 0.042272462155122675 -0.069209812288938868 -0.019183292044376132 0.060054651696691996 -0.0082465315569916261 0.0095132133506558719 -0.061908212864105854
leaf_weight=701.19832021743059 20.952627025544643 228.88658187538385 201.51832385733724 198.26227675005794 367.72652674466372 847.12912395969033 884.76589216664433 159.63621150702238 88.494699778035283 97.087419793009758 397.46231280267239 71.632677763700485 217.15507423132658 45.795771263539791 456.14276214689016 895.22109635733068 405.60335635952652 21.842475617304444 323.17099108174443 259.62752455472946 1391.7449209019542 20.725439295172695 6.0306225772947064 296.31138257682323 122.77571168541908 49.555565636605024 816.25534875132143 443.05980304628611 477.95598117820919 123.34745934233069
leaf_count=3827 447 4442 1844 2306 5222 9832 8041 3439 2113 681 5339 759 1118 758 3236 32378 7455 253 2720 1141 8981 220 55 6864 768 508 21112 5840 6606 1133
internal_value=0 -0.00722499 0.00566464 0.0482437 0.026584 -0.00772873 -0.0239279 0.0561554 0.0585467 0.00393329 0.00952713 -0.0256125 -0.0160439 0.0426522 -0.0426837 0.0633513 0.0261095 -0.0175319 -0.0149417 -0.0243093 -0.0192906 0.00470363 -0.0979234 0.0693582 -0.0380516 0.0516606 0.0557331 0.00809033 -0.00295773 -0.0335278
internal_weight=0 8978.2 5067.56 1658.88 1978.04 3089.53 3910.63 1460.62 1439.66 1870.06 1650.19 1219.47 2753.29 1140.49 1157.34 1351.17 803.066 1017.95 996.107 1868.53 1608.9 837.542 26.7561 1191.53 219.863 911.607 862.051 810.786 672.936 194.98
internal_count=149438 101891 75547 47547 38157 37390 26344 45241 44794 24075 22626 13315 19281 26820 7063 42681 12794 11471 11218 11240 10099 11337 275 39242 1449 22378 21870 11062 8498 1892
is_linear=0
shrinkage=0.1


Tree=17
num_leaves=31
num_cat=0
split_feature=10 9 13 4 14 6 4 8 15 10 4 10 16 17 17 12 15 11 14 2 5 1 2 4 16 13 4 12 4 16
split_gain=365.179 167.777 108.252 89.2324 131.726 75.5951 74.3148 73.8891 56.9978 47.931 45.7607 41.0742 39.8899 38.743 37.0086 34.6593 33.7677 32.4991 31.1169 31.0235 32.5454 29.0773 28.4923 30.0355 28.0372 28.0003 25.547 25.0079 24.8735 24.773
threshold=0.25549316406250006 0.82495117187500011 33.546875000000007 135.86957550048831 39.484375000000007 2.2885563373565678 101.84670639038087 1.1770172119140627 0.85207353612597536 0.052383422851562507 99.712081909179702 0.061660766601562507 3.017878266172954 2.095427513122559 2.1532351096444811 0.17474365234375003 0.88701505206849185 0.65209960937500011 45.828125000000007 1.682313919067383 191.75776672363284 0.86898937821388256 2.5641937255859379 172.442985534668 3.0213710685544695 67.281250000000014 192.83109283447268 0.86987304687500011 152.509391784668 2.3903515974627898
decision_type=2 2 2 2 2 2 2 2 2 2 2 2 2 2 2 2 2 2 2 2 2 2 2 2 2 2 2 2 2 2
left_child=1 2 11 4 14 10 8 13 29 -5 16 -1 -8 18 27 25 -2 -9 -3 20 -13 -11 23 -17 -25 -7 -19 -4 -12 -6
right_child=5 7 3 9 6 15 12 17 -10 21 28 19 -14 -15 -16 22 -18 26 -20 -21 -22 -23 -24 24 -26 -27 -28 -29 -30 -31
leaf_value=-0.07291487551658335 0.059598042665926103 -0.016711171969159829 -0.037306166729577067 -0.071388896056816087 -0.042742115189762675 -0.16011884059553153 0.01600003472047656 -0.030482716427698581 -0.037235922302739886 0.02385967819432679 0.081243264759845793 -0.012087176356938038 0.051164645580046131 0.049644647974173735 -0.0044041096579046967 0.036677531595793365 -0.013134234966989455 0.012051148357228231 0.031865237127627476 -0.054143571054561225 -0.1025677702899426 -0.025549125581066336 -0.075832450603497026 -0.0027453095980906881 -0.17183185581194771 0.023006169574329268 -0.10049150287157654 0.028360499556840019 0.015314858609493696 0.034402040966130934
leaf_weight=294.51526227593422 140.13202776387334 206.90697995200753 868.96395836770535 217.37959822826087 49.591957349330187 19.178663525730371 697.9956592284143 301.30290896072984 342.47557433135808 131.38288971409202 662.54722550138831 627.24627699144185 599.79610194824636 675.18323021382093 889.86437314376235 485.6766977570951 117.23748002946377 685.8523778449744 363.61633751727641 362.41151558421552 42.443763222545385 1275.0049005374312 27.438893213868141 44.499887771904469 12.57854028791189 14.787540564313529 20.781109992414713 62.14179291203618 62.635815851390362 259.17404280044138
leaf_count=1618 3831 3717 6184 1226 470 310 8985 3642 2784 1239 27072 4502 9473 17331 8247 11421 2698 9732 8271 1976 425 8399 540 394 104 253 176 469 924 3025
internal_value=0 -0.00646578 -0.0143838 -0.00808952 0.000351714 0.0455766 0.0184196 0.0171459 -0.00914552 -0.0276881 0.0626923 -0.0399752 0.0322519 0.0334335 -0.0189868 0.0177411 0.0264669 -0.00298387 0.0142484 -0.0305757 -0.0178217 -0.0209334 0.0235869 0.028613 -0.0400074 -0.0803935 0.00874143 -0.0329236 0.0755489 0.0220117
internal_weight=0 8974.03 6720.39 5393.77 3770 1586.71 1949.03 2253.64 651.242 1623.77 982.553 1326.62 1297.79 1245.71 1820.97 604.16 257.37 1007.94 570.523 1032.1 669.69 1406.39 570.194 542.755 57.0784 33.9662 706.633 931.106 725.183 308.766
internal_count=149438 101891 59022 50501 39637 47547 24737 42869 6279 10864 34525 8521 18458 29319 14900 13022 6529 13550 11988 6903 4927 9638 12459 11919 498 563 9908 6653 27996 3495
is_linear=0
shrinkage=0.1


Tree=18
num_leaves=31
num_cat=0
split_feature=10 2 9 4 14 6 13 4 8 16 13 11 12 15 10 11 12 13 11 11 15 17 4 15 2 6 4 10 16 13
split_gain=309.538 135.56 123.006 83.7236 85.3034 76.5732 59.7337 51.6805 45.5252 40.3492 40.3907 39.4784 36.536 35.7896 34.7378 28.0812 26.8149 26.5265 25.8595 24.7455 23.3675 22.7637 22.5377 22.0857 21.3455 21.057 20.9125 23.9468 22.0785 20.9
threshold=0.22723388671875003 1.8714172244071963 0.36389160156250006 144.00571441650393 49.484375000000007 2.2885563373565678 61.078125000000007 94.636165618896499 0.56700134277343761 2.9560912867360796 69.843750000000014 0.78002929687500011 0.54565429687500011 0.89466757550023857 0.058547973632812507 0.66186523437500011 0.80688476562500011 34.859375000000007 0.57397460937500011 0.76977539062500011 2.0441274452234857 2.8622805198007311 152.509391784668 1.1892029580057815 2.4386774301528935 2.156204462051392 80.732200622558608 0.052383422851562507 3.044694667803594 86.156250000000014
decision_type=2 2 2 2 2 2 2 2 2 2 2 2 2 2 2 2 2 2 2 2 2 2 2 2 2 2 2 2 2 2
left_child=1 2 8 4 11 7 15 13 -1 -5 23 21 19 -2 -3 26 24 25 -10 29 -9 -4 -14 -11 -16 -18 28 -28 -6 -7
right_child=5 14 3 9 6 12 -8 20 18 10 -12 -13 22 -15 16 -17 17 -19 -20 -21 -22 -23 -24 -25 -26 -27 27 -29 -30 -31
leaf_value=0.0063469721701654826 0.050423506058513978 -0.059547932156854499 -0.019315817710474019 0.0042524145236959524 -0.032071548204780441 -0.072926224998278458 0.061109152821750917 0.071070188540766382 -0.043344191589343516 -0.10803662647390103 -0.018141759444198994 0.018893398872086839 0.041802107064106836 -0.02950465918069416 -0.025943103741635304 0.035844423084639594 -0.12189705366719572 0.0071513904753961023 -0.016860609346550631 0.014557091211735516 -0.037638070169780664 0.026960291660965148 -0.01235572361484254 -0.0015749169319631572 -0.061878822070819267 -0.024736197031807558 -0.057271432099132893 0.01637710487280342 -0.25086590172691353 0.02770932805145486
leaf_weight=740.61974995210767 124.45477600954473 347.2813749872148 679.16452879831195 457.34491041116416 16.173635289072994 91.735334780067205 602.05537475459278 803.56325654312968 460.68762924149632 98.496769070625305 278.83719540387392 842.44887757487595 363.95872935466468 101.88357379287481 650.72589532658458 465.80254388228059 27.229594677686691 387.58376333862543 1846.3654334694147 117.04871401563287 20.272546296939254 126.02349244430661 97.403915263712406 24.291794849559665 221.57581679709256 123.34932669438422 52.323135295882821 282.58990466780961 6.4519191049039355 26.626823863014579
leaf_count=6709 3185 2242 8838 4048 178 1506 16593 31979 2556 744 2824 13334 9188 1912 5041 8596 167 3547 11960 2322 694 1974 902 219 1595 768 634 4594 69 520
internal_value=0 -0.0063961 -0.000145311 0.0115422 0.019257 0.039714 0.0371697 0.0567675 -0.0152242 -0.0160579 -0.039186 0.00376038 0.0140111 0.0144448 -0.0312168 0.0196644 -0.0242412 -0.0066869 -0.022149 -0.0180459 0.0683951 -0.0120729 0.0303682 -0.0869748 -0.0350712 -0.0423061 -0.00141494 0.00487107 -0.0944631 -0.0502872
internal_weight=0 8737.42 6979.68 3932 3073.03 1746.95 1425.4 1050.17 3047.67 858.971 401.626 1647.64 696.774 226.338 1757.75 823.341 1410.46 538.163 2307.05 235.411 823.836 805.188 461.363 122.789 872.302 150.579 357.539 334.913 22.6256 118.362
internal_count=149438 97230 83870 62645 54810 52208 30664 37770 21225 7835 3787 24146 14438 5097 13360 14071 11118 4482 14516 4348 32673 10812 10090 963 6636 935 5475 5228 247 2026
is_linear=0
shrinkage=0.1


Tree=19
num_leaves=31
num_cat=0
split_feature=9 10 8 8 16 4 4 14 2 13 13 10 13 4 10 8 4 15 17 1 5 4 4 6 2 6 16 10 4 17
split_gain=270.646 112.057 92.9427 87.7556 86.6662 63.555 66.1927 49.5044 42.3067 41.6334 36.5399 32.3543 30.5886 30.4276 29.5648 28.2957 27.088 26.1775 26.0396 25.7768 24.7697 24.4789 24.2566 21.2363 20.9759 20.8703 20.6539 20.5271 20.4 20.3958
threshold=0.87622070312500011 0.078948974609375014 1.1770172119140627 1.4251785278320315 2.697056116657802 151.3532638549805 84.344272613525405 43.296875000000007 1.2966413497924807 40.640625000000007 33.546875000000007 0.043441772460937507 158.31250000000003 104.1176109313965 0.10171508789062501 2.4013061523437504 172.442985534668 0.80604666047141349 1.8219299316406252 1.9523380994796755 240.75761413574222 145.35249328613284 151.3532638549805 1.6420985460281374 1.088859558105469 0.78852173686027538 2.6728221570425714 0.16644287109375003 133.32468414306643 1.6277262290292465
decision_type=2 2 2 2 2 2 2 2 2 2 2 2 2 2 2 2 2 2 2 2 2 2 2 2 2 2 2 2 2 2
left_child=1 9 8 4 12 6 17 -8 22 11 21 23 -3 20 29 -16 -15 -6 -11 -5 -10 -9 27 -1 -12 -19 -17 -2 -13 -4
right_child=2 3 14 19 5 -7 7 10 13 18 24 28 -14 16 15 26 -18 25 -20 -21 -22 -23 -24 -25 -26 -27 -28 -29 -30 -31
leaf_value=-0.2308587470461673 0.046455132205595245 -0.0117855978357225 -0.043669176477769078 -0.007762141076978488 0.01548862833559617 -0.030395739181131094 0.010197264618866785 0.013336920489307803 0.00027134536242947015 -0.033298979918928211 0.069318829622422765 -0.02648439050176396 -0.091860012584932232 0.046571866003519563 0.026534288322553147 0.019275284010015662 -0.058009771823745962 -0.19266243229444047 -0.0085603079399707675 -0.031632568394828857 -0.50309659811120344 -0.25709220830662249 0.0075308887237352786 -0.0789634768008321 0.03909287910285314 -0.039617824977032486 -0.077128454483566755 0.077705549614549632 -0.071192459390237564 0.00093968796626764948
leaf_weight=9.9620837271213514 417.62636591307819 770.58917734585702 151.02136594988406 1278.8609191719443 107.97568282671273 213.75356293842196 578.95627816021442 212.15576774440706 273.81401565857232 663.19129017181695 478.40073359757662 489.58381300233305 50.854142159223557 431.49073036015034 620.1461999155581 40.557570409029722 26.274712312966585 9.5715743824839574 1187.0623362082988 700.00795636884868 0.98107714019715686 3.4008873011916867 89.892113149166107 121.00344748795033 441.45849149115384 128.97575745359063 49.162252474576235 423.17659952677786 128.939826708287 318.96938814967871
leaf_count=75 12363 9208 1458 9933 1290 1527 7909 2731 5237 4596 11949 3056 603 12732 13508 394 230 89 10873 4092 18 30 1359 680 7875 1041 414 19337 631 4200
internal_value=0 -0.00865624 0.0275271 0.000136143 0.0109299 0.0213829 0.0270272 0.0339944 0.0427552 -0.0254817 0.0461287 -0.045365 -0.0167429 0.0247786 0.00605992 0.0189403 0.0405691 -0.0214237 -0.0174275 -0.0162061 -0.00152579 0.0090703 0.0569048 -0.0905176 0.0548128 -0.0501909 -0.0335494 0.0621835 -0.0358044 -0.0133944
internal_weight=0 7574.7 2843.11 4974.96 2996.09 2174.65 1960.9 1714.37 1663.26 2599.74 1135.42 749.489 821.443 732.561 1179.86 709.866 457.765 246.523 1850.25 1978.87 274.795 215.557 930.695 130.966 919.859 138.547 89.7198 840.803 618.524 469.991
internal_count=149438 78188 71250 58277 44252 34441 32914 30494 51276 19911 22585 4442 9811 18217 19974 14316 12962 2420 15469 14025 5255 2761 33059 755 19824 1130 808 31700 3687 5658
is_linear=0
shrinkage=0.1


Tree=20
num_leaves=31
num_cat=0
split_feature=10 11 1 6 9 13 4 4 9 15 4 16 4 17 14 14 1 15 10 8 12 10 4 6 13 10 16 16 18 4
split_gain=234.619 112.719 92.4496 59.9931 55.4726 55.1401 48.3616 73.8462 46.1799 42.1712 41.7131 38.7313 38.4146 31.908 32.0567 28.6457 28.5007 27.7795 27.7573 26.5077 26.2186 25.9465 24.7283 24.6916 24.0231 22.6428 21.7533 21.5963 20.3444 19.9947
threshold=0.25549316406250006 0.69116210937500011 1.2746729254722597 2.2885563373565678 0.25866699218750006 34.421875000000007 135.52555847167972 99.712081909179702 0.34753417968750006 0.83449508933036443 99.712081909179702 2.9508130922913556 161.57414245605472 2.7405916770272936 27.007812500000004 43.671875000000007 1.9093829393386843 0.76343263788417459 0.043441772460937507 1.067253112792969 0.54565429687500011 0.084564208984375014 150.27407836914065 2.9526038169860844 47.609375000000007 0.096649169921875014 2.9813026189804082 3.1339563449197496 1.5607821067147933 84.344272613525405
decision_type=2 2 2 2 2 2 2 2 2 2 2 2 2 2 2 2 2 2 2 2 2 2 2 2 2 2 2 2 2 2
left_child=1 5 8 10 -4 18 7 9 -3 -6 16 -11 13 14 -7 -9 -2 -14 -1 -13 -5 -16 -12 26 -8 -17 -20 -19 -23 -15
right_child=3 2 4 20 6 12 24 15 -10 11 22 19 17 29 21 25 -18 27 23 -21 -22 28 -24 -25 -26 -27 -28 -29 -30 -31
leaf_value=-0.096476470665653874 0.039525982848520727 0.0046000616783871337 -0.024479308356212856 -0.013967275105662908 0.010987030878509498 -0.0379427420795534 -0.054870305524510748 0.010674388342305569 0.043814615704334731 -0.0055344093651123272 0.076611527920674521 -0.034005781826289376 -0.001549161573747988 -0.041839838486808473 -0.020197500304653226 0.022836456479544871 -0.04194970454414261 -0.056335565300624474 -0.038464599497310209 -0.10437831085978864 0.030209286944509695 -0.017221878621417663 0.010567069912276629 -0.05640256440581657 -0.009565138380164491 0.058397411825023199 -0.0026932675066525789 -0.25241295290064436 0.020105584182740929 0.025966060498666656
leaf_weight=74.689608542248607 183.17311435565352 502.8052273504436 933.02565881609917 212.11295685917139 430.77879934757948 363.22058648057282 138.18855763226748 724.60969799570739 745.63362824171782 253.60906699858606 543.94988648965955 130.95268885977566 117.66848030686378 48.875216571614146 559.629144994542 398.83745830878615 56.077924326062202 226.05778355151415 385.13135501369834 90.529715223237872 366.43588176369667 209.66099497303367 63.2880401276052 316.78343075700104 764.75761163048446 324.92475467734039 304.34312090277672 5.7603915780782691 480.96804190054536 394.63598064891994
leaf_count=442 5403 4760 5371 4067 4769 3013 950 9123 17172 2408 26885 1417 695 493 5679 6039 1126 1343 2845 751 8955 2470 1111 1770 6791 7276 2612 33 7487 6182
internal_value=0 -0.00486344 0.00413518 0.0388315 -0.00298142 -0.0188968 0.00317667 0.010723 0.0280211 -0.0116717 0.0557943 -0.0322171 -0.0104694 -0.00526162 -0.0117915 0.0247295 0.0204289 -0.0411214 -0.0376584 -0.0627702 0.0140129 -0.00419411 0.0697282 -0.0332927 -0.0164987 0.0388011 -0.0226747 -0.0612078 0.00877372 0.0184938
internal_weight=0 8926.08 5438.65 1425.04 4190.21 3487.42 3257.19 2354.24 1248.44 905.87 846.489 475.091 2406.48 2056.99 1613.48 1448.37 239.251 349.487 1080.95 221.482 578.549 1250.26 607.238 1006.26 902.946 723.762 689.474 231.818 690.629 443.511
internal_count=149438 101891 66827 47547 44895 35064 39524 31783 21932 9345 34525 4576 27395 25324 18649 22438 6529 2071 7669 2168 13022 15636 27996 7227 7741 13315 5457 1376 9957 6675
is_linear=0
shrinkage=0.1


Tree=21
num_leaves=31
num_cat=0
split_feature=9 2 8 8 10 6 4 16 10 17 14 14 4 8 11 4 11 4 17 6 8 16 4 15 4 16 4 13 4 4
split_gain=201.657 84.0924 75.8891 73.9997 44.5622 39.6126 44.4846 37.4206 35.1145 32.3261 28.9234 28.5082 30.2062 28.3695 26.8268 25.8119 26.2221 24.8492 23.7755 22.9462 36.9661 22.5596 22.1354 35.544 21.3885 32.4108 23.0834 21.7415 21.1128 33.5485
threshold=0.87622070312500011 2.1358504295349126 1.1770172119140627 0.85411262512207042 0.078216552734375014 2.5114499330520634 101.22731781005861 2.5915398076176648 0.086883544921875014 2.7993392944335942 151.93750000000003 31.773437500000004 146.82503509521487 1.9309234619140627 0.74536132812500011 192.83109283447268 0.65844726562500011 132.47436523437503 2.3912417014413561 0.7336612641811372 0.28780364990234381 2.9680209477716173 103.26766586303712 1.0280454631088596 89.468353271484389 2.9320674578296111 155.03352355957034 158.31250000000003 109.2903518676758 129.28956604003909
decision_type=2 2 2 2 2 2 2 2 2 2 2 2 2 2 2 2 2 2 2 2 2 2 2 2 2 2 2 2 2 2
left_child=1 3 5 4 -1 6 18 -6 10 13 28 -9 22 24 17 16 -4 -11 19 20 -2 -17 23 -13 -10 27 -27 -26 -5 -30
right_child=2 -3 15 8 7 -7 -8 11 9 14 -12 12 -14 -15 -16 21 -18 -19 -20 -21 -22 -23 -24 -25 25 26 -28 -29 29 -31
leaf_value=-0.0085013487269708834 -0.75985082612084753 -0.038335222182328363 -0.015145413506058816 -0.035100318853465269 -0.0091279358020391436 0.010148483314544973 0.060909300544003113 -0.0031343190585752011 -0.028167613902094379 0.019727619625926229 -0.097416957833204892 0.038665903428203037 -0.0087647781343916896 -0.025697409960732571 0.04489809552928091 -0.015204775131108378 0.017825973406996324 -0.050692571972964784 0.047840552778091655 0.0011340029972959987 0.032382416812513852 -0.18176798591024973 0.052831192515712555 -0.03678950523567686 -0.0074044448991665048 0.030564160053442781 -0.032383673866545476 -0.097681216995266329 0.010926121519499534 -0.02565858158762915
leaf_weight=886.72482253052294 1.0367260500788682 783.74530465714633 348.90836850181222 626.7026250269264 365.02958209998906 369.12605050206184 810.72138120979071 252.731051992625 234.97386959940195 147.19404460117221 50.367133198305964 264.13729336485267 141.66256130859256 708.4092185292393 221.16164875216782 20.687365349382162 781.43325490318239 75.972480218857527 167.83604616858065 213.91842719726264 1.36372141726315 13.397771015763281 576.45693050138652 81.750761432573199 511.70343667082489 464.90704647265375 66.601103149354458 28.144279984757304 400.12569083459675 670.97965103946626
leaf_count=8863 24 5272 5313 4078 4631 8452 33420 3110 2027 1825 387 4185 1195 4162 2794 179 14389 586 4613 4732 35 93 14039 907 5541 6821 416 282 3238 3829
internal_value=0 -0.0073237 0.0243915 -0.00373661 0.00963847 0.0387818 0.0476274 0.0192028 -0.011902 -0.00419915 -0.0227372 0.0270567 0.034228 -0.00958351 0.0202154 0.0050631 0.00764853 -0.00424549 0.0195972 -0.00231608 -0.309774 -0.0806754 0.0408312 0.020832 -0.000845113 0.00514736 0.0226764 -0.0121109 -0.0205218 -0.0119919
internal_weight=0 7559.48 2728.43 6775.74 2568.49 1564 1194.88 1681.77 4207.24 2459.07 1748.18 1316.74 1064.01 2014.74 444.328 1164.43 1130.34 223.167 384.155 216.319 2.40045 34.0851 922.345 345.888 1306.33 1071.36 531.508 539.848 1697.81 1071.11
internal_count=149438 78188 71250 72916 36930 51276 42824 28067 35986 24454 11532 23436 20326 19249 5205 19974 19702 2411 9404 4791 59 272 19131 5092 15087 13060 7237 5823 11145 7067
is_linear=0
shrinkage=0.1


Tree=22
num_leaves=31
num_cat=0
split_feature=10 9 1 12 4 4 15 16 16 6 5 13 4 4 13 4 8 11 0 14 14 6 14 10 8 2 2 16 15 16
split_gain=180.289 94.9735 94.2588 58.2708 57.5492 80.83 51.8754 46.5213 42.6365 40.4784 44.1713 38.3441 35.2733 38.3467 34.6932 31.1319 28.8467 26.9545 26.6856 25.4653 22.0771 22.0287 21.7966 23.1451 21.538 21.421 21.3313 20.7779 20.6788 45.3911
threshold=0.30822753906250006 0.25598144531250006 1.2615092396736147 0.17474365234375003 135.52555847167972 106.2676467895508 0.83449508933036443 2.987613441544124 3.0124912112951283 1.5097581148147585 198.0510177612305 47.609375000000007 161.57414245605472 88.611537933349624 40.640625000000007 88.611537933349624 1.4022369384765627 0.78393554687500011 77.145603179931655 40.140625000000007 171.06250000000003 2.442675113677979 30.132812500000004 0.096649169921875014 0.74341201782226574 1.5629794001579287 2.3876316547393803 2.4290107637643819 1.0952491021550281 2.9347837736182893
decision_type=2 2 2 2 2 2 2 2 2 2 2 2 2 2 2 2 2 2 2 2 2 2 2 2 2 2 2 2 2 2
left_child=1 26 9 17 5 6 18 24 20 14 -11 27 13 25 -3 -10 -15 -2 -4 -16 -8 -20 -9 -24 -7 -5 -1 -6 29 -13
right_child=3 2 4 12 11 7 8 22 15 10 -12 28 -14 16 19 -17 -18 -19 21 -21 -22 -23 23 -25 -26 -27 -28 -29 -30 -31
leaf_value=-0.020511766587673459 -0.10997063091023043 -0.038256533283335302 -0.017826284831838481 0.02946430053359695 -0.0081692166411859047 0.024078994073775506 -0.010736226267884626 0.003060900827795194 -0.0923007886565861 0.018013283252270033 -0.050803765998175411 -0.00073824988031793038 -0.014628703465439721 0.069068110630779209 0.0017799401469954939 -0.032689915998625169 0.026274539912131578 0.017964537768733024 0.030698268777083343 0.057954845358796553 -0.24447938293253993 -0.0056384725954297041 0.025833919762155735 0.062468032922247674 -0.0068381564762156136 -0.057412110305255198 -0.06445021172386102 -0.06296196125974389 0.0047338286148045161 -0.0510518230784082
leaf_weight=1836.1681993678212 36.219706005416811 49.178235772065818 358.02384676970541 79.744161741808057 92.859981335699558 323.75798336882144 689.07240403350443 185.58117199130356 135.0493119508028 766.57328899670392 106.19214200414717 417.13335990626365 91.195186510682106 620.12880942225456 95.850054072216153 249.40911745280027 211.15825955010951 30.199498475529253 407.48030804656446 510.49503165390342 4.064597198739647 282.50855344347656 401.05084195919335 302.57118712272495 741.09993320051581 44.06434958614409 117.56557384878397 271.71451875660568 457.73709584772587 314.49831995833665
leaf_count=11307 766 900 3134 2160 537 6707 7192 2163 1031 11513 1325 3380 978 30280 1846 3122 5324 858 5566 15169 44 2764 5641 6887 8718 811 548 1725 4355 2687
internal_value=0 -0.00361284 0.00171838 0.0390257 -0.00425687 0.00198092 -0.011515 0.0166616 -0.0269211 0.0237445 0.00964009 -0.0206334 0.0447915 0.0504651 0.0425231 -0.0536295 0.058198 -0.051801 0.00432608 0.0490748 -0.0121069 0.0158206 0.0335466 0.0415873 0.00256185 -0.00145565 -0.0231558 -0.0490058 -0.0119364 -0.022366
internal_weight=0 9115.64 7161.9 1112.71 5633.61 4079.67 2125.61 1954.06 1077.6 1528.29 872.765 1553.94 1046.29 955.096 655.523 384.458 831.287 66.4192 1048.01 606.345 693.137 689.989 889.203 703.622 1064.86 123.809 1953.73 364.575 1189.37 731.632
internal_count=149438 108261 96406 41177 65653 52969 22853 30116 11389 30753 12838 12684 39553 38575 17915 4153 35604 1624 11464 17015 7236 8330 14691 12528 15425 2971 11855 2262 10422 6067
is_linear=0
shrinkage=0.1


Tree=23
num_leaves=31
num_cat=0
split_feature=10 2 11 4 14 12 10 16 15 9 4 6 4 13 6 0 1 5 4 16 16 5 12 17 2 6 15 6 6 5
split_gain=152.556 85.3618 65.3453 49.1226 51.9727 47.9278 44.2593 44.2244 40.3981 38.8246 34.4523 34.2747 31.9731 25.7552 24.9448 23.9734 23.6318 23.0688 21.4691 23.5481 21.0393 20.9105 22.3934 27.107 20.804 19.8857 19.0407 19.0272 18.94 18.92
threshold=0.32019042968750006 0.82642364501953136 0.65209960937500011 144.69951629638675 39.828125000000007 0.17474365234375003 0.10708618164062501 2.8204495946513579 1.1336423577326487 0.54272460937500011 86.340389251708999 2.2885563373565678 95.007148742675795 66.781250000000014 2.5854161977767949 187.55977630615237 1.2810457944869997 173.06816864013675 80.732200622558608 2.8103226145082201 2.6816017498546327 212.31057739257815 0.83471679687500011 2.7607040405273442 2.5641937255859379 2.4061372280120854 0.89466757550023857 2.1992981433868413 1.3343377113342287 263.69082641601568
decision_type=2 2 2 2 2 2 2 2 2 2 2 2 2 2 2 2 2 2 2 2 2 2 2 2 2 2 2 2 2 2
left_child=1 9 14 4 21 13 10 -5 -9 -1 -6 12 26 -2 15 18 -11 24 19 -3 -12 22 23 -4 -13 -19 -7 -10 -17 -18
right_child=5 2 3 7 6 11 -8 8 27 16 20 17 -14 -15 -16 28 29 25 -20 -21 -22 -23 -24 -25 -26 -27 -28 -29 -30 -31
leaf_value=0.0029203205210690166 -0.10504179450069151 0.00084713650000486473 -0.017926239889526373 0.0031243120775689783 -0.043957885418585571 0.051725805243572211 0.034985929958510076 -0.059170346205836659 0.044073143507065538 0.043819550125888729 -0.021127310599421134 0.028868785964317713 0.071817341773584564 0.017586669615920324 -0.034740440009527078 -0.0074924037050612628 0.012990993613335581 -0.49006333381915512 -0.0068060440019272472 -0.085776953883367868 0.016788310709584333 -0.12942964443231406 0.016824613552124525 0.027650623116015901 -0.074319572801530828 -0.068915694985098905 -0.02356229907893324 -0.023813184359794209 -0.13729043288006623 -0.33586210066111016
leaf_weight=1416.4922104664147 34.11128940153867 53.696762630715966 1243.9136702306569 416.14794472791255 137.05188773944974 71.015579678118229 710.62176292948425 370.6872400790453 59.871001208201051 505.52843156270683 180.30387866683304 367.61061405576766 437.79038843885064 34.397960209287703 967.80582661181688 19.02427835483104 416.80898504331708 1.499021004885434 1160.0150318555534 75.514828983694315 777.17860910855234 14.246131717227398 303.82980219367892 145.78859168011695 20.635023722425103 4.4479365516453981 63.74323258176446 133.00876438058913 27.481845996342599 1.5604785848408926
leaf_count=13852 662 391 12259 2760 999 2302 14051 2356 603 15054 1912 9709 24492 949 6435 393 8434 26 13120 536 10259 200 3016 1630 441 68 1371 776 347 35
internal_value=0 -0.00314906 -0.00882126 -0.00179991 0.0037222 0.0373551 0.0155529 -0.0216003 -0.0398575 0.0133223 0.00293611 0.0430829 0.0587065 -0.043471 -0.0225152 -0.0136574 0.0292702 0.0203904 -0.0111129 -0.0497784 0.00964841 -0.00878311 -0.00776822 -0.0131449 0.0233844 -0.175072 0.0161132 -0.00274087 -0.0841939 0.0116898
internal_weight=0 9136.58 6796.19 4492.65 3512.93 1035.25 1805.16 979.715 563.567 2340.39 1094.53 966.742 572.549 68.5092 2303.54 1335.73 923.898 394.193 1289.23 129.212 957.482 1707.78 1693.53 1389.7 388.246 5.94696 134.759 192.88 46.5061 418.369
internal_count=149438 109418 72043 50821 44326 40020 27221 6495 3735 37375 13170 38409 28165 1611 21222 14787 23523 10244 14047 927 12171 17105 16905 13889 10150 94 3673 1379 740 8469
is_linear=0
shrinkage=0.1


Tree=24
num_leaves=31
num_cat=0
split_feature=9 10 12 6 4 4 9 4 13 2 17 11 13 16 4 16 16 5 10 13 8 15 13 18 17 8 13 16 13 17
split_gain=136.261 61.2202 64.6369 59.4976 53.0122 46.3946 36.7216 35.7001 35.4434 31.9851 29.4521 25.9729 24.823 23.008 22.2472 21.8733 21.4052 20.822 19.9414 19.6365 19.5824 19.3372 35.5205 20.4398 36.2993 19.0674 23.0536 18.8575 33.4822 20.36
threshold=0.87622070312500011 0.060897827148437507 0.83618164062500011 1.9496895074844363 102.15532684326173 158.07572937011722 0.25598144531250006 150.27407836914065 33.546875000000007 1.1485506892204287 1.3495483398437502 0.65209960937500011 35.328125000000007 2.7053802683949475 80.732200622558608 2.7992147860401357 2.8649724761592315 198.0510177612305 0.12216186523437501 38.453125000000007 1.1252746582031252 1.7414508598767076 250.31250000000003 2.4353942871093754 2.1429252624511723 0.46962022781372076 154.31250000000003 2.9560912867360796 100.53125000000001 2.9544957319842742
decision_type=2 2 2 2 2 2 2 2 2 2 2 2 2 2 2 2 2 2 2 2 2 2 2 2 2 2 2 2 2 2
left_child=1 12 6 4 10 8 -3 11 -4 13 -2 -5 -1 17 -10 -16 -7 -8 -13 -19 -15 -6 -23 24 -24 -11 -27 -9 29 -29
right_child=3 2 5 7 21 16 9 27 14 25 -12 18 -14 20 15 -17 -18 19 -20 -21 -22 22 23 -25 -26 26 -28 28 -30 -31
leaf_value=-0.048198793558806685 -0.058781975266862865 -0.023807707970717403 -0.003364570904732109 -0.0044240760737245029 0.063885301716867557 0.005346999882075161 -0.0048754030813272717 0.0016922434638332578 -0.034431929740032258 0.011060206307252074 0.022336819238459496 0.011895705465692796 -0.017187973375805594 0.031602197240269227 0.011699504060898673 0.043654788048222454 -0.053787750310195261 -0.34071300996756476 0.04176997417109872 -0.06686398915978968 0.0020008949276110635 0.010346661361061804 -0.1706579845051259 0.10344139584135788 -1.2221329338048268 -0.013210470456384925 -0.087229501551289876 -0.068835431409534756 0.0071563637756261794 -0.24119312651889363
leaf_weight=337.2768775690347 52.815757284872234 1101.6082843989134 416.16115925740451 377.12093054223806 548.66914018243551 117.29908638074994 359.23569175601006 233.6094736289233 49.562447117641568 333.80626021232456 293.38346145302057 445.77289939299226 1099.8811494149268 496.89981349278241 304.68544594943523 721.30980463884771 128.01602092385292 2.9836798654869225 447.99453095253557 21.389609427191317 406.15225242823362 31.791839050129056 0.72168054245412239 0.49632874224334944 0.60235993005335331 1585.8922006096691 43.224537345580757 84.330675542354584 75.203645085915923 7.4598244950175276
leaf_count=1854 920 6606 3517 7765 26655 648 4011 2436 435 4833 7869 7647 8774 10969 3866 12447 682 34 15167 386 4690 1221 24 21 23 14099 337 682 752 68
internal_value=0 -0.0059015 -0.00151932 0.0206533 0.0409502 0.0147885 -0.00802953 0.00937869 0.0214159 -0.00268073 0.00996143 0.0175838 -0.0244657 0.00957331 0.0310042 0.0341652 -0.0255121 -0.0109439 0.02687 -0.100387 0.0182889 0.0593748 -0.0142521 -0.443857 -0.649017 -0.010713 -0.0151744 -0.0166516 -0.0423129 -0.082843
internal_weight=0 7525.38 6088.23 2599.97 928.481 1737.03 4351.19 1671.49 1491.72 3249.58 346.199 1270.89 1437.16 1286.66 1075.56 1026 245.315 383.609 893.767 24.3733 903.052 582.281 33.6122 1.82037 1.32404 1962.92 1629.12 400.604 166.994 91.7905
internal_count=149438 78188 67560 71250 36733 21595 45965 34517 20265 39359 8789 30579 10628 20090 16748 16313 1330 4431 22814 420 15659 27944 1289 68 47 19269 14436 3938 1502 750
is_linear=0
shrinkage=0.1


Tree=25
num_leaves=31
num_cat=0
split_feature=10 2 9 11 12 1 6 4 14 16 4 10 12 10 4 15 4 13 10 17 12 16 13 10 0 3 12 11 16 4
split_gain=117.305 75.3839 60.334 52.5161 43.6226 39.2153 30.4992 27.023 31.7099 26.0118 25.1709 22.6001 24.3709 21.9562 21.8892 20.8934 20.5699 20.5214 20.2119 21.5237 19.6573 19.082 18.1218 18.2411 20.0271 17.8485 16.2275 15.8644 21.1499 15.7786
threshold=0.35192871093750006 1.8714172244071963 0.30822753906250006 0.77807617187500011 0.060699462890625007 1.2746729254722597 2.2808618545532231 141.70013427734378 49.484375000000007 2.4290107637643819 95.007148742675795 0.067108154296875014 0.83618164062500011 0.11526489257812501 86.804977416992202 0.89466757550023857 87.728363037109389 145.93750000000003 0.046463012695312507 2.2995516379647936 0.61010742187500011 3.0992760082059587 31.242187500000004 0.051559448242187507 224.81836700439456 0.85380482673645031 0.95043945312500011 0.76977539062500011 3.077417951320307 136.56656646728518
decision_type=2 2 2 2 2 2 2 2 2 2 2 2 2 2 2 2 2 2 2 2 2 2 2 2 2 2 2 2 2 2
left_child=1 2 11 7 27 -5 10 8 -4 -10 15 -1 -13 16 -3 -6 21 18 29 20 -20 -11 -9 24 -24 -23 -17 28 -2 -16
right_child=4 14 3 5 6 -7 -8 22 9 13 -12 12 -14 -15 17 26 -18 -19 19 -21 -22 25 23 -25 -26 -27 -28 -29 -30 -31
leaf_value=-0.026485510261805387 -0.090401889251907078 -0.045968191589999013 -0.0078595441686848243 0.041567647352879905 0.057737498386415488 0.011788327525590137 0.017927125150811622 -0.066069980158795255 -0.0281943414381116 -0.014533375441336408 0.06909873785057849 -0.011870100801677759 0.013826605197814671 0.04382267425859597 -0.02634840199370769 -0.018896701039491134 0.019149304307423183 -0.097564550115257886 -0.052281291872394713 0.014846049764058837 -0.011977017645178145 -0.2634282863509238 -0.050656070504085819 -0.0067755297496746164 -0.28653094019176567 -0.027359009555073782 -0.44612687835021475 0.0079424389558980426 -0.38809806113533785 -0.099752804149528446
leaf_weight=650.26686087995768 17.930167220532898 281.70655727386475 984.07096634246409 610.88968286756426 61.164025653153658 1601.4724004892632 360.35531219094992 72.70664647873491 109.83652814291418 66.182111157104373 371.87216588016599 1344.8500340729952 508.67629802972078 328.12195862643421 82.904560059309006 59.071978921070695 451.64854332618415 30.094087868928909 136.70788764301687 266.25506139453501 1053.8418541308492 6.5413214452564699 52.510408205911517 492.59421332832426 3.8645090647041789 6.2752057779580355 0.90263906493782897 13.959204429760574 2.7529103979468337 45.276034962385893
leaf_count=3666 219 1691 13245 15966 2140 25339 9859 433 1863 656 23312 9000 4085 9539 581 1274 8291 239 1288 2432 8656 71 361 4523 43 68 18 301 41 238
internal_value=0 -0.00248737 0.00213299 0.00871233 0.0355741 0.0200112 0.0400397 -0.000997714 0.00478324 0.0176279 0.0562024 -0.0104453 -0.00481797 0.0234885 -0.0202462 0.0166132 0.0109151 -0.0157597 -0.0142065 -0.0108569 -0.0166051 -0.0361614 -0.0191556 -0.0129422 -0.0668253 -0.147844 -0.0253267 -0.0744307 -0.130025 -0.0522764
internal_weight=0 9187.29 7290.51 4786.71 888.008 2212.36 853.366 2574.35 1952.68 968.606 493.011 2503.79 1853.53 858.769 1896.79 121.139 530.647 1615.08 1584.99 1456.8 1190.55 78.9986 621.676 548.969 56.3749 12.8165 59.9746 34.6423 20.6831 128.181
internal_count=149438 112274 97149 80398 37164 41305 36603 39093 33733 20488 26744 16751 13085 18625 15125 3432 9086 13434 13195 12376 9944 795 5360 4927 404 139 1292 561 260 819
is_linear=0
shrinkage=0.1


Tree=26
num_leaves=31
num_cat=0
split_feature=9 8 13 4 4 14 10 2 10 4 15 15 16 16 10 16 1 16 10 12 1 13 7 15 14 0 10 14 18 13
split_gain=100.866 50.9373 49.6878 49.6692 53.1228 69.318 43.2619 30.1231 29.9666 28.5331 38.839 38.4457 27.1974 25.1316 24.7548 23.6647 20.821 20.3815 20.2067 20.366 19.3541 25.1343 18.3688 18.0869 24.4488 17.6988 20.0649 17.6948 17.6647 17.5351
threshold=0.87622070312500011 1.1770172119140627 28.992187500000004 79.602241516113295 134.89544677734378 39.484375000000007 0.10800170898437501 1.9504528045654299 0.051559448242187507 111.85573577880861 0.80943245177522993 0.93465966195122296 2.4479068070650105 2.9483211934566502 0.16278076171875003 1.075574114918709 0.80983945727348339 3.0899221340762542 0.062393188476562507 0.71069335937500011 1.056940019130707 167.06250000000003 0.90597534179687511 2.2585315676453592 256.12500000000006 159.04108428955081 0.14984130859375003 22.039062500000004 2.4001541137695317 116.03125000000001
decision_type=2 2 2 2 2 2 2 2 2 2 2 2 2 2 2 2 2 2 2 2 2 2 2 2 2 2 2 2 2 2
left_child=2 7 22 -4 5 -5 9 14 29 11 -11 12 -7 -8 27 -12 -10 -13 -9 -20 -3 -22 -1 -16 -25 -23 -27 -2 -24 -6
right_child=1 20 3 4 8 6 13 18 16 10 15 17 -14 -15 23 -17 -18 -19 19 -21 21 25 28 24 -26 26 -28 -29 -30 -31
leaf_value=-0.052850892946471509 -0.050346445838351829 0.047102411252200778 -0.040869708842871721 -0.0071329470400706418 -0.060344931175256612 -0.051778486546676508 0.018613019121549151 -0.080141571851187102 0.030465797213775004 -0.023774652257998401 -0.21041436508718783 -0.022891451590985018 0.022655675102804786 0.051262749533389433 0.055275118284787345 0.038273431841005463 -0.011712731933131758 -0.091520428389971709 -0.039842494458154992 0.034361853563926043 0.000230234250745303 -0.036433159958880489 -0.029261135718019637 -0.027125258327933107 -0.54480533549195087 -0.41450477337651859 -0.0301821773276921 0.02766239996080725 0.0018044407718386915 0.0050484992884090828
leaf_weight=197.83871048595756 30.447756638750434 88.809231661260128 309.3387152440846 1957.3667275365442 189.75988952815533 57.18996100127697 471.85902880877256 30.71515815705061 126.10281102638692 140.14754724875093 3.858173517510294 216.99855707399547 346.54626486822963 471.16177173983306 517.54670604784042 464.76586347445846 1627.7109394781291 54.052474780008197 56.999297280795872 105.34507125616074 1023.1489374144003 7.4273256724700314 549.84433916583657 6.0663323020562521 1.0737753016874192 3.6058556828647852 2.1795761128887534 646.1808328833431 274.38125162664801 52.308626418933272
leaf_count=1181 603 2322 2390 17935 1008 436 8916 441 1479 1423 40 1752 3794 12561 28032 6534 12126 504 1500 2519 17418 119 3529 262 39 52 63 17880 2238 342
internal_value=0 0.0181282 -0.00499365 -0.0017658 0.000191593 0.00659523 0.0186636 0.0309007 -0.0132323 0.0067158 0.022413 -0.00744574 0.0121119 0.0349258 0.0367929 0.036226 -0.00868001 -0.0365773 -0.00576352 0.00830862 0.0022998 -0.00153949 -0.0254876 0.0530944 -0.104977 -0.13858 -0.269717 0.0241521 -0.0189195 -0.0462141
internal_weight=0 2519.55 7511.23 6489.17 6179.83 4183.95 2226.58 1394.37 1995.88 1283.56 608.772 674.787 403.736 943.021 1201.32 468.624 1753.81 271.051 193.06 162.344 1125.17 1036.36 1022.06 524.687 7.14011 13.2128 5.78543 676.629 824.226 242.069
internal_count=149438 71250 78188 71240 68850 53895 35960 51276 14955 14483 7997 6486 4230 21477 46816 6574 13605 2256 4460 4019 19974 17652 6948 28333 301 234 115 18483 5767 1350
is_linear=0
shrinkage=0.1


Tree=27
num_leaves=31
num_cat=0
split_feature=10 12 4 11 4 1 13 9 15 9 4 17 14 5 3 8 15 4 16 11 4 2 14 12 15 16 5 16 18 9
split_gain=88.5853 74.8107 65.5084 49.7996 39.7781 39.3635 38.1145 37.2375 34.5502 32.6156 30.5407 26.4147 28.1306 28.1753 33.5327 25.858 24.3607 22.7797 22.1166 21.5331 20.7789 20.1225 19.8252 19.2549 19.1984 19.0118 18.4516 18.2402 18.0602 16.7759
threshold=0.099945068359375014 0.73999023437500011 150.27407836914065 0.76342773437500011 104.97507858276369 2.0703201293945317 47.171875000000007 0.38659667968750006 0.95070874257017457 0.62670898437500011 134.56288909912112 1.7965838034921371 77.968750000000014 258.13310241699224 0.69102096557617199 0.19253540039062503 1.2732994406250095 85.37015533447267 2.0899300277233128 0.69946289062500011 80.732200622558608 1.5154895782470705 44.734375000000007 0.33728027343750006 0.7514674393658638 0.67965906858444225 193.90016937255862 3.104206839576364 1.9167286475473129 0.24481201171875003
decision_type=2 2 2 2 2 2 2 2 2 2 2 2 2 2 2 2 2 2 2 2 2 2 2 2 2 2 2 2 2 2
left_child=6 3 4 15 8 7 10 -5 18 -6 16 25 13 -13 -15 -2 17 24 -3 29 -7 -17 -9 -23 -1 -8 -22 -10 -14 -19
right_child=1 2 -4 5 9 20 11 22 27 -11 -12 12 28 14 -16 21 -18 19 -20 -21 26 23 -24 -25 -26 -27 -28 -29 -30 -31
leaf_value=-0.013949310868436652 0.034844750456990141 -0.021679651789276038 -0.01347709928420261 -0.0052803972313495819 0.026275000077900845 -0.11546496125632864 -0.096077765690373171 0.021787859481863611 -0.0095124316275797503 0.058837612080467561 -0.048054502925783837 0.00077073724126981475 -0.0026274283512470039 -0.033027971567062754 -0.23434516714024772 -0.0080408805712337671 -0.071180125303542063 -0.047394833391713589 0.035604744798783783 0.013709974144563687 -0.010477303905917973 -0.10326271950695265 0.056995636418334418 -0.028496384816771993 -0.069774857669666457 -0.013064623084802041 -0.33964264951806333 -0.10043577874099892 0.044768948841318067 -0.0068259655750578354
leaf_weight=144.76542887091637 96.310858671553433 79.493803012184799 413.87679717876017 343.90854260884225 666.00887412857264 21.1207211073488 28.310707215219736 423.14888976607472 221.18412406463176 571.59542413242161 339.38849708251655 1757.4774772692472 119.91075086966157 39.022866630926728 10.500133665278552 719.40652707498521 71.130928950384259 134.71090411394835 442.93711840361357 401.97693593427539 272.7808319600299 37.035122671164572 257.1115700462833 492.57260227482766 107.23424858227372 1081.5933201909065 1.7136592688038934 24.50847362075001 243.96606695652008 418.86312790028751
leaf_count=976 2487 1001 3343 2930 9556 190 241 9310 3232 26108 1840 19405 1391 588 126 13240 547 644 8493 3779 3884 573 10892 5296 612 9500 34 421 5342 3457
internal_value=0 0.0100151 0.0227453 -0.00154237 0.0302197 0.0122588 -0.0088276 0.0215372 0.012344 0.0413142 -0.0213875 -0.00263307 0.00378285 -0.00132537 -0.0757123 -0.0150816 -0.0143096 -0.0109596 0.0268883 -0.00390628 -0.0198865 -0.0189314 0.035095 -0.0337247 -0.0377049 -0.0151821 -0.0125323 -0.0185823 0.0291501 -0.0166983
internal_weight=0 5084.71 2419.6 2665.11 2005.73 1319.78 4898.85 1024.17 768.124 1237.6 1618.07 3280.78 2170.88 1807 49.523 1345.33 1278.68 1207.55 522.431 955.551 295.615 1249.01 680.26 529.608 252 1109.9 274.494 245.693 363.877 553.574
internal_count=149438 100990 52154 48836 48811 27240 48448 23132 13147 35664 11855 36593 26852 20119 714 21596 10015 9468 9494 7880 4108 19109 20202 5869 1588 9741 3918 3653 6733 4101
is_linear=0
shrinkage=0.1


Tree=28
num_leaves=31
num_cat=0
split_feature=10 2 8 12 16 9 4 11 9 4 16 8 2 11 1 14 10 13 10 18 10 4 16 15 4 4 18 17 17 17
split_gain=79.7184 55.4133 45.8135 36.7172 36.404 32.2968 27.0496 24.9636 23.1753 22.8928 20.8856 20.8229 20.9066 17.8325 17.7225 17.3797 18.8836 15.9407 15.3314 15.054 14.9929 14.9021 19.078 17.2213 16.1542 14.9001 14.7067 19.1624 23.44 18.7217
threshold=0.35852050781250006 2.1909395456314091 0.56700134277343761 0.17474365234375003 1.5500583370500289 0.29724121093750006 172.442985534668 0.79370117187500011 0.45129394531250006 82.85065078735353 0.52059258148074161 1.4022369384765627 2.8032747507095341 0.54711914062500011 1.442039489746094 25.289062500000004 0.053939819335937507 66.781250000000014 0.14532470703125003 2.3006846904754643 0.58374023437500011 134.89544677734378 2.9376323223114018 1.0378696541317705 78.460567474365249 183.45481872558597 1.7594057639413558 2.4708404541015629 2.0857002735137944 1.0696474631601058
decision_type=2 2 2 2 2 2 2 2 2 2 2 2 2 2 2 2 2 2 2 2 2 2 2 2 2 2 2 2 2 2
left_child=1 2 4 17 18 13 9 21 -6 10 -5 -11 -13 -4 -9 -10 -17 26 -1 -12 -14 24 -23 -24 -7 -25 27 28 29 -2
right_child=3 -3 5 6 8 7 -8 14 15 11 19 12 20 -15 -16 16 -18 -19 -20 -21 -22 22 23 25 -26 -27 -28 -29 -30 -31
